{"0.weight": [[-0.3428767396587839, 0.005834431337476095, -0.6927591280402365, -0.37450949987914767, -0.5470789870081645, 0.036355018615722656, 0.052841772518703964, 0.1057371046577799, 0.08591274119559372, -0.002423085278263737, -0.12685415458349675, -0.06531821500925579, -0.002243407076588327, 0.36583444205385446, -0.3786450486388813, -0.043655339918416546, -0.29056231545630445, -0.26242876949207516, -0.26086661598214966, -0.1799242480353521, -0.14469407991097033, -0.20717586842623836, 0.4797867437227472, -0.5629874640315528, 0.12285853048484847, -0.14796055563261962, 0.09737655810543282, 0.08771094969936598, 0.09396815590091932, -0.05796719342470169, 0.025407791137695312, 0.0030944974534352554, 0.21210622091962145, -0.055311145336939996, 0.003046363592147827, -0.061167314648628235, -0.0612800195813179, 0.07099384069442749, -0.046581536531448364, -0.1268734484910965, 0.09835425082134625], [0.20223579600211264, 0.3064264535960692, 0.011287540233375751, 0.5286100521851516, -1.9663286106105777, 0.1535050868988037, 0.0726194092916575, -0.08247731485179945, -0.03617818910450266, 0.011765560990982008, 0.06885447301402817, -0.11341031692489834, 0.01165259528797147, -0.33088817217339456, -0.06483517754196472, -0.18215955368345665, -0.13701689601025907, 0.09910818883323909, -0.3235617377966256, -0.0788300718133646, 0.059128982232827365, -0.0649117614896529, 0.0064683820545680575, -0.2069326894183268, -0.20662041642602905, -0.0863604161124444, 0.08807372421214844, -0.006294539866944601, -0.15115781754066518, 0.01700630784034729, -0.12667708098888397, 0.03159482164497956, -0.4530137791150263, 0.055950822850490425, 0.12093833088874817, 0.09812939167022705, -0.12056711316108704, 0.07234033942222595, -0.1211748868227005, -0.12733295559883118, 0.11755283999646787], [0.08825427963803678, 0.36342811421481924, 0.5749879590882339, 0.5510595431477416, 1.4167891086597364, 0.09725883603096008, -0.07838457974408973, 0.1609865403677259, 0.08969275045727194, -0.09853061989730799, 0.11352079514688011, 0.16019525531953166, -0.02878154770320918, 0.1884176678841582, 0.0052477589188322585, 0.06565273689560326, 0.24033979625409765, -0.39401804913057614, 0.1937434816639595, 0.051607043687539864, 0.07465391813496493, 0.015905267127142343, 0.14215117965314636, 0.05226265946164122, 0.017407002175553504, 0.06144901370305941, 0.05700557684201939, 0.134479038469976, -0.1278490796158841, 0.06963324546813965, 0.03491821885108948, -0.14497969284715467, 0.18995253907541035, -0.3408871695593714, -0.009430661797523499, 0.06022439897060394, -0.07897496968507767, -0.14738965034484863, 0.12464457750320435, 0.05480293929576874, 0.13546473561710237], [-0.27493897345751095, -0.30393652287712053, -0.08362001346079387, 0.12574809345486093, 0.6299803777792444, -0.08802509307861328, -0.13137065976312473, 0.05893438529881817, 0.3069474004440825, -0.041993217682674146, 0.10908416101120336, 0.08728301712654449, -0.2019321789501447, -0.21216347590219084, -0.18744374420537518, 0.038838161992947394, 0.3157626498891914, 0.08169879678150367, 0.3385237719268391, 0.2655434919527657, 0.12272650884910877, 0.2798874181655421, -0.12286138246863873, -0.015964107183170217, 0.10346876064088707, 0.06301806977312811, 0.07392624130766834, -0.07759944239336938, -0.033979101867268095, 0.08654811978340149, 0.12702888250350952, 0.06145391005906697, 0.1158836742332294, 0.11928554652355043, -0.027730882167816162, 0.1219727098941803, -0.06407208740711212, 0.09201538562774658, 0.04795384407043457, 0.12700599431991577, -0.2995495116124174], [-0.3572112334623559, -0.09429610267615372, 0.039813358417391635, 0.03478280210730866, -0.11904382749997176, 0.11294862627983093, -0.08309765142199048, 0.15458296263077803, 0.10788294636426772, -0.16450112916151777, 0.008594183251263847, 0.15076964907348034, -0.0799038917533539, -0.010025066181691264, -0.3039598548351052, 0.2589300237425908, 0.40162390580200513, 0.2693636651915517, 0.13773804236234308, 0.3728532380678643, -0.03181263572644188, 0.21436420736050008, -0.15364118562188453, -0.04206063458152277, 0.11605160858484541, 0.08203072218717275, 0.12039063243688283, -0.035170583738676715, 0.14500210552037912, 0.11804637312889099, -0.005791917443275452, 0.04075650229283045, 0.3246736147207497, -0.03830601541336233, 0.00989842414855957, 0.001969069242477417, 0.09659159183502197, 0.09686830639839172, -0.0064768195152282715, -0.15144093334674835, 0.12160772625776065], [-0.23709618492141007, -0.15727358094412822, -0.020325763984625093, 0.8509806660370571, 0.06524516230250503, -0.01090635359287262, -0.004549452899169888, 0.12701730747265214, -0.18597711978147222, -0.05478830360257728, 0.12946731387846044, 0.0937361770796012, -0.10177789353215888, 0.07044880363294369, 0.122395607060248, -0.2181156230496256, 0.013552461270435249, -0.2278829475031139, 0.3041160312906973, -0.11555661160248995, -0.07279835809811572, 0.3176506022733624, 0.26290471446261854, -0.17943546397551338, -0.01941204955790718, 0.050954487254609195, -0.05925912029505822, 0.12487147383927162, -0.12146453923941651, 0.015070080757141113, -0.06140127778053284, 0.0902522763889231, 0.1961527420067487, -0.3127704675772067, 0.11984851956367493, -0.06710312515497208, -0.11170801520347595, -0.0679711177945137, 0.05913107097148895, -0.016041874885559082, 0.06703937382463318], [-0.2559632804999159, -0.40724218922384403, 0.11538721666936087, 0.6672543311589997, 0.9821673195102012, -0.05747723579406738, -0.07519780103390672, 0.04571031953074894, 0.07624739988565375, -0.017127619753903096, 0.08919566428501022, 0.10506557977039246, 0.06362114690678826, 0.14453029403546358, 0.09852039642775445, -0.029304824044882723, -0.35164290950585986, 0.5669945801224971, -0.04769626315099914, 0.1657676063458646, -0.10619932757892325, -0.12200567460231523, 0.10164816238051444, 0.4656218098240818, 0.1257377824815293, -0.00567507014463878, -0.1665893571157333, -0.024686359025940394, 0.09541139735986127, -0.05720110237598419, -0.051634885370731354, 0.017055429484892717, 0.37290889146164313, 0.40038773491869395, 0.02377478778362274, -0.12543952465057373, 0.076889768242836, 0.07304224371910095, -0.13253505527973175, -0.043893635272979736, 0.02759246680309256], [0.20150478945523184, 0.3020269910251935, -0.1391858431265895, -0.8042982565741813, 0.7667396144447401, -0.1311069130897522, 0.017018961865123357, 0.06732402659279682, 0.04853943851143068, 0.1555112604922102, 0.058101120221249664, 0.12516559921466577, -0.05130769266426282, 0.21617131531011857, -0.37633367709887083, 0.23796798938596903, -0.2512544108238695, 0.0005842039274049499, 0.35302921498266326, -0.3087675985137639, -0.29242829524294994, 0.07514388522387232, 0.26339149395878203, 0.0975460967297056, 0.0058726246310844155, -0.13803301694112105, 0.07033273635191276, 0.035088882425256845, 0.15396177826208798, -0.14292100071907043, 0.0902245044708252, 0.01804998553836045, -0.3230890103991928, -0.522112549108596, -0.1042139083147049, -0.1261775642633438, -0.019763648509979248, -0.1255112886428833, -0.08008968085050583, -0.046745665371418, -0.08071760736734299], [0.1992380300793188, -0.20379713169338523, -0.3940703081322627, -0.569408628430387, 0.3131550794884038, -0.10677443444728851, 0.1080602139484518, 0.20848687339879401, -0.2036446486880579, -0.02642850384697421, 0.03424084137515584, 0.0001263613565411423, -0.10434958890661955, 0.10319683700707166, 0.18165192345705736, 0.09382647845273967, 0.29209025992308907, 0.36653600429267497, 0.47927277237003924, 0.1752094555619564, 0.043354048568332956, 0.2802822583863243, -0.29334951404838433, -0.12215640188783775, -0.12904320775132913, 0.1452616959014312, -0.05548837937924015, -0.097266578753918, 0.035369223276647106, 0.14955946803092957, -0.08877269178628922, 0.018223649451984233, 0.007529865633625647, 0.21526260098232278, 0.020282089710235596, -0.06999192386865616, -0.10217773169279099, -0.11183804273605347, 0.1314530074596405, 0.09071463346481323, 0.1473073021818009], [-0.11789956737425956, 0.4165292401193247, 0.012910719680163697, -0.7285470040730231, -0.4093630269824696, -0.03843832015991211, -0.12958524482608716, 0.040541785754177495, 0.15300239179286393, -0.14219795404879834, 0.12652646425586683, 0.12109081867557467, -0.07115419446437465, -0.16549933399758748, -0.08673265485625903, -0.20197736093371885, 0.2603138736236105, -0.2563566235911927, 0.09412419969523454, 0.1642668808403835, -0.01580993346269673, 0.06847600726394058, -0.04444200941590858, -0.19327237714551426, -0.3637129292954764, -0.099261794402889, -0.11681342513828634, -0.06705090792446501, 0.07964617370099665, -0.08101790398359299, -0.10227927565574646, -0.07559830339977545, 0.10369312227082707, -0.05185800656870173, -0.004937529563903809, -0.1554362177848816, 0.09242677688598633, 0.047325119376182556, 0.07331597805023193, 0.0741911232471466, -0.04382772349826597], [-0.17915903578271639, -0.2012412016971877, 0.42517058191527096, -0.6982140234915759, 1.1111028034707628, 0.05657334625720978, -0.06073694066319894, 0.035822875770645746, -0.01750278453034113, -0.10742332504902263, -0.16012048195888778, -0.0874442107587058, 0.10722244812335355, 0.1910777939800072, -0.054253451106336635, -0.14772625790255509, 0.27096540653053075, 0.4688954005702328, -0.4029948428301315, 0.37334706110832755, 0.22693272018871558, -0.2865595538596189, 0.25548577169519304, -0.40778989174809327, 0.04756902936359956, 0.12700321813366347, 0.02162414332172826, -0.14283071915366527, -0.15863883952357763, 0.07992576062679291, 0.09665220975875854, -0.046512839272681544, 0.14347285476790508, 0.3259050590066951, 0.08484521508216858, 0.03444190323352814, -0.08696747571229935, -0.07158461958169937, 0.03693962097167969, 0.12141677737236023, 0.007746164025939597], [0.3894749287776216, 0.25815015838230376, -0.019372182849969947, -0.9538398527992006, -0.9707944180750432, -0.019365891814231873, -0.23613063827643874, 0.07883814471370654, 0.08482277511173786, -0.14270040586528587, 0.18812342515793792, -0.01082240262421754, -0.2219176162773115, -0.12535061694494476, 0.037217991589220845, -0.00539191721605601, -0.3702170692765337, 0.08708229335973564, 0.09683618266522685, -0.2846814369223605, 0.15721552432854108, 0.09362331955181649, -0.06970942446193039, -0.1540273430350969, 0.08899908559787037, 0.034198116906537374, -0.1192982826152892, 0.014660116680516623, -0.0881964672127832, 0.12372398376464844, 0.13797211647033691, 0.09000430638625151, 0.1615811975042143, -0.09745871139730825, 0.14303317666053772, -0.1072642058134079, 0.10509589314460754, 0.02407611906528473, 0.0634148120880127, -0.12364191561937332, -0.06340286981922337], [-0.015315127761832987, -0.25169937244095414, -0.0661516148698502, 0.6434003056891384, 0.9927147752063007, -0.09501782804727554, -0.0006461272973101914, 0.10918338984207344, -0.1351724961893353, 0.11023381046176506, 0.12468969700793012, 0.03722829995611597, -0.08606957205414223, 0.03686110425202339, 0.15170887477699385, -0.15350416207525713, 0.3490452191290031, -0.3653796209679614, 0.2435034445906653, -0.052166883576290846, 0.3440708601053565, 0.396935046715376, -0.015009383308278227, 0.2126535103890525, -0.16148229011377818, -0.08632227111569438, 0.11547004353293427, -0.05894213248005684, 0.11956947218665162, 0.05425526201725006, -0.14563043415546417, -0.011780479226385964, -0.013341524461448769, 0.5532278406649397, 0.13689330220222473, 0.006107896566390991, 0.04273505508899689, 0.11818188428878784, 0.05131301283836365, -0.0893842875957489, 0.11247264818779058], [0.10686574402029668, -0.12797966821799142, -0.13797840282152707, 0.6732309251010483, 1.3560885536141372, 0.1549912691116333, 0.07268268100052312, -0.03576038816090882, -0.04842749474006, 0.07767146951393256, -0.0489659006669933, 0.07366062002630883, 0.021423221890490726, 0.5220528383252235, -0.09598748974650367, 0.34006739728159696, -0.419835549251756, -0.041020804880844315, -0.1738153905858371, -0.3730120062934266, 0.04903305186826368, -0.05785809291788311, 0.2534694030453216, 0.013472095564965746, 0.3502569493613863, 0.03419942546110728, 0.03103748846273997, 0.039919027569108326, 0.006342166545206183, 0.1266273856163025, -0.09326023608446121, -0.05610576880444013, -0.01396905257471791, 0.3874380943268383, -0.060039862990379333, 0.12884840369224548, 0.13507771492004395, 0.05474992096424103, -0.03756611794233322, 0.00831034779548645, 0.06709345242587346], [-0.21850618512835204, -0.18701522600045212, 0.07972085500513343, 0.5117593801514939, 0.879995662290908, 0.10047173500061035, 0.10478238599732961, 0.16275889900146112, -0.023023362845696737, 0.10874766246351088, 0.010860933389523516, -0.13400099572910787, -0.039104788145696776, 0.2862314703384853, 0.1973537370155052, 0.08673711963471667, 0.5750647515650393, -0.19629359808733546, -0.1270528260729021, 0.3776460290862439, 0.11814814873949384, -0.12222867803675931, 0.2292858082073796, -0.12201155852556385, 0.04408349332777652, 0.047448578677652384, 0.023958999119280736, -0.023528304495335873, 0.13055129667329352, -0.12023939192295074, 0.11615845561027527, -0.04375165378842551, 0.34008338783069747, 0.15986617574603576, 0.017929360270500183, 0.007368206977844238, 0.008364498615264893, -0.14182782173156738, 0.04886995255947113, -0.0072623491287231445, 0.08523219678515814], [-0.20681691359121376, 0.3082983201783254, 0.3157008779808069, -1.4353834410603306, -3.2578909304846477, 0.0333394855260849, 0.0408005692964953, -0.033289602858840535, 0.04762481304094205, -0.06643415821175636, -0.035628559134705924, 0.12493215308357537, 0.04711318182368277, 0.10057560065191455, -0.1143159483129608, 0.11890096524060532, 0.39938233752141966, -0.07370931473916041, 0.16723371160340714, 0.16121781418899359, -0.2685265056173363, 0.24911258586225707, -0.15223763776495233, 0.14464739471504695, 0.2676975341635684, -0.049641579976100816, -0.07058474480153995, 0.036052993843536746, 0.04666187555549629, -0.14663484692573547, 0.08465994894504547, -0.001624079497563432, -0.031153539019356167, -0.4523577061038839, 0.004354655742645264, -0.037961363792419434, 0.08123449981212616, 0.09962952136993408, -0.0673108920454979, -0.08735592663288116, -0.3656810180897709], [-0.04488218096122137, 0.1840413105205281, -0.20682261060705184, -1.005538278811711, 0.40245357308891994, -0.07804165780544281, -0.1205901865981159, -0.1425738045476208, 0.03320461011701301, -0.04832483207057175, 0.06541657376333933, 0.006473019004313787, -0.17612288271258517, 0.42771798542441425, -0.3570009337159912, 0.3151112671247536, 0.09676418903473614, 0.08233647829301526, 0.07768145106499114, -0.09152698020460125, -0.2613208723357765, 0.1600717845983548, 0.32885037461166516, -0.28720568669096286, 0.14708648842932648, 0.04741180216180464, 0.006876575697533349, 0.16393780981408534, 0.145960542310347, 0.0715780109167099, 0.08007718622684479, 0.12533596403376934, -0.12021170137997013, -0.11305963055186043, 0.09692567586898804, 0.13132339715957642, 0.01628302037715912, -0.0862652137875557, 0.10599097609519958, 0.11494454741477966, -0.06098464079879585], [0.15622304747266477, 0.2917477577933487, -0.3588791889112899, 1.1665785716542536, -0.16616631958016587, 0.0515374094247818, -0.026822128199589134, 0.061298144404345015, 0.14144400560694498, 0.17372117310225346, -0.08336121533977599, 0.0976636713279523, -0.06471855074704323, 0.19751592569151194, 0.12641568051128604, 0.13324026534642738, -0.29911260023243336, 0.19367816761990156, 0.02401374370310884, -0.06947030727763052, 0.08089282595676986, -0.020029880652331394, -0.26916061203038893, 0.0475338063809106, 0.06413603793926213, -0.08331317003471767, 0.03689258251683797, 0.06347369108693793, -0.010621975321602469, 0.1275114119052887, -0.10439141094684601, -0.11112326749588419, -0.3085474102859402, -0.593126950781533, 0.11251512169837952, 0.08014851808547974, 0.11258280277252197, 0.0406586229801178, -0.020793214440345764, 0.02230963110923767, -0.047311052891030186], [0.3568600779630617, -0.1892500739426794, -0.07243244894579916, -0.41603888691563345, -0.7957158059093287, -0.07920438796281815, 0.04377586358278804, -0.03988993947112561, 0.07188922222424433, 0.08733540849688004, -0.03607852807015794, -0.06308300843209834, -0.11279363853929097, 0.07987169867085454, -0.16177935046757735, -0.2865471506561061, -0.42138596520102795, 0.5932106444367508, -0.11172467662449416, -0.08439813083311896, -0.3086983573032389, -0.1823726392614316, 0.10285012210223285, 0.022896931490308196, -0.010651887960405945, 0.010293524266205464, -0.10292800187973025, -0.0755996075263406, -0.05997156023887561, -0.05320488661527634, 0.11023455858230591, -0.023387338995914563, -0.2956723249060321, 0.5335776791730168, -0.06817518174648285, -0.02230827510356903, 0.11240869760513306, 0.03646916151046753, -0.12001340836286545, -0.013669848442077637, -0.09763862145828642], [0.21726549806652964, 0.09537755590934964, -0.23777556509466913, -0.5133764090583336, -0.7745694351910101, -0.12479443848133087, 0.22328525243456, 0.28925035474244015, 0.032581407319721534, -0.1180238041586026, -0.04405814542116947, 0.118231183451989, -0.0902564886516674, -0.2891510175675544, -0.07866495893657631, -0.20340695505020998, -0.28142308734799815, -0.25388486329218785, 0.19803898877513948, -0.15085172562810178, 0.18641772374824941, 0.06526203693330568, -0.32797657918389717, -0.1904902232455588, -0.3118369112033033, -0.07339054097945177, 0.11371843764966047, 0.11454682300274885, -0.006751937172955294, -0.09453405439853668, -0.04240288585424423, 0.14418436789277692, -0.14916259645572522, -0.2554528010677938, -0.03161170333623886, 0.02330338954925537, 0.11434060335159302, 0.15228402614593506, -0.1452312171459198, 0.09235070645809174, 0.12447661531137998], [-0.25570456004894543, -0.1849745918097538, -0.321183439156803, 0.15073672522230278, -0.09760679351470336, -0.12627342343330383, 0.009109925871425109, -0.06815715592015406, -0.0507303013959076, -0.05446741706752681, 0.17681163213064677, 0.13904839417746073, -0.177518091863633, -0.014201059708016, -0.11840613864956492, -0.027915082399280287, 0.06874025130181803, 0.28980454175807163, 0.3198113511633775, 0.11608002021157669, 0.06870571805138677, 0.18834462262150933, -0.13314252199446866, 0.05961920320157857, -0.0744379316402583, -0.0001360552522437112, 0.1674586159971439, -0.08341845144956234, 0.14997144768507115, 0.02057008445262909, 0.12212207913398743, -0.12942514654643958, 0.24795004407119692, 0.3602038819768172, -0.005306661128997803, 0.023223891854286194, 0.005219906568527222, 0.03164146840572357, -0.08236946910619736, -0.1068970113992691, -0.20077923029432598], [-0.01193142175761808, -0.09762888563858767, -0.1988235394307021, 2.2462071086146613, 1.0626296071259078, 0.03972350060939789, -0.15095697585032472, 0.07459717431951715, -0.1955829587094814, -0.007130712173125058, -0.022589032927603208, 0.06797146292582217, 0.05328819165454219, 0.3892464881584796, -0.1869444224706921, 0.009809508281439297, -0.3106448073014374, 0.1837050895888077, 0.22618311648303296, -0.21628663858066038, 0.14633859925811782, 0.2519563481967184, 0.11757206498632579, -0.2925510729457814, 0.06463188786057565, 0.12726856651822685, -0.06983563420255788, 0.0799912351659945, 0.04177307966271955, 0.05034451186656952, 0.07740151882171631, 0.011875896275290562, 0.19915266206555565, -0.3320206696823754, 0.02474258840084076, -0.0010882467031478882, 0.0923604965209961, -0.04542660713195801, -0.11665083467960358, -0.06848692893981934, 0.19415451265949515], [-0.08993955031076757, 0.20419610476741495, 0.4357197670441324, -0.1714186838455509, 0.43296014589656406, 0.10783147811889648, 0.11634797752798541, 0.12777325846593654, 0.23984190350040652, -0.09773899342259329, 0.03460872185924862, -0.08617615687152523, -0.006122422473039345, -0.30232193708597743, -0.745976279786464, 0.1217357924966595, 0.1267421659231174, 0.46106475682066844, 0.0365648395423565, -0.2991955276858319, 0.6790893013120473, -0.060972449233301376, -0.48406671065560564, -0.367363000113113, 0.10525526216472339, -0.02211072037913566, 0.19347140450976313, 0.04029742141268548, -0.04730885962941356, 0.028592810034751892, 0.03803490102291107, -0.06570033624369201, -0.14633715791980378, 0.5687309110882508, -0.1519479602575302, -0.055682748556137085, 0.0036273151636123657, -0.09301432222127914, 0.11553177237510681, -0.06422662734985352, -0.26352258631518055], [-0.07460165487900022, 0.10362958821728444, 0.5188412305266547, 1.3216805858044876, -2.7933687326097014, 0.12024092674255371, 0.014770560610560906, -0.03352612374647535, -0.024606060624058592, 0.12152814766761838, 0.1061320667850794, -0.05289471244932843, -0.12195892730357999, 0.3879605892769667, -0.04829461059002593, 0.06804057962825794, 0.1167759131445319, 0.3975748459453713, -0.36205049719067456, 0.13422248290276584, 0.3343095667776748, -0.04183876501833554, 0.33212544726331866, 0.07621994362902075, 0.278657525679417, -0.09353933009363184, 0.1549759182050153, -0.09103034707761769, 0.09729158607267367, 0.020257800817489624, 0.011080682277679443, 0.034436372826292985, 0.17309058365888894, -0.12686764375030543, -0.11796525865793228, 0.07536543905735016, -0.09702327847480774, 0.03743520379066467, -0.07243818789720535, 0.00607791543006897, -0.04266394478851372], [-0.30970768355218087, 0.05930891529695993, 0.16479706467021468, 0.3396688818507294, 0.3659477665759568, -0.08012726902961731, -0.0042738379139975555, 0.10735970390467674, 0.055054610078929894, -0.06468951080518386, 0.09431626311167259, -0.022809516278663095, -0.02750166629033787, 0.1470891747775819, -0.24667112678115163, -0.20514646876175036, 0.4555943193046422, -0.29642542170109926, 0.007170912652900155, 0.2515919279093074, 0.1166461726249658, 0.13292431253460496, 0.007020460822638596, -0.36693946379617964, -0.13812939341835354, 0.03776863978478311, -0.05958168937590772, -0.046542443174392524, 0.11161301301094888, 0.015253975987434387, -0.013619035482406616, 0.1178395231879203, 0.2766212526987994, -0.1945669964526212, -0.13717444241046906, -0.08670033514499664, 0.0911710113286972, -0.006423234939575195, -0.0436832457780838, -0.0583227276802063, -0.05758266032206109], [-0.26482007789930523, 0.6125018987927858, 0.019444035143200398, 2.2859457472552758, -1.1638901925424037, 0.06396883726119995, -0.09789152460668799, 0.15962796696710982, 0.11234302949948116, -0.028952678606047617, -0.06286294948338031, -0.11547032933710667, -0.019906392261519558, -0.057083583721781746, -0.27044198192423957, 0.1684818681479073, 0.3658367048439153, -0.21318330424484402, -0.02115838315324833, 0.14637844977072753, -0.08293970819317667, -0.08269946354469002, -0.11158140539294042, 0.010174625496098893, 0.09230365650705966, -0.022266857651151748, 0.12293034759434227, 7.491526278103323e-05, 0.15868519214066257, -0.05336512625217438, 0.14952018857002258, 0.017228155995055516, 0.32266165894586846, -1.0706205548999228, 0.0740220844745636, -0.08113112300634384, 0.017726033926010132, -0.12758015096187592, -0.07724245637655258, 0.049327149987220764, -0.15155169578479263], [0.29704480894369184, 0.08292523481490685, -0.20088756417936468, -0.3074006303737848, -0.07423459370393319, -0.06446009129285812, -0.07395333629356228, -0.02377613815205825, 0.058637955163748375, 0.03738219624176791, 0.0920728519541185, 0.11912136524738488, -0.12173170263155736, 0.11683787824020911, -0.18008318457867445, 0.003642671532135066, 0.19428490519895977, 0.025986196571922863, 0.4283819657767212, 0.10917212099609357, -0.02254228289085366, 0.31599042755258355, -0.12211814734052637, -0.05180687434874358, 0.0013506619232913487, 0.0995836422547491, 0.05178862966148119, -0.13493557118328303, 0.07189783609954432, -0.1503407061100006, 0.13044330477714539, 0.022375316759536776, -0.1568838622537384, 0.11788634026981461, -0.03580649942159653, -0.14647173881530762, -0.09046337008476257, 0.09750247001647949, 0.10057675838470459, 0.09541898965835571, -0.045976046323106444], [0.8051602241012837, 0.23457961897616444, -0.10244881305331914, 1.0386314154399996, -1.0818434601109654, 0.023362234234809875, -0.0624228808307465, -0.20201264495522903, 0.03842354372096329, 0.014627512825432202, -0.06317852749381123, 0.1628195612236496, 0.14950296683401354, -0.23022139577505338, -0.32083012226005325, -0.1616071891690979, 0.38152935857521497, -0.10662937805870581, 0.125312226465774, 0.2535680232432541, 0.2849346925933386, 0.1757259397090062, -0.0858691671179993, -0.10195529521879608, -0.073223345527068, -0.07780967608429935, -0.06502038196065014, -0.01869609907605373, -0.06816127851941171, -0.13386297225952148, 0.07725837826728821, -0.07083938932512078, -0.3478626607158864, -0.5409833018700122, 0.011266618967056274, -0.04784161597490311, 0.08618806302547455, 0.10371711850166321, -0.028460294008255005, 0.1428767740726471, -0.1883750415617697], [0.1114661508281517, 0.46761506754870996, 0.15435596856228537, 0.14012024804800077, 0.7243418170424918, -0.1404150426387787, 0.06357400787662046, -0.08967582430503546, 0.06564994927727252, 0.011832406609228893, -0.04405806794557641, 0.1185343505462629, 0.09981059083240275, 0.4479200435772343, -0.30112738199741645, 0.07264736096886185, 0.01651730513235291, 0.009608409541073672, 0.25514701286620967, -0.16009700985306424, -0.18470452839607904, 0.2832107862779013, 0.21398707282088694, -0.16048020810351699, 0.08758168474218365, -0.03271364219890028, -0.04265237398848925, -0.15859231897101875, 0.026723513524671658, 0.04636643826961517, -0.056971773505210876, 0.06882744478164843, 0.19077651283679464, -0.5925926693625926, 0.0979299247264862, -0.047325022518634796, 0.08842898905277252, 0.11716541647911072, 0.061620309948921204, -0.0797080472111702, 0.09650445031536405], [-0.12808505726936711, -0.44518875878600217, -0.5480976197624947, -0.13459066992047353, -0.0781019350256837, 0.11022987961769104, 0.03576521691749827, -0.19418119074794407, 0.18691471824625708, -0.08283292536819384, -0.031769300220097885, 0.09385769593945682, 0.11793745274459702, -0.23413747493859344, -0.30204335124843096, 0.23885041893049416, 0.0018877887726793236, 0.4342761946577898, 0.36410622624697186, -0.007886017059502518, 0.018280184353360665, 0.38324516698375505, -0.3337707174665168, 0.2038219699321322, 0.27300326987188855, 0.04698816871943365, 0.048356467846058834, 0.0503935459882249, 0.043457740905903514, 0.0456511527299881, -0.07972859591245651, 0.16157130347466608, 0.16803481979493073, 0.09723765078531146, -0.12895821034908295, -0.08675561100244522, -0.0012562572956085205, -0.11159639060497284, -0.00908537209033966, -0.10780350863933563, -0.017462268947245688], [-0.015517248674660622, 0.3377645747345721, -0.2014585845108624, -0.06230887943381686, -0.2909583622458452, -0.1445693075656891, -0.19748882089466357, -0.0054743448144315586, -0.234670950042247, 0.0031674419261934696, 0.12013899256141188, -0.16591763030140208, 0.07836257561225878, 0.5846109291139028, -0.21620041908476684, 0.34006058114599896, 0.025288568156558274, -0.40421432774695404, 0.08252104342950561, -0.4478831938392312, -0.2801455154096637, 0.13312303843184917, 0.1839050301642832, -0.0682703494786579, 0.39819281332518547, -0.011829168298109677, 0.12756128539814188, -0.011674553849562314, 0.15480624069942606, -0.054203540086746216, -0.025380834937095642, -0.12229539549084303, 0.07679268450105205, -0.3714362847136314, 0.0712716281414032, -0.014727160334587097, 0.13375884294509888, -0.15100108087062836, -0.07232573628425598, 0.030406683683395386, 0.23484069958707135], [-0.21832667051854343, 0.5696597698294613, 0.5561487005316514, -0.07853349359875432, -1.3384743505659218, -0.1249796450138092, 0.018396374883569128, -0.062036949340011895, 0.04139623271230687, 0.04783828444915441, -0.09078038943732551, -0.04077738238299717, -0.01868068538469742, 0.14949648875569713, -0.8927323542911253, -0.19997642597609336, 0.2728363838522041, -0.26954992535978434, 0.10613081727591143, -0.10783934562907052, -0.04484951187402586, 0.14172948974345934, 0.3218082739173922, -0.5571783918784544, -0.09284716841724783, -0.08704214129615567, 0.05262739624809142, 0.019824590943564105, 0.0717701133711254, 0.024954497814178467, -0.13199292123317719, 0.10702479991239305, -0.05113740393686674, -0.43207339569819986, 0.0673414021730423, 0.06817589700222015, 0.021429911255836487, 0.1446579396724701, 0.04328553378582001, 0.0532827228307724, 0.009043021893126018], [0.13400790421931344, -0.13829053243095954, -0.18991991906616423, 0.6032526318704049, -0.4475774551897293, -0.0903443694114685, 0.03258859436449364, 0.034438850512073016, -0.06548925044673506, -0.11353710173811186, -0.01002151324979568, -0.037587387409131486, 0.08559659243379254, -0.10017300212437273, 0.26534621023499577, -0.00930708006791201, 0.17807143471905737, -0.22598611923969014, -0.44495892365188605, 0.19842693466327094, 0.21826719663462438, -0.4347358672546783, -0.29028070474627504, -0.11365917481491454, 0.11073340378480748, -0.08565073757497292, -0.14839765726653645, -0.14878440200416157, 0.024628576644978053, -0.11703856289386749, -0.04652205854654312, 0.08846383965496292, -0.22919568072995, -0.36397729370515086, -0.06889558583498001, 0.15397652983665466, -0.14233073592185974, -0.0641828402876854, -0.11285750567913055, -0.06809913367033005, -0.14830738523945006], [-0.31316168981448217, 0.010745315773520931, -0.005248374873551132, -0.20578990940521402, 0.5429532879737771, 0.03797449171543121, 0.03398858393203341, 0.16582641433504677, -0.018305599527435566, 0.14408937214122639, -0.1314699678534631, -0.13013018954936317, 0.1680053186248385, 0.10650463864453182, -0.5252304345705494, 0.17068327544484807, 0.10567205704365278, 0.17425490982030517, -0.19605150613736366, -0.1839052002548692, 0.32737940755262795, -0.025359062416173774, 0.36100401112386626, -0.4815063428599528, 0.29480416843636337, 6.374610009114792e-05, -0.025826820308543105, -0.008315832490302237, 0.003439112430237926, -0.013240844011306763, -0.0741441547870636, -0.13165061304060374, 0.29043772400264933, -0.0344873378591082, -0.14176267385482788, -0.09415487945079803, -0.04771978408098221, -0.09007561206817627, -0.12758463621139526, 0.09398221969604492, 0.08185641182513974], [0.2788951509750726, -0.167704097769225, 0.4251235191054785, -0.4531927692631359, -0.17596927800459905, -0.1488170027732849, -0.032415491790497415, -0.030119975870541764, -0.19190613600908493, 0.14132015384191834, 0.1730074049938818, 0.08019948620687851, 0.01923157251829671, -0.3228153595479715, -0.1747659000455447, 0.08539684120854543, -0.47262427847363414, 0.39633069923727415, -0.1416536931663284, -0.04311670262383772, 0.12062065659826804, -0.3091339056408383, 0.012755938198281072, -0.04779786834799474, 0.05622976889616384, -0.14115735854513572, 0.05622331086985988, 0.004944332283664158, -0.15482792224295217, -0.12246861308813095, -0.09215157479047775, -0.034054285916285974, -0.3645704668247487, 0.22343755809334798, 0.11704981327056885, 0.1277875304222107, -0.1315344274044037, 0.012437567114830017, 0.08216753602027893, -0.12141212821006775, -0.12838485925306745], [-0.5052906270395824, 0.11492283540267227, 0.30932225919058265, 0.12505185818578646, 0.2023001875723683, 0.07315674424171448, 0.030060604467590464, -0.15647134284554173, -0.006394036364436091, 0.11550965624691072, 0.05110143547977976, 0.10868619805302195, -0.0014806268846850905, 0.006377114161870393, 0.22858048179578883, -0.05592287714879776, 0.49221039232628616, -0.4592548743354771, -0.001402591925655355, 0.3072162069287116, 0.4911394362631373, -0.21085472165286376, -0.0017762168591366322, -0.20307009613147903, -0.0031281240333826737, 0.07631626499869319, 0.07020285500266053, -0.18115650342725043, 0.028943536412495113, 0.1112419068813324, 0.14967292547225952, 0.00047343794039801765, 0.4134103860671052, -0.13389454232689138, 0.025551915168762207, -0.07974643260240555, 0.04935328662395477, -0.08811657875776291, 0.07827043533325195, 0.0034349411725997925, -0.09802601275711693], [0.19628715070031422, -0.2098741819768108, 0.1206782642686469, 0.2878767098418758, 0.20426866806451016, 0.018985018134117126, 0.04307319507295577, -0.01687699145706197, -0.1794328851135204, 0.11352706288308455, -0.09411062792705503, -0.1419154901878716, 0.09185676609486894, -0.09931664260774513, 0.23909878674623095, -0.05043712298953629, -0.1457624783708647, -0.054384531242811125, -0.38163811485927934, -0.23700076898706132, -0.056853371561364476, -0.44723348800208945, -0.19280428621187537, 0.06952699230607412, -0.07727447947716073, -0.14132890745802928, -0.05628327175780182, 0.1100580032189282, 0.026596062930384443, 0.02895653247833252, 0.01164199411869049, -0.05672142618691661, -0.07814572601336377, -0.008391262063618706, -0.08460930734872818, -0.14343169331550598, -0.13997113704681396, 0.04517529904842377, -0.008389189839363098, -0.007115647196769714, 0.06464351841399608], [0.252063238264306, -0.3243239502788141, 0.14589416059645355, 0.8813039073418282, -0.3981285889652601, -0.017564669251441956, -0.06408449707241469, -0.0006675751888371984, 0.07941617552289232, -0.07630858587846753, -0.03858325061815087, -0.06822738227861411, -0.03694016503915748, -0.4728614123282013, 0.1392780235229547, -0.3664532999515724, 0.10640312596662144, 0.2652853304066871, -0.3565259625173084, 0.127794992694701, 0.3303108893364899, -0.22406563147746275, -0.38661089899855544, 0.15118599528962187, -0.3681593169014298, -0.12596068377801112, -0.04378557051726701, -0.11631601150342154, 0.08216437105826165, -0.0055482834577560425, 0.09598338603973389, -0.1346969968274853, -0.13621470613674447, 0.15393135001132704, 0.032258063554763794, 0.01515701413154602, 0.09746184945106506, 0.09976586699485779, 0.13827133178710938, -0.1499248594045639, 0.0070996059736349905], [0.2796928240489002, 0.4930083397319136, -0.27276472892543124, -0.7294687764614195, 0.25644351426187206, 0.1034587025642395, 0.15099174000982143, -0.008521596303414375, 0.07764923054382031, 0.03464543533595623, 0.20297652450279982, 0.13850629296974623, -0.0072647659751548625, -0.13781498521601881, 0.0846371530084619, -0.22112597294225853, 0.27247498353418886, 0.06923132677832762, 0.38234948274990915, 0.15073937129846549, -0.09870313886447231, 0.3785551465324519, -0.12977324235096488, 0.14436913466709642, -0.01806419175583112, -0.1228390789501872, -0.13012968068053213, -0.06313114677598394, -0.008368090438149282, -7.618963718414307e-05, 0.12103700637817383, 0.13953037514983402, -0.16675650351549556, -0.32483365321793534, -0.015155166387557983, 0.022346511483192444, -0.11035315692424774, 0.0896100103855133, 0.04110264778137207, -0.02223871648311615, -0.019827252019160597], [0.27197438743049607, -0.0358337443107112, 0.05390581294727961, -0.10142001971019922, -0.8885345196839196, -0.10796605795621872, -0.1383393228330567, -0.2902786136949125, -0.16669787734565128, -0.011313535779824215, -0.15287374663598763, -0.1716509978795775, 0.14322765865911413, -0.27041727158649154, 0.4984681389633079, -0.2239307295438935, 0.12100188224096821, -0.17201955489896031, -0.1756007399708065, -0.010542107926443296, -0.04379563008512827, 0.005211979720298304, -0.26952648520652395, -0.01578618513641413, -0.10778350470546286, -0.14477591269415557, -0.13527029805582536, 0.10605977422791697, -0.0008825963060256903, 0.12823906540870667, -0.13886021077632904, -0.1840695145017512, -0.210062602098929, 0.572379964127345, -0.055108845233917236, -0.005978494882583618, -0.0003005415201187134, 0.08689989149570465, -0.10557125508785248, -0.13343462347984314, 0.04407280177119849], [0.4053882535797899, -0.0496001314489336, -0.091876903948103, 0.011674598901548315, -0.9591045170293461, -0.024065658450126648, -0.12920209676831637, -0.2142436639200075, -0.11407554604085489, 0.16138454920100045, 0.10965590859746742, -0.04946898733282097, 0.1546003187303431, -0.3179134173081785, 0.20017711741715738, -0.06808242684668048, 0.37496895424303694, -0.0366076734361023, 0.13342023149378732, 0.253401171626239, 0.15838625860826785, 0.05950039411650069, -0.14924989306264486, -0.17057327362945388, -0.0022850820380678266, -0.04605137979609616, -0.03645196234805261, -0.022840824481078565, -0.08357361381871285, -0.09667214751243591, -0.03750237077474594, 0.09995353610187957, -0.25931496770185614, 0.07267466153110914, -0.00823812186717987, 0.03757171332836151, 0.04257148504257202, 0.037862151861190796, 0.031522199511528015, -0.040688544511795044, 0.01140586879800458], [0.31336843477854853, 0.099219970892219, -0.33321094955919894, 0.6607449799190703, -0.29297211210371227, -0.017971321940422058, 0.06905684754233539, 0.1396132254447236, 0.036324423018704574, -0.08883527696519414, 0.23006666024884986, 0.13207348009309805, -0.08748771280437032, -0.024441463545402598, 0.10098924765466027, -0.15402673722910348, -0.44291674901595357, -0.44922643067325924, 0.1875440378754024, -0.5460835093749447, -0.01703491853113841, 0.2715923682564138, 0.1025930138753312, 0.003195797310965208, -0.05262111922959253, -0.0420100475139359, -0.004231900948976041, -0.12684518196056135, -0.13789936997363814, 0.10806542634963989, -0.06569559127092361, 0.10923229099170939, -0.22529696201854946, 0.06867919442630992, 0.01216287910938263, 0.09269879758358002, -0.03495939075946808, -0.026949197053909302, 0.057717278599739075, 0.08075298368930817, -0.035094806039906404], [-0.23432046842018797, -0.086589060039721, -0.20272560622737595, -0.41649137585569695, 0.3026806312320203, -0.07244715839624405, -0.02477011905284084, 0.14028151272019845, 0.2631107102224843, -0.1540590432796135, 0.10365315648179559, 0.04290201636414929, -0.12442474638553984, 0.04979214414788976, -0.17061788573579456, -0.1692512172280562, 0.09368788622673964, -0.21082781604990256, 0.2316684556827299, 0.220903314860757, -0.16782998986666875, 0.3173092871521147, 0.16181228845579188, 0.01505705271434219, -0.17710969232577595, 0.15885425804429967, -0.10337072910494023, 0.09647231994443502, -0.13257322014993708, -0.15093141794204712, 0.07503052055835724, 0.06518129682589546, 0.03832073465514738, -0.49662068773649265, 0.09437975287437439, 0.07324644923210144, -0.024457186460494995, 0.08064116537570953, -0.05226089805364609, 0.14925864338874817, -0.28354984328799404], [-0.037267539959831626, -0.07220278235764273, -0.29034633124897735, 0.5588854655697972, 0.3737723794642468, 0.10095950961112976, 0.049987046166147645, 0.016988226675940157, 0.06396384472894073, -0.0012469105470979073, -0.08632100631969909, 0.05449539164525565, 0.04927140846363417, 0.398889339822671, -0.33564381858328635, 0.2836294446692512, -0.005968948376874601, 0.19952719765978255, 0.029369243748080153, 0.3461496384832375, -0.45505814323487986, -0.01450661831298184, 0.4389732045584389, 0.03578308198517056, 0.08160851891565876, 0.05407767848844011, 0.13677289442891447, 0.012716525362676747, 0.11148669676656127, 0.11766910552978516, 0.10125890374183655, -0.11213305237787637, 0.18487384946851984, -0.2757137013349745, -0.022219151258468628, -0.0030206143856048584, 0.10382089018821716, 0.010245859622955322, 0.043191105127334595, 0.1444888412952423, -0.0624601579104899], [-0.280276298169618, -0.18567458052806987, -0.21888180772222554, 0.052886611757961964, 0.27450292631130757, 0.007702946662902832, 0.041140837798521145, 0.03873220835773262, -0.16431563378369385, -0.08846971938335467, 0.06331244468868127, 0.06397047996700153, 0.01338980546271796, -0.34799785121656557, 0.030243757322624156, -0.21240489027881157, 0.4637203188067492, 0.33395636369763293, 0.05823413513412287, 0.45251986675810624, 0.08987672917244338, 0.24153333983808103, -0.2850086042726384, 0.08142173588569565, 0.02975660110427936, 0.004703223432703881, -0.11366537985642584, -0.028599724446133807, 0.06611800166527597, 0.0688972920179367, -0.1094336062669754, 0.10190865356880054, 0.24154162948191304, -0.18014099308935028, 0.1326884627342224, 0.05800986289978027, 0.12957680225372314, -0.13521790504455566, 0.09043069183826447, -0.027275606989860535, 0.11723883098907194], [0.0014633881789649285, 0.11735814930682668, 0.26077488924324776, 0.764707880273936, 0.714600962391017, 0.052896663546562195, -0.03615811625264043, 0.10367005813842439, 0.04536808226755888, 0.11092691291965238, -0.15748888077655548, -0.16509508165040726, 0.14790049363769306, -0.03022853364789545, -0.17566206299517706, 0.22774120519991803, -0.10259880012601323, -0.222604267333681, -0.4387421362508316, -0.0668726050081967, -0.2299515459063896, -0.31361012768926316, 0.09376526239112236, 0.003910503928188809, 0.10563765258111936, 0.1375744942552956, 0.000545233858338737, 0.09146758951019587, 0.03488239682983435, 0.09259812533855438, 0.05926878750324249, -0.12340347488918568, 0.07038936914053023, -0.26183299744296784, -0.09498225152492523, 0.05953530967235565, -0.0656401664018631, 0.15423136949539185, 0.04780776798725128, 0.013821423053741455, 0.04473264430110872], [0.022091680455970743, 0.10884023009032458, -0.131201141135897, -2.480952368100624, -0.5968476457266415, 0.11542180180549622, -0.3233272143515848, 0.03661748221848833, -0.033971654690894935, -0.0862189268535334, -0.014713967195641373, -0.013834761432301165, -0.1198714559739771, -0.03550913126893202, 0.08039977178099536, -0.3790001983921673, 0.08768864933735131, -0.0609034758041866, 0.32905394995090737, 0.07288786718894985, -0.0543803090185435, 0.3911174477536454, 0.05971525721715103, -0.08464469509936284, -0.3738809265039386, 0.05901342034579096, 0.12778002918005837, -0.12247972786187529, -0.06324042975663392, 0.11756223440170288, 0.1513780951499939, 0.0039025785664935034, -0.07380755323507976, -0.26151540191116524, -0.049677103757858276, -0.07729821652173996, 0.12838539481163025, 0.09153765439987183, -0.08778782933950424, 0.15536460280418396, 0.09618758574873598], [0.17071514538165333, -0.5453811640923238, -0.36454540272872604, 0.43158058540282956, -0.12315635177965219, -0.007457703351974487, 0.06537714556650769, 0.12300785578276162, 0.047799215823976886, 0.07218745283870931, 0.04943479704053504, 0.017680705658507885, -0.15326048500747397, -0.20188827819673627, 0.1556941706731541, -0.017169896423878395, 0.5091415901362202, 0.7873221146673681, 0.05616518630132096, 0.36402930030167213, 0.2754109405726791, 0.08028297237511425, -0.18644339726998954, -0.04029222411099672, 0.1071213260617523, -0.07041270827402334, 0.04111401940236693, -0.05791891162742892, -0.1026804426824026, 0.0860632061958313, -0.13563793897628784, 0.09949554727881307, 0.20192196624358671, 0.4532962627767385, 0.024728044867515564, -0.055068522691726685, -0.13315412402153015, -0.006453007459640503, -0.01999334990978241, 0.12839245796203613, 0.010710133641605307], [-0.2406242257185261, 0.2402492677626827, -0.3955330262891473, 0.8478248653862195, -0.8739710588091477, -0.1518412083387375, -0.012922683756878516, -0.03575439912707674, -0.07070669011942861, -0.08126437584768055, -0.01063625066347968, 0.1673602506630754, -0.17995796273360717, 0.39355411082062774, -0.39004926188306804, 0.11748621589715345, 0.15035585983350122, 0.05078446945354495, 0.1034042110193862, -0.13623462031994343, -0.24871225392182697, 0.24693480098647108, 0.11108962837876038, -0.17973308874183372, 0.19549500622178378, 0.11374315311507002, 0.1492461382348894, -0.05752320895596697, -0.0934918106596111, 0.06431002914905548, -0.05248056352138519, 0.14696995542850527, 0.13145973783499404, 0.1150153946713118, -0.08393435180187225, -0.11471334099769592, 0.10149186849594116, -0.14598612487316132, -0.024415329098701477, 0.0561862587928772, 0.1985315408423069], [0.4077431524206729, -0.25516291303559846, 0.42471774352287817, -1.3965829768905216, -0.2797180848323207, -0.1526409536600113, -0.018835626527052694, -0.07689195517575925, 0.1751349431150433, -0.10303261546061743, -0.05159825254197178, 0.11587126385455072, -0.028102610685090883, 0.08918922895672397, 0.19965998762996023, -0.2903942646630184, -0.22125937648071412, -0.3668551996871011, 0.23413976850266144, -0.3968242373818216, 0.1333747084118736, 0.2940308853053716, 0.1043089420209133, -0.0297059547661808, -0.3758368751125723, -0.09042149850178892, -0.1322805739288458, -0.05180893161345685, 0.06836990944098238, -0.09132485091686249, 0.009443223476409912, -0.02029779627277433, -0.3121338325380661, 0.3443908438773894, 0.04304632544517517, 0.09852427244186401, 0.0013441145420074463, 0.030435830354690552, -0.10899779200553894, 0.14049294590950012, -0.22430370574039815], [-0.18775900845025245, -0.19652341138578203, 0.6735619804054418, -1.2966814607477346, 0.01457107783880976, -0.1482856422662735, 0.07632163738274941, 0.06229044074805808, -0.050421242480360694, -0.08172629786697834, -0.10742049645501464, 0.14573655296248025, -0.1289382056709927, -0.045370473133451786, -0.3320476020810015, -0.08454293240523428, 0.055221040374362006, 0.4607131977212989, -0.2551534601426782, 0.490672101901571, 0.042344448349617855, -0.1063125724527516, 0.035023853478072936, -0.258230254031024, -0.023699490069913093, -0.11947022209796913, 0.14979843963947082, 0.005351470607184117, -0.0942010117593763, -0.11540471762418747, 0.0655098706483841, -0.1283270994929018, 0.4451478672305169, -0.05890455748118161, 0.056293338537216187, 0.07400539517402649, -0.1048678308725357, 0.01736423373222351, 0.05144403874874115, -0.1100991815328598, 0.018192001474457483], [-0.4942395701047753, 0.07960794899203628, 0.07095570446673108, -0.6280995299828261, -0.1517546746886693, 0.07418598234653473, -0.01707708262878208, 0.04040977343642748, -0.03649211495496963, 0.06337253140355129, -0.12478478668895256, -0.06465049504008613, 0.06010537730599344, 0.40788615688143526, 0.193313595408365, -0.06206861742835827, -0.14898121316618584, -0.1365975419929286, -0.2704987291483804, -0.025658597944563752, -0.09276615661370015, -0.05259637652947199, 0.20761335830380023, -0.09075438819749065, 0.15836586529678523, -0.10897219772786818, -0.14505063589066927, -0.0881409927770587, 0.08355159465818682, -0.1027425229549408, -0.1216399148106575, 0.04256002039820926, 0.5303000606874466, -0.27140320489301306, 0.08563041687011719, 0.015227526426315308, 0.05853240191936493, 0.06685706973075867, 0.11304134130477905, -0.042290642857551575, -0.05168912344525676], [0.1756095284877673, -0.05715353636321435, -0.23075728873146825, -1.3706403223758588, -0.12522287242051874, 0.1471819281578064, 0.0894275172153773, 0.007836998763246337, -0.02610592145828675, 0.10686858232554548, -0.16542749849930372, -0.1713164597548541, -0.10479300980034804, -0.3882275348554721, -0.026983345107875884, -0.08534900590749944, 0.45604777426388493, 0.32217845193503536, -0.18095533763036453, 0.4571862858851451, -0.2096397412090043, -0.0631070430811121, -0.3313189617122483, 0.2859028491513104, 0.2172971661717599, 0.1588691154561192, 0.04767916892386694, -0.015854256407247996, -0.12752534653328235, 0.04417817294597626, 0.001501530408859253, -0.12640378107869493, -0.10153127747769404, 0.1310277861928126, 0.001686975359916687, 0.14879468083381653, 0.046713948249816895, -0.1471976786851883, -0.150495707988739, 0.007097423076629639, 0.08042419418956767], [0.06949490085332055, -0.00975555793077554, 0.07972415338715896, -0.23737907301243708, -0.06778337862311581, -0.13938932120800018, -0.0383688993026829, -0.032004013254203614, 0.055807084093172206, 0.19026873251726653, -0.17641326350471906, -0.11637116534016151, 0.18032047888567473, 0.15688183449396062, -0.08409334063544742, -0.03317384325955005, -0.07793656800403463, -0.26939703303447454, -0.4134708888273999, -0.17939613057904277, 0.06243800475136613, -0.4282094251763966, 0.0038009456921304797, 0.058363926383601286, 0.11232040562093273, 0.06638678292021546, -0.14454970380082222, -0.047848886454249104, 0.05848043540701643, 0.08957850933074951, -0.15271614491939545, 0.13786270553566282, 0.11492145946700756, 0.005758568288795193, 0.07823744416236877, 0.11638462543487549, -0.015124201774597168, -0.05899546295404434, -0.09734371304512024, 0.05813528597354889, 0.030064706095644794], [0.1480099804918242, -0.5266434939656158, -0.20365035132960177, -1.3401821796429823, 2.102493213659237, -0.010849326848983765, 0.0663511917318324, 0.11893830171248246, 0.09535490150240372, 0.13767226346723782, 0.10779100318229748, 0.02672035653866026, 0.03426941045515378, -0.20503992812872668, 0.04644496244566734, 0.24452091843723325, 0.2515194058034827, 0.28441838275058434, 0.4011456581661467, -0.05196160985671112, 0.29753071887192206, 0.31161572675240745, -0.19359580941592958, 0.08961433235293476, 0.11749062282435165, 0.0977284726220534, -0.1592241260689368, -0.04905689093289899, 0.0991678353864119, 0.0023550093173980713, 0.09460097551345825, 0.1382768570941552, -0.07425093055048318, 0.31408151112671223, 0.0900304913520813, 0.047373056411743164, 0.08006012439727783, 0.05532088875770569, -0.06589798629283905, -0.08848027139902115, 0.07712579051311384], [-0.14959989636586526, -0.383062032901821, 0.27229720870172935, 0.7782456994450968, 1.1608754415773086, 0.09714800119400024, 0.06898444560370456, 0.0853770899119885, 0.13189894720029174, -0.07380546846137621, 0.08725640333745067, 0.010639445553752298, -0.08520418622241573, 0.04516163926450659, 0.27120991781416626, -0.17706147737616693, 0.3036031267881819, -0.6692787877885304, 0.10253449120117598, -0.0806178806331478, -0.06483271919427006, 0.14644051996452934, 0.17865911429070314, 0.15069281808170878, -0.1935335514098241, 0.023665137843029302, 0.07448238904847013, -0.08034257565365965, -0.0028152239762385717, 0.022072091698646545, 0.1338491141796112, -0.017651594878387303, 0.2984850524898457, 0.3711805667247256, -0.040566153824329376, 0.05249731242656708, -0.07421272248029709, 0.034836918115615845, 0.05774129927158356, 0.11457648873329163, -0.2020814011523391], [0.04931741497874208, 0.1692169778269896, -0.32610641254025113, -0.17843319691354928, 0.872185198374111, 0.0032230764627456665, 0.005029046941678077, -0.0936962299104239, 0.1367932281360562, 0.09555126994272745, -0.05711697115862241, 0.10213684216773691, 0.1467852321209525, 0.3087183621491573, 0.06869099105715411, 0.141436378907426, 0.23532527954514448, -0.41774560825167484, 0.4284959495013755, -0.24378450322184483, -0.14323776459312526, 0.34549438440393926, 0.09867585252739018, -0.07794114141403392, 0.20226636493420466, 0.01607283927052137, -0.08335506938846016, 0.01895822561829218, 0.10649995483009861, 0.13875320553779602, 0.07630112767219543, -0.07144044369043086, -0.24575350107713145, -0.08701956016429183, -0.07903731614351273, -0.03839663416147232, 0.05389194190502167, -0.04018203914165497, -0.06575842946767807, -0.11960047483444214, -0.3065552310280588], [-0.07404814376411911, -0.11886788312211347, -0.19511750172124742, 0.393941276358877, 0.8936037319227079, -0.017252117395401, 0.020276079051907044, 0.0543190502588507, -0.05583320138560009, 0.11399753452319412, -0.02997111376793805, 0.13967505994765012, -0.021445966651254117, 0.29173119666481867, -0.24969523071327013, 0.1826331106707864, 0.5393368473345632, 0.11536113413104211, 0.1392784260515987, 0.23348616348327264, 0.606849763412168, -0.020043145906103597, 0.04592489794457975, -0.46140457468108254, 0.020614056531497286, 0.11159730166593258, 0.09963309973874775, 0.15799695462385124, -0.09011959820589337, 0.13079261779785156, 0.003354668617248535, -0.08290377075763827, 0.16587074527292406, 0.013103059791314755, 0.1452873945236206, 0.038859039545059204, -0.12804356217384338, 0.013232946395874023, -0.04246465861797333, -0.019338637590408325, 0.02560060496950747], [0.27786090180215156, -0.25510074415205114, -0.2236041445771173, -1.3748248277125468, 0.3306783858152164, -0.09769904613494873, 0.004528297018521473, 0.1679786288952042, -0.12477958711531405, 0.000702708101185298, -0.12242240699122812, -0.16397913785765741, 0.15208236042252066, 0.009586773679502995, 0.026288568653599922, -0.1905096870451255, -0.29073773031599076, 0.25952107549510145, -0.21210296850334598, -0.2304573052323716, 0.21751680978608923, -0.31023110032846457, 0.14507662498597645, -0.3619757260291813, -0.0073742582357716226, -0.13442031260929552, -0.06974720176659445, -0.11666057970724976, 0.07189372215069854, 0.0503261536359787, -0.13668352365493774, -0.030143811490315923, -0.277809425278777, 0.00960662868656285, -0.044923849403858185, -0.0430653840303421, -0.053351350128650665, -0.06566502153873444, 0.014577195048332214, -0.14570719003677368, 0.03333903346013009], [0.5794433444790915, 0.06716974484128303, 0.1639017603882965, 0.15493556577735518, -0.6561414937917952, 0.1123838722705841, 0.09536538395606481, -0.04925040785313419, 0.0027582856817066847, 0.07509678132155323, -0.09109259510337929, 0.16579510903060987, -0.1502426015653309, -0.29730853769243915, -0.008768177940113244, -0.15663220001325473, -0.36187635921716976, -0.11085287425113935, -0.014738456556250978, 0.04790967970909522, 0.1540492783267872, -0.2105783159011244, -0.19811426348980504, -0.06525510857752881, -0.23929583449235448, 0.1248287580475602, 0.019498737858278343, -0.15925146420147104, -0.109892947269935, -0.15388011932373047, -0.008755281567573547, -0.03821174589527907, -0.5271124639413359, -0.12385651292849129, 0.0391828715801239, 0.12685516476631165, -0.09241028130054474, 0.09901696443557739, -0.08175588399171829, 0.02395319938659668, -0.09581793135521277], [0.3479925079643502, 0.00822523988281813, -0.23971302186784507, -0.004958664965399374, -0.551247382586595, -0.01726430654525757, -0.14255659223731523, -0.07263052118245997, 0.09140827492772804, -0.14723849326943753, 0.005234298147385389, 0.1483657181636771, 0.11737410693789055, -0.18626730873729708, 0.2501642187859498, -0.119855070293214, -0.48975011569562193, 0.09109458605762116, -0.23186318097516068, -0.331152819473013, 0.03469229949793815, -0.2539114566864366, 0.037275595878766984, 0.13924153559487534, 0.09646948950022487, 0.03480933209131174, -0.11423353503277148, -0.10167415092518176, -0.1189094374590143, -0.007777974009513855, -0.11072440445423126, 0.05765951803446676, -0.32164912212420665, -0.24275457800354036, -0.15456317365169525, -0.00756661593914032, -0.020517811179161072, -0.08077206462621689, -0.02463071048259735, -0.15470221638679504, 0.003322389815839429], [-0.19531136758387363, 0.03728505644340895, -0.035329424605733205, 0.8314858128750603, 2.12962353474106, 0.07607591152191162, -0.09371510334340274, -0.005552231042483632, -0.18411929604705238, 0.0639296510308905, 0.06862609017930071, -0.10233892570891495, -0.04970503961146477, 0.1764416263160366, 0.04234581292388662, -0.022964241111716938, 0.2766804935861794, -0.080217499369171, 0.24343051693905263, -0.07745110673890629, 0.0009270122222123198, 0.12247259272763213, -0.15821739912956231, -0.19586205812645205, 0.12681537031937096, -0.06348150477607684, 0.0584267575959389, 0.0837332357386777, 0.08754016949932071, 0.10069811344146729, -0.0041007399559021, 0.024381448147220493, 0.01892382890776347, 0.06222353455863655, -0.057680949568748474, -0.11834387481212616, 0.11812108755111694, 0.13506105542182922, -0.05890762805938721, 0.07016582787036896, 0.11790536640246396], [0.3598235896143692, -0.3344381729507936, 0.07410221324620778, 1.2534559699648826, -0.488901229620782, 0.009038493037223816, 0.044126325660815334, -0.052389084546600545, 0.14482046208448862, -0.007219061750716924, -0.0061312022539918125, 0.034355945613687364, 0.1967084551865408, -0.0359919704242364, 0.34059596256366287, -0.08385696424233287, 0.029296068666599825, -0.17490380064238456, 0.00975617994749279, 0.17929086866988364, -0.22805842001269358, 0.20927005171800123, -0.2645494947247723, 0.4228776093681672, 0.0816779919378334, -0.037504206192417094, -0.07638769109241425, -0.05834123004667262, -0.13205752779237823, -0.1280844658613205, 0.005678698420524597, 0.017709871985594438, -0.2557313161932801, 0.8947349860614096, 0.07186384499073029, 0.08114619553089142, -0.030596330761909485, -0.050628580152988434, -0.09968051314353943, 0.011296331882476807, -0.11795177323045987], [0.09986852017002958, 0.35383408565137553, -0.27842780723459765, -1.2350844139295214, -1.4953950671652414, -0.06495527178049088, -0.07261052988370166, -0.018038697336590415, 0.14553497804896856, -0.16740852591594058, 0.025100695067117988, 0.1725243200594887, -0.16904862222274142, 0.2255800930633569, -0.468467908333491, -0.18596625281791146, 0.23506566990566782, 0.05948968166283713, 0.22575153201882325, -0.0450310241066144, 0.11290543669301936, 0.29714769156396537, 0.09625086584084003, -0.2090299656983707, 0.1469409351908721, 0.12798631887350434, 0.07476954858217433, 0.005429960297680493, 0.04216354291353326, 0.07138645648956299, -0.04762567579746246, 0.05921915768438016, -0.14810167156739767, -0.5378704206641762, 0.06494887173175812, 0.03047165274620056, 0.10235372185707092, -0.017070844769477844, 0.02548271417617798, 0.007602423429489136, -0.05388845617502364], [-0.2643577704659522, 0.12213722260061065, -0.07526634654153251, -0.9388127092976544, 0.17243017777194192, 0.09031268954277039, 0.06098492576014924, 0.1705970525279961, -0.2271679700245281, -0.2466134532890401, 0.16544820694090773, -0.021928165575245198, -0.24581338014222004, 0.1550518583148686, 0.0596625520391878, 0.04177184338222551, 0.12024325972855819, 0.37207096500160136, 0.3009568555006529, 0.26076050048379185, 0.059599082153329964, 0.4018756917410314, -0.008414404512170683, 0.06553152324902525, -0.1574277511009784, 0.18735383888507523, -0.009175266420595544, 0.15622027655864418, -0.07898039678310355, 0.122831791639328, 0.0235317200422287, -0.09001080282997659, 0.16183117530128327, -0.028533976395465597, -0.14821352064609528, 0.020446941256523132, 0.04836152493953705, 0.15563711524009705, -0.09804557263851166, -0.10034749656915665, 0.14431848674195083], [0.06416922443271732, 0.10447781951947854, -0.5124222822784232, 0.4798023914789935, 0.9474132716454087, 0.025433838367462158, -0.049360416203526734, 0.14874842848362835, 0.038531308105113696, -0.03328945295172628, 0.03756065804877889, 0.15300306816020795, 0.09556132747572736, -0.09661325609542902, -0.05599661848538727, 0.23837377822773584, -0.44216079601818026, -0.18897067849345256, 0.13582770169958508, -0.2586338343529949, -0.058567487092409, 0.33768955014737495, -0.29066210708143214, -0.044528681235023806, 0.17913040133159586, 0.03192723969602494, -0.12855807264661548, -0.07116630991316046, 0.15986945907259195, 0.03621484339237213, -0.08393293619155884, 0.005456413597623832, -0.1697950490809173, -0.13049684182871557, -0.15273338556289673, -0.11146049946546555, -0.10900842398405075, -0.14135052263736725, -0.019150003790855408, 0.14283344149589539, -0.21584399813146435], [0.1694372222366673, -0.3249341263303696, -0.6755393786980818, 2.316977819796604, -0.47239970274175613, -0.05000685155391693, 0.0506591635243314, 0.007117978774820356, 0.05889941801526957, -0.015075429718055944, -0.015765818674203985, 0.08046075431621312, 0.15705087091489686, -0.11277226380873932, 0.8642759013772547, -0.12902454826224974, -0.0950254697529184, 0.09737943930830424, -0.0933433222047845, 0.09077698409007305, -0.1997981423604649, 0.06558842492135852, -0.3176662248216464, 0.7890891421139162, 0.08643258572778148, 0.0007561412855827919, 0.045747157673523324, -0.1609635087445532, 0.045579191784546245, 0.13116392493247986, -0.09116709232330322, -0.08172775337433484, -0.0031614321667376272, 0.0331044302319711, -0.10917115956544876, 0.07517194747924805, -0.13608624041080475, -0.12224682420492172, -0.06520046293735504, -0.14326927065849304, 0.08435275096118516], [-0.19191971990215767, -0.25807361070241747, -0.191766753460308, 0.8054515747661812, 0.16034453270605603, 0.04818257689476013, 0.08384725489693276, 0.1243616201053163, 0.14579268772654858, 0.07290071200737051, 0.15426483272349573, 0.1649680983904574, -0.030794293171080137, -0.11426328946475213, -0.16351286772640408, 0.09805350703809058, 0.2704667612045096, 0.17851935269581828, 0.18765211492978848, 0.056223123064889594, 0.1560918646455973, 0.3222724842909004, -0.22357003667042757, -8.0233940234555e-05, 0.2208682432872564, -0.14634731723379987, -0.1017572761924257, 0.094123196467639, -0.04115097536158459, -0.09797566384077072, -0.044977426528930664, 0.12325720157444602, 0.26755628836517215, 0.2439638907476973, 0.08439934253692627, 0.016676440834999084, 0.019975781440734863, 0.12552887201309204, 0.044027477502822876, -0.1381407231092453, -0.06330781674660277], [-0.00268782626416133, 0.20756138951110745, 0.23833068607721308, 0.02862209692691066, -0.609344247236989, -0.09541723132133484, 0.046829299975843695, 0.07292431696278495, -0.07920366232897545, -0.17454133713583891, -0.04728397435156292, 0.11884767108949344, -0.033938882592722555, 0.14398422293121532, 0.07185135688398521, 0.12872286168087338, -0.3912418871090219, -0.4330171024910627, -0.2804773515910878, -0.39521510558882245, -0.3534032824540837, -0.38322516377237686, 0.03280606739805248, -0.03887662495481596, 0.03189959239734322, -0.12413854688605934, -0.01241433412036489, 0.043772207794575524, -0.0527022758146239, -0.05191274732351303, -0.057353951036930084, -0.09879900336725328, -0.04877823843612784, -0.29323639289175424, -0.10884708166122437, 0.0033511370420455933, -0.06552353501319885, 0.051379382610321045, -0.041740015149116516, 0.07068565487861633, 0.1377173827113608], [0.3598601720753843, 0.32162364247866315, -0.03199390973168619, 0.4598180055040212, -0.055747942938812724, -0.027028366923332214, 0.12116866169960458, 0.1879321900035348, 0.08067691781977754, -0.04086505138505445, 0.07559554167473648, 0.12277093418324356, -0.14763924741376622, -0.1975085099533558, -0.2558796069804987, -0.019347703607060562, -0.1862064197861953, -0.2234729409026201, 0.18434285200155565, -0.10826804679616359, -0.4133003666005584, 0.23586458609941044, -0.18311927826761676, 0.05563339361207664, -0.12588457544170176, -0.10542263225750338, -0.13123506442741387, 0.15279492600723274, 0.015601603825531218, 0.025274381041526794, -0.10323905199766159, 0.05099107199324849, -0.3918458004058744, -0.28110002774665893, 0.13185393810272217, 0.1072348952293396, 0.00013871490955352783, -0.06380613893270493, -0.12152774631977081, -0.0419321283698082, 0.04698695266509474], [0.3323082842360161, 0.009475237597712833, 0.1918992958008571, 0.811842092483935, -0.17694766859795247, -0.12860357761383057, 0.15831726300088014, -0.026671593999542685, 0.21438191675462112, -0.11102931867179154, 0.048826051379849744, 0.1645406759039672, 0.020086713928610837, -0.03718600944260309, 0.13880128210735204, -0.17621702938566436, -0.45469096466329356, -0.48512564655433765, -0.02550491507446656, -0.12054364649665894, 0.014797258711067005, 0.04169183701241537, -0.05488846142017443, -0.159167127246572, -0.35832952036203797, -0.0580370787802788, -0.11143573264514173, 0.0818167637761954, -0.15610346089040314, 0.056761980056762695, -0.06398791819810867, -0.13954453071917353, -0.38759089963112264, -0.1988754769664372, 0.037065714597702026, 0.013421028852462769, 0.11986440420150757, 0.04966267943382263, -0.002453133463859558, 0.12984609603881836, -0.01125516277864601], [-0.439238102871614, 0.4937877720397903, 0.4177421635197748, 2.805384967780538, 0.8877137629191417, 0.07966777682304382, -0.034674565565342, -0.07106732177863485, 0.13525195954554006, 0.11656885996004876, 0.0716004944269883, -0.06369669224569884, -0.10509527072766428, 0.1085032363925627, 0.09833100630394356, -0.3896708515776054, 0.09426957242988726, -0.2802975927198735, 0.11934800505680725, 0.22154336854256232, 0.1373784073968476, 0.010785781314886667, 0.14719614650365107, -0.4779803779886806, -0.5613847387286771, -0.09830067914559265, -0.1233848394138993, -0.05052565646006639, 0.04334908116028727, -0.08681289851665497, -0.007471606135368347, 0.0005994528671964042, 0.22065312508983953, -0.6289329102887085, -0.09256454557180405, -0.11739698052406311, 0.10717689990997314, -0.07359663397073746, 0.10857519507408142, 0.14324349164962769, -0.0217680945945659], [0.04527498852557898, -0.22655793582127995, 0.6202989268090032, 0.7080276328967107, 0.8132016344482293, -0.001814335584640503, -0.0867720189947326, -0.10827377609675773, 0.00337730288582045, 0.007361319454239728, -0.04089724431791825, 0.19364791949232935, -0.05289820900387968, -0.04588634898662453, -0.07098367823808051, -0.10090587667004226, 0.38493908277007516, -0.24787252496729453, 0.3886104298568988, 0.15539710662924597, -0.17294897734709047, 0.3210074866159893, -0.33752564572637805, -0.057653678833253195, -0.29577717180202034, -0.1042633295295601, -0.0481085494397039, 0.1735829323293809, -0.008029000484739694, 0.03849652409553528, -0.10102716088294983, 0.041955849568640076, -0.37765696803926935, -0.10749280936245033, 0.10680866241455078, -0.12514902651309967, 0.05093751847743988, -0.0556541308760643, -0.01594957709312439, 0.05914096534252167, 0.04718807006061844], [-0.06406308698093781, 0.28770590389932194, 0.06603734535314522, -0.010149446263060576, -0.23232710699129222, -0.06225176900625229, 0.08743243329903554, -0.09063168416030384, -0.14566421083521616, 0.05539221634717056, 0.08665234943569264, 0.1517713626259608, -0.16819885800032625, 0.22563712428572053, -0.4579448862267187, 0.04558214901395712, 0.17454744519256943, -0.006091842241606143, 0.07624778770599748, 0.20974664855070568, -0.3432862379559867, 0.29468178008788737, 0.16565594378516463, -0.10862270206923806, 0.12502914649955013, 0.08532808925514422, 0.05766931380634465, 0.14824094082718, -0.04431086574191918, -0.14753372967243195, -0.03812156617641449, 0.016618119226620598, 0.31648699791765067, -0.42538346995272286, 0.15004810690879822, 0.06320735812187195, -0.0698791965842247, -0.012701839208602905, 0.043299853801727295, -0.04673628509044647, 0.04570091218063128], [0.10763557893089211, -0.23962273259161915, -0.1543379160968432, 0.14121591908613915, 1.4530912272063234, -0.11918839812278748, -0.04845678807846635, -0.13895422986002431, -0.13866849369207143, -0.07642051633523703, 0.08074678282476468, -0.04253374238275395, 0.11613189373089117, 0.35155970637832423, -0.07969339883794525, 0.27993923940320814, 0.6567285140525128, -0.09683312847198873, 0.11904186291004096, 0.2674094985422498, 0.726756255358832, 0.07822770053006876, 0.019080563066322102, -0.3118114691953343, 0.0667094105504897, -0.054173665045774054, -0.02591624289659164, 0.0610499438652641, 0.1169459131369233, 0.08312132954597473, 0.07646015286445618, 0.09089030877926368, -0.1296346411445757, 0.23282300606371248, 0.030355408787727356, 0.111461341381073, -0.07148002833127975, 0.13265317678451538, 0.0958324670791626, -0.06604582071304321, 0.07337436517844055], [-0.15083565109653377, 0.28123642041926755, 0.3871792980436418, 0.818283150599526, -0.11067315562135532, -0.0070088207721710205, -0.030473501166335334, 0.1162358264483041, -0.09480248877170183, 0.02848431686614573, 0.053399104038124694, -0.14675736858522387, 0.030351894299732386, 0.2015604362418442, -0.002268621957307467, 0.017844382502248856, -0.5280814999325981, -0.14153613102607218, -0.4312471305270629, -0.1199865415987796, -0.39597276388691444, -0.2844043248805809, 0.35117432751085625, 0.07190770969107214, -0.08435290221755673, -0.14221403278899136, -0.12011983521771123, 0.04385643176245854, 0.12539037040877676, 0.15047481656074524, -0.10019570589065552, -0.026366767516802253, 0.012932485582249248, -0.05932859990936075, 0.06710578501224518, -0.15092018246650696, -0.13943447172641754, 0.053611740469932556, -0.05984968692064285, 0.130168616771698, 0.11135207347224889], [-0.2043793281268657, -0.3536442951978693, 0.8298871833963776, -0.15268552695720347, -1.4302737121903002, -0.11408722400665283, -0.17933997603771676, -0.028888434356948968, 0.08771015372030735, -0.08928627258278213, -0.014970522818989373, 0.07880804270701902, -0.08527687674499829, -0.1484565866136181, -0.09234164114998049, -0.29653494200219976, -0.06662186267998652, 0.4917418308742717, 0.1195452011488652, -0.06178775367303232, 0.41648851909447254, 0.09857594071700865, 0.14159069594742718, -0.3060823292010338, -0.07850881399704002, 0.13803063161605503, -0.038429634497225335, 0.1792703700804105, 0.18119518287414219, -0.07266394048929214, -0.0034618377685546875, -0.005932839697713963, 0.10358287625477423, 0.6363338154451772, 0.025910645723342896, -0.004972144961357117, 0.08177211880683899, -0.1499657928943634, 0.04106178879737854, 0.01877787709236145, -0.0800035114107194], [0.06425617775867988, -0.1330432895623908, -0.3295331373593783, 0.9118705770128277, -0.012132490914281126, 0.14803427457809448, -0.027859860544022036, 0.14710007524305257, -0.06252280666503947, 0.163498134329275, 0.17766787272295315, 0.17746897202333767, 0.18912151546712286, -0.08394520661014578, 0.05416043026861139, 0.18695320302433158, 0.22871107653969217, -0.28406679599287255, 0.10842069591903238, -0.31163824379526306, 0.12473547065199529, 0.3419546150041764, -0.4436810758738497, 0.3832706400060631, 0.3134452835114752, -0.10015209721802597, -0.07242620693920963, 0.01468289685965437, -0.11469512390374116, -0.09954797476530075, -0.09503427147865295, -0.08265294913460054, -0.411284719034508, 0.42359781539326413, -0.155225470662117, 0.15572792291641235, 0.09868434071540833, -0.04818233102560043, 0.11029741168022156, 0.11240530014038086, -0.07489402500498049], [0.5660882571194239, -0.2387208628792175, 0.1466391810684033, -0.08167964164176741, -0.5526056838308914, 0.08888417482376099, -0.03502701867066932, -0.054756751905978264, -0.2330246988513414, -0.12966506434545733, 0.0025770543681037515, -0.0428697214855297, -0.10779327405557987, -0.20475183867144525, 0.32389247515166136, -0.1386974807336544, -0.02105451427646632, -0.032805002555787784, -0.0972224772041583, -0.05682061145173544, -0.15770235245655304, -0.2332821305971922, -0.15602329805794932, -0.25235462935444186, -0.2878288817278106, -0.14522642957550733, 0.0016499502720230155, 0.06001982522624774, 0.010411207205234996, -0.09261830896139145, -0.03293786197900772, 0.132925693607019, -0.46522564932996746, 0.253739224640098, -0.11294350028038025, -0.1485145390033722, 0.1502963900566101, 0.07684959471225739, 0.1330622136592865, -0.013518527150154114, 0.19153061151594775], [0.1470052159423216, -0.5274405479892342, -0.28438191526591394, -0.25150721013408184, 0.725946593770821, 0.1532459259033203, -0.025543791316618714, -0.08116193567272112, -0.08334455518803663, 0.05698298844555027, 0.07003358773255247, 0.14550430349373702, 0.11946319970348564, -0.21787411177225943, 0.16947508754164786, 0.09001346199740821, 0.19804868661634026, 0.5495351774839431, 0.05598092502534165, 0.23674980334485765, 0.4022913037544464, 0.3070055591689141, -0.37363426960842266, -0.05987619779772432, 0.16561254727004923, -0.13299306658498414, 0.05559472563274743, 0.06362725617893551, 0.0467027110100593, -0.13967004418373108, -0.13358302414417267, -0.07135540448396321, -0.168585542780826, 0.20768957912414074, 0.09210635721683502, 0.1360238492488861, 0.061232373118400574, -0.14598338305950165, -0.04460897296667099, -0.11083434522151947, 0.06289579993572912], [-0.04086951726429152, 0.07021943098593832, -0.3716737471252938, -0.7888714958630292, 0.22571450955891523, 0.08271312713623047, -0.09103735163718922, 0.15307193793281385, -0.0994415629606279, -0.02331763898066659, 0.13114358251755937, 0.1310367113894771, 0.023926745904168406, -0.2539291823079261, 0.14662544115992077, -0.2893403920866168, -0.10949971334678554, -0.10308083610175225, 0.38950946685487675, 0.2490080064701718, 0.12139881053155563, 0.20052479401250098, -0.08201478255884534, -0.020165808748137316, -0.2789705000630198, -0.19862046323126628, 0.003257533094224039, 0.09944400705986967, 0.06990090527230106, -0.04618159681558609, 0.1235356330871582, -0.15271119213398318, -0.12289219049194228, 0.057544454396978556, 0.024737268686294556, -0.12362426519393921, -0.0015622377395629883, 0.08521176874637604, 0.12025925517082214, 0.09744840860366821, -0.11495747004260282], [0.06996870391685218, -0.4134929238956419, -0.2690384656054655, 0.4020672279684941, -0.7368253597850335, 0.14279824495315552, 0.0610149163006469, -0.055680647565586674, 0.15962010690450815, 0.020925168075759646, -0.05335351872800353, -0.024748214069590463, 0.23146586505432987, -0.1560469710535641, 0.47181784182066117, -0.06833420295380377, -0.24027191760597197, 0.10029923600796506, -0.006416203304514807, 0.015757013078881835, 0.19748285899417115, -0.09439100027070862, -0.16513979475165724, 0.2692414037482328, -0.2040283561786352, -0.01810317697688688, -0.016970822836605, -0.057342851783482175, -0.08304447891875863, -0.016650721430778503, -0.08581703901290894, -0.06944751176704013, -0.058689605553457175, 0.9267246530809816, -0.012660801410675049, 0.07762210071086884, -0.07290170341730118, 0.041239529848098755, 0.03548574447631836, -0.07379735261201859, -0.1198612934319735], [0.29527841818865014, 0.013311755573450518, -0.059119828767310874, -0.010740663317331934, 0.015228187629575327, -0.12682004272937775, 0.14430082142063827, 0.020192146300991712, -0.019222364182881153, 0.13003328320525695, 0.06632947240458127, -0.15902102674856256, 0.006323783369286611, -0.05672724454247814, -0.037721253097099096, -0.1987861167648451, -0.3427189915734067, -0.35264650770494455, -0.22268838262187365, -0.32658306015907285, 0.3086922252817536, -0.15030666400434814, 0.007776636766939571, -0.3022508395452117, -0.13430792161217867, -0.15467583312011943, 0.0173427395679808, -0.027333251371159138, -0.1316333032987256, -0.0048296451568603516, -0.024179473519325256, -0.13420214389486024, -0.34651976142619406, -0.1383133192983378, 0.12731269001960754, -0.04955538362264633, 0.044321030378341675, -0.08767970651388168, 0.11958587169647217, 0.07355824112892151, 0.04667633738742457], [-0.05914967025004159, 0.37257016216756056, -0.04872286412617995, -0.482119706274775, 2.0542377003975494, 0.048136889934539795, -0.19115573493935947, 0.005737854104432512, -0.022148793693703508, 0.0788504999548653, -0.10302648555726868, -0.08680290591211176, 0.055464215245888515, -0.04587752916693416, 0.009622623982622248, 0.19972536400366736, 0.429252837066073, 0.03171781549285147, -0.2287957524547462, 0.2459203673148397, -0.2044609882114317, -0.41661982488497895, -0.20510886757657698, 0.1438859779027301, 0.06835962133718934, 0.003224120322654959, 0.13051231283326056, 0.0942767121233451, -0.019168942388106857, 0.11729416251182556, -0.04200267046689987, -0.139237395585149, -0.10407014131735604, 0.11334165528881743, 0.07282303273677826, 0.14315521717071533, -0.09720954298973083, -0.009613707661628723, -0.08074436336755753, -0.13716644048690796, -0.039685964160034504], [-0.03857439266910274, -0.2483739981864493, -0.10286626826444727, -0.5419564018730623, -0.44313001827786735, -0.12364605069160461, -0.09841292526391295, -0.16373544557193193, 0.025219587598910437, -0.08029833293815075, -0.0028469162813867036, 0.060010800994232276, 0.1365723475132444, 0.2810415598084781, 0.16684963435701775, 0.22252603608876936, 0.21609913917781556, 0.6401439406035796, -0.05951302030125098, 0.5224858848512209, 0.012889514877562416, 0.15066326359200274, 0.1805005812416068, 0.38756075008252633, 0.029704242695553596, -0.09084987821067933, 0.010166747551305401, -0.07528434129442338, -0.003449531216280672, -0.057668790221214294, 0.15425428748130798, 0.10299828430845835, 0.0649441447070912, -0.25293102621833446, -0.07023371011018753, 0.125678151845932, -0.048134058713912964, 0.11110284924507141, 0.027803972363471985, -0.025898054242134094, -0.013368383522071927], [-0.07259840098469535, -0.04472884768611713, -0.6019590239602544, -1.464087942646825, -0.7598936807836272, 0.09822013974189758, -0.01491673145339296, -0.0015160219551035932, 0.0205337560166851, 0.06285018973912024, 0.08692560536046787, -0.019346302326717357, 0.18583537393177552, 0.0647000310839841, -0.36439451547233515, 0.04004478924105911, -0.308890519030214, 0.2611083901178907, -0.2785666832217879, 0.1447553907137073, -0.21169698500767384, -0.3353096498309471, 0.3237733146425689, -0.2090344989517101, 0.22357915868146203, -0.10601810750044371, -0.15571232524193424, 0.07265661272727467, -0.012861345079312372, 0.0012225508689880371, 0.06744857132434845, 0.10423682203191437, 0.19584016486814548, 0.3851514197353771, -0.1109691709280014, 0.00494423508644104, -0.12627561390399933, -0.15127263963222504, 0.03444601595401764, -0.06996838748455048, -0.0670693104739273], [-0.36156794012253196, -0.15349344107965218, -0.06642956704789311, -0.27284949944021525, 0.26261630132777736, 0.008932232856750488, 0.028334096093690135, 0.09126903057769777, -0.01709392530033164, 0.00020244925076452901, 0.1387395258824839, 0.03591114243674587, -0.06712356002276594, -0.0478964856310531, -0.1910685021802749, -0.09611777646143665, 0.1732250817116822, -0.009740917373725053, 0.3356031459692655, 0.04203424990896732, -0.10112091513584373, 0.14356149482493713, 0.12266261426660839, 0.0778381534614631, 0.18738120480990517, 0.0815582895670878, 0.035802128354166775, -0.052399811705495035, 0.044231625834559606, 0.07144224643707275, 0.10944738984107971, 0.023560957750481486, 0.4862319543849487, 0.35391607757268184, 0.10041201114654541, -0.12746988236904144, 0.031249508261680603, -0.06394273042678833, 0.027019307017326355, -0.01514732837677002, -0.13745761338055013], [0.3591307693413849, 0.027532957636018103, -0.0658957969496769, 0.4468299866542337, -0.9386156122631656, 0.15076178312301636, -0.03178031037717919, -0.10964845619603399, 0.016720858334916173, -0.05559724442619918, 0.02486271090375865, -0.10614177905452557, -0.027398972436376342, -0.27911141082834806, -0.19988331254189629, -0.17600434649923713, -0.3456374231856206, 0.042684740605248336, -0.3454124454724607, -0.23632185110226728, -0.30914223986721867, -0.2612255662369198, 0.14682728660008684, -0.10589139423907643, 0.056280192283242166, -0.15583897894897267, -0.13398551708736214, 0.08911882573089486, 0.0928559177490223, 0.009986668825149536, 0.009476929903030396, -0.05348945165108965, -0.39273634620263975, 0.06198732089706375, 0.10729661583900452, 0.00730741024017334, 0.08249309659004211, -0.023255392909049988, -0.10513202846050262, -0.011064425110816956, 0.010428608612069503], [0.35940145916091715, 0.1480728732700773, -0.18190175015923302, 0.17807822063871315, 0.46694615858261873, 0.07988747954368591, -0.02434541078874975, 0.06657130682140694, -0.21663632538353522, -0.00917124723120805, 0.03628851908622359, 0.14199291604933736, 0.01266028012112412, 0.04238400359220824, 0.24783134903498721, -0.020996157085049327, -0.36458656608833223, -0.4383323466464388, 0.19780652862756085, -0.3301483596977414, -0.3509285062684425, 0.2585901731868938, 0.13711343870621953, 0.23975133942903354, 0.16697373562948098, 0.05223974242583652, 0.06978866114989653, 0.11031983449832321, 0.11795918300525092, 0.03128191828727722, -0.04853472113609314, -0.09108968462672395, -0.17940766053533522, -0.09810825073622159, 0.04309438169002533, -0.1425163298845291, 0.012220293283462524, -0.048264287412166595, 0.14420542120933533, -0.10245412588119507, 0.04842150991912158], [0.2268395802884526, -0.11641114664215979, -0.14239984576262318, 0.6448486842170807, 0.5173911191287991, -0.0526093915104866, 0.07248088425528523, -0.08761471070051158, -0.07236853132780315, -0.20029140444844187, 0.13721822669143166, 0.089410458704176, -0.22612966033070506, 0.2718461581854401, 0.154078414632889, -0.12116562004785629, -0.12467582973897097, -0.12662613118633603, 0.41671816394611816, -0.051742260335172305, -0.28296469882346414, 0.4577081557709708, 0.09485327555292261, 0.053930249830346014, -0.18399564127442883, 0.055595776682878066, 0.16902712607958761, 0.06784691537001107, 0.058650976663613845, 0.14248982071876526, 0.05508483946323395, 0.1566347837348336, -0.13858625889738557, 0.09629291660866704, 0.15105479955673218, -0.073416568338871, -0.14685750007629395, -0.09833954274654388, -0.061360374093055725, 0.06323908269405365, -0.11913577848208538], [-0.12442468711429337, -0.17505166757027418, -0.0699442953793132, 0.07658225036357458, 0.713796081053661, 0.12533819675445557, -0.015093723714644408, -0.026832111170730647, 0.13487619227387704, 0.11540955190619977, 0.14576610646899757, 0.17696678362544588, -0.16308060402908328, 0.07696736457430323, -0.2536124859096942, 0.17042055820485646, 0.1063635137295226, 0.33720332444248613, 0.4006634456019671, 0.1574413007219866, -0.008641242792022259, 0.26948949490173624, -0.1509575548108463, 0.11367892634358615, 0.04844486995269608, 0.16347096525342159, 0.032235410439084365, 0.06666692756325841, 0.12383766137272971, -0.0675806924700737, -0.010792165994644165, 0.0199241751861012, 0.09274064146997042, -0.005745684332463466, 0.0453125536441803, 0.011943429708480835, 0.05105452239513397, -0.0738852396607399, 0.01363418996334076, 0.12730243802070618, -0.07664127759368582], [-0.26556820730730485, -0.03286248253956215, -0.15474848965902357, -0.9266019282575128, 0.6082049283334047, -0.07195933163166046, 0.02656880116029266, 0.05632535111619729, -0.04374570129947948, 0.01498088669514377, 0.12253681982771956, 0.004431259286569875, 0.11939427685475248, 0.05044581175328567, -0.058651624231977666, -0.1923626352475244, 0.40746272960918795, -0.1092527320736213, 0.35612771571877494, 0.17006170601759543, 0.22738048704243335, 0.33937146237891513, -0.0573277869132919, -0.2007725659020655, -0.17670122287889464, 0.05626602432526035, -0.07460454144679605, 0.08198091349399954, 0.13208852669991425, 0.10798189043998718, -0.1294001340866089, -0.1129892771314655, 0.13219309230839335, 0.2052667302286416, -0.12377616763114929, -0.027304112911224365, 0.027727827429771423, 0.021244212985038757, -0.10295111685991287, -0.09131047874689102, 0.052085659929174084], [-0.382483340618711, -0.11421938445444271, -0.11474710019060465, 0.327769886099022, 0.5108653547023945, -0.11315777152776718, 0.09205699195111103, -0.012721841109686901, -0.10981062808454707, 0.0015704029120424063, 0.09721221509576308, -0.06902834293245913, -0.07607079363689605, 0.24084784128484862, -0.058347892658151344, 0.14795401117026136, 0.1650238716805817, 0.2357423000120852, 0.3301651327956661, 0.036570903401319695, 0.2520918472655075, 0.08387706889091938, 0.16232311082922507, 0.04369727474785171, -0.07198874892440076, 0.12742270366602074, 0.08658294217043143, 0.01539270417146802, -0.0008102224642742442, -0.08335373550653458, 0.09242312610149384, 0.012955872480417234, 0.4041877551535562, -0.1128003735779074, 0.02181468904018402, -0.005639255046844482, 0.12720438838005066, -0.1056574136018753, 0.017889559268951416, -0.1493000090122223, 0.0976304568485585], [-0.47761910708180055, 0.1661511865793444, 0.1338380981199275, 0.5740135398256461, -0.4400411451669581, 0.13376548886299133, 0.10044841120121452, 0.04554545889659857, -0.08524885345050477, 0.01614521380780686, 0.10343520948182931, -0.11201299122083795, 0.13470107253907934, 0.2532887376763115, -0.18947477234261456, 0.18863100106892022, 0.03571427875794346, 0.017752086534496104, -0.0729314401685533, 0.002784644160952011, -0.03714048913684034, 0.03120125427507844, 0.11350060041803195, 0.03460619793387622, 0.23996474652266567, -0.0855151099665436, 0.16170232169792545, 0.00506168775722625, 0.04386122696563809, -0.11850722879171371, -0.07800513505935669, 0.017200397319328972, 0.634973393397041, 0.23355704266243407, 0.03740708529949188, 0.04550795257091522, 0.0971420407295227, -0.025926128029823303, -0.05928046256303787, -0.04561924189329147, -0.10840535373192176], [0.11059911480036053, -0.18574260626774325, -0.19602038650989764, 0.7365922267504761, -0.32294885744513674, -0.1403782218694687, 0.13834950830901846, -0.004088164488500374, 0.10342151945349465, 0.020264431698110135, 0.13047410929290695, 0.14338644230453432, -0.17862413837216087, 0.07983074011363851, 0.044565021519055475, -0.17104792402471497, -0.13711117817484317, -0.5718808618314771, 0.38595414726569416, -0.39423845111176675, -0.0734975366637028, 0.14721613182186633, -0.21813280016188522, 0.2360524645087548, -0.072987876385473, 0.03984240340092309, -0.12351747704646335, -0.12057902766368125, 0.1312936161647078, -0.12533415853977203, 0.03816486895084381, -0.10441399455390897, -0.2216070393872583, -0.32275959872966714, -0.09760117530822754, 0.14852768182754517, -0.15371069312095642, -0.11125287413597107, -0.09545684605836868, 0.11627775430679321, -0.06361180195676376], [-0.34862582400260683, 0.008275766360591255, 0.10683960726394881, 1.0021889054387987, 0.2699870533545507, 0.0028938502073287964, -0.05074426727650829, 0.0018399034342937116, 0.23180649757997773, 0.010503138097019865, 0.07381057089905597, 0.07606960183720447, 0.08801540234873013, -0.019055555865219162, 0.4564438179694229, -0.21229492462376726, 0.025617995643413025, -0.6500535018767045, -0.1192286061334349, 0.42284150505677937, -0.518073561588735, 0.03496419871463451, 0.3004812869570761, 0.8236097258743669, -0.2562744999240833, 0.09024060346721889, -0.13156814298987712, -0.05997631869674289, 0.004796257396932585, 0.01215866208076477, -0.04595748335123062, -0.21444489881193343, 0.25654021858608905, 0.3032216373309552, -0.007727771997451782, 0.06470395624637604, 0.01074981689453125, -0.060573823750019073, 0.14731130003929138, 0.004162877798080444, -0.1757224434978457], [0.2796358665895423, 0.30257105382362454, 0.03816039357983568, 0.056801695298610684, -0.24868240351677812, 0.13151660561561584, 0.037026053239501346, -0.11928088768598612, -0.12756531550550065, 0.025733787996981883, 0.13340819930790324, 0.12851438975094284, -0.13457262845494997, 0.0752711787946492, 0.17631321745491343, 0.1566737338596865, -0.6047273718211446, -0.604786548019927, -0.020777580648248573, -0.4074465730120708, -0.47021149683324653, 0.08399480817225481, 0.17823572997606266, -0.01710336408731698, 0.11870496701618552, -0.10117306482155776, 0.064773172921343, -0.035739480667906415, -0.11141077350934044, 0.028305023908615112, -0.14637978374958038, -0.006175502157125756, -0.18405445551999097, -0.4627870990322939, -0.12381094694137573, 0.1133618950843811, 0.11369553208351135, -0.06974213570356369, 0.11084890365600586, 0.05438835918903351, 0.14446567204437735], [-0.009393650300747252, 0.3315906424731179, -0.10276540650332147, -0.7903001624097464, 3.282934155458245, -0.11735282093286514, -0.022891642024325323, 0.18923346414683315, -0.175074234978817, 0.03670080934059983, 0.09513839480846492, -0.15663853886157947, -0.16779031421648793, 0.13876864826822652, -0.14102433883269822, -0.189336099795687, -0.2292659495039993, -0.11114947569909536, -0.18999493477391896, -0.22429497770620355, -0.054928913531652336, -0.14352365807241965, 0.13290768033915917, -0.6079572723436162, -0.320596369803777, 0.044817360965273494, -0.0971382531246943, 0.07094297083999691, -9.122219894327021e-05, -0.04895586520433426, -0.06747638434171677, -0.08143186245171373, -0.17023852674637002, -0.4457268834172012, 0.08072254061698914, -0.12623310089111328, -0.08779535442590714, 0.10598927736282349, 0.08842408657073975, 0.04131817817687988, 0.18482585374444832], [0.09536166066150384, -0.05697339756696958, -0.07704927522122887, 1.3504954622800902, 1.6352685714058293, -0.0515737310051918, 0.02339408387867654, -0.13100649744325277, 0.23068113335660934, 0.048505902104023654, -0.00832204724048373, -0.07142890448068584, 0.056053131632451014, 0.2713041068753413, 0.04132832806349234, 0.05696018510618892, 0.387310636281747, -0.24135081228927646, 0.18758136991584115, -0.19257103108540682, 0.7989036287575616, -0.03509765551365153, -0.21105143407004848, -0.2034949775934459, 0.22908576973297073, -0.02641784449351677, -0.04440901478064832, 0.02071910301910985, -0.126255877812038, -0.03800567239522934, -0.009283587336540222, 0.13618766453764214, -0.008864910789647481, -0.022534144050894017, -0.071003757417202, -0.02291625738143921, -0.013802170753479004, -0.05157789587974548, 0.09230329096317291, 0.006556808948516846, -0.22458969696771253], [0.3413054268624996, -0.07842741860271889, 0.18884753969737847, 0.2428191806193775, -1.4357359056841346, 0.08998699486255646, -0.1628050185629212, -0.08183325694592591, 0.0907952463944462, -0.009865929947551243, -0.07444992925304686, 0.07344731424670864, -0.01688676105564386, 0.5027442129598279, 0.06924674627033564, 0.0525818509270693, -0.18645445630752772, -0.41210670627439766, -0.04084140689288614, -0.48050097229214445, 0.14089395302010527, -0.04256106278317234, 0.2961107955690014, -0.2773186597602039, 0.15069887861067094, -0.019081914210050975, 0.044046594417363624, -0.08324548729631386, 0.08644907048967455, -0.08167587965726852, 0.15606385469436646, 0.1946599764379421, -0.30039112101887017, 0.44328217870788156, 0.140584796667099, 0.13188737630844116, -0.10367680341005325, -0.0528055801987648, -0.07532449066638947, 0.13804614543914795, -0.12374265650104463], [0.4251630329891068, -0.15122200790929735, 0.12862002602662956, 0.5744759947189054, -0.21472717168632033, 0.13625383377075195, -0.11046326906757488, -0.06383392450702365, -0.2236546320106209, 0.0604803993374634, -0.0702189102877277, 0.09250706731189307, -0.10963659146720975, -0.42172850132456613, 0.18393028298232383, -0.19902690769920736, 0.051331826814418266, -0.03766178867691261, -0.15283821026139732, 0.0694473948154781, -0.0548738450944289, -0.09464610385417443, -0.26464486262660125, 0.31772658350209537, -0.10572484235178416, -0.15741121199601743, 0.07071109685427553, -0.10709496763222796, 0.012496015162531808, 0.05024421215057373, -0.03001105785369873, 0.05792040204315291, -0.33388034853853454, 0.36572773062127006, 0.01600627601146698, 0.06664375960826874, -0.1263810098171234, 0.10044276714324951, 0.007449626922607422, 0.11681267619132996, 0.15026623516097168], [-0.2062682072767662, -0.2979103988817751, -0.49977544453655287, 0.1948848404027327, 1.2442663020894027, -0.08406361192464828, -0.03985569445809631, -0.18377804606456108, 0.12158792082349146, -0.08331924654141985, 0.0846192139863075, -0.1178831409932076, 0.04795241378649127, 0.3593889814504988, -0.1325888059230047, -0.011216694056451326, -0.43131407389392096, 0.30074467615264844, 0.17551925451150935, -0.41228336797843623, 0.35794306539818244, 0.2756372509385004, 0.2804908259122335, -0.4454853942635826, -0.11961449759940283, -0.010801824902686044, -0.05054786351838915, 0.05698992016395739, 0.1288832694538517, 0.07121223211288452, -0.08503499627113342, 0.11457869084223668, 0.2781060833031249, 0.3080802361461175, 0.00978042185306549, 0.004973456263542175, -0.056092143058776855, -0.12026669830083847, 0.042328909039497375, 0.05810803174972534, -0.1224474290492911], [0.43340926714812417, 0.0970056470890821, 0.26509837607610404, 0.5469901880865219, -0.9296658945781241, 0.14116591215133667, 0.10822213162310826, 0.007081519397228884, 0.10106362926869385, -0.04939611252328117, -0.041906848144012535, -0.044676869701819624, -0.055761344692910116, 0.1393827254760751, 0.07059868643482085, 0.11648730162822966, 0.07401902313464556, 0.2830852775592612, -0.09286939934768261, 0.04760222146643477, 0.23193880298763953, -0.141318059299533, -0.08283738824184621, -0.128150948844094, -0.04703164020050032, 0.18100506738808422, -0.07108496948096273, 0.002538836757210249, -0.038098224242661, 0.05385133624076843, -0.14821980893611908, 0.11382610232491501, -0.552690436867632, -0.1474395754924334, -0.106889508664608, -0.13275805115699768, -0.1553594172000885, 0.122335284948349, 0.13886910676956177, 0.11366480588912964, 0.08759757742319299], [0.13803536747567988, 0.029891764025865075, -0.07138126466982551, -0.3915865043591521, 0.5122939363075227, -0.02308344841003418, 0.003929297667250466, 0.0831936415350601, 0.15839186339461706, 0.08680732297308989, 0.03190651049948227, -0.11428474375867224, 0.06620575236685809, 0.29848838075949086, -0.20256007558657907, 0.29923042732300126, -0.11357197423249203, -0.22278641996086712, -0.3664557945196803, -0.3751093062544743, -0.24512011574222511, -0.36233913690528546, 0.2996262509737153, 0.16213542207602258, 0.2608656318905813, 0.12430252639987766, -0.027485648706170245, -0.01697992773315492, -0.08437545837423352, 0.014082267880439758, -0.0028165429830551147, 0.11332817875632213, -0.23289868215749, -0.28679227630432824, 0.11289790272712708, 0.0063807666301727295, 0.12072762846946716, -0.021454036235809326, 0.10882297158241272, 0.14599698781967163, -0.1306707397536474], [-0.12437688181335196, 0.006479203706376774, -0.019223698041352825, 0.4662036553018578, 1.9321516332234556, 0.06290461122989655, -0.09807423324666273, 0.11728722604618887, 0.0281873845181078, -0.014720342583804962, -0.06658258820302045, -0.19172459626919783, 0.06241340237125886, 0.16609691223689077, -0.08457018486793397, -0.1519130256517983, 0.09184180897231305, -0.44065479247465517, -0.25595066513336123, 0.00346775752913564, 0.12855983787984104, -0.2178148023357889, 0.24823866394721772, -0.34541108942061566, -0.0494832292089426, 0.11136230494404606, -0.07981155399655757, 0.025227334755901304, 0.1087177660646507, -0.14971923828125, 0.12287840247154236, -0.06863278460048487, -0.0673340844707035, -0.018868558861097524, 0.09629115462303162, -0.14820457994937897, -0.1073269248008728, 0.06112365424633026, 0.08750472962856293, 0.026704147458076477, -0.11080370681373997], [0.32557556380461394, 0.07285512209711562, 0.0687768041039738, -0.28282641209849296, -0.5278546610663617, 0.0526978075504303, 0.04142748120206611, 0.31708403789552375, -0.06042338736639817, 0.1491661349086807, 0.1904780443172907, -0.06816864503808032, 0.15539875419426408, -0.2276698665419086, 0.3425068766640972, -0.19737850991552877, -0.16259669959810844, -0.2912157105979162, 0.22300988811846678, 0.10946595641832359, -0.2733808466517407, 0.13013398727965292, -0.1649199310947781, 0.38661737603984325, -0.3276223531313646, 0.04231591677274895, -0.1618049129286804, -0.14860093439016356, -0.15182296777162554, 0.141872376203537, 0.10039442777633667, 0.03886357174836639, -0.21302392527758673, 0.27650595260748945, 0.11056473851203918, 0.10134994983673096, 0.13501185178756714, -0.03931929171085358, 0.11162108182907104, -0.11262392997741699, 0.06733675020849646], [0.16753906156084192, 0.05256706609104513, -0.3039149894462338, -0.7762033120617757, -1.5214477236728121, -0.1392442286014557, -0.09571452368387033, -0.10971844273188441, -0.08725809052659021, -0.04435051899007383, -0.03639387420149726, -0.160938241395672, 0.006790579151596028, -0.3275247903961122, 0.2565847375416779, -0.1383623850150209, 0.058670378274071296, -0.15850044222866067, -0.23491033454437893, 0.23074817996038985, -0.02924075908150092, -0.016989997495362293, -0.3920165531530803, 0.3927881152922576, -0.22415520265280564, -0.06765192797739125, -0.054862022906133213, -0.13119687935669275, 0.04800323346297929, 0.05071675777435303, 0.12698474526405334, 0.10413864939824732, -0.2407639939683202, 0.26881506234651786, -0.12056325376033783, -0.07137830555438995, 0.017669931054115295, -0.09995314478874207, -0.1302732676267624, -0.06679755449295044, -0.020997998882970492], [-0.579638859645803, -0.08536183005865847, 0.18905655032690846, 0.30915633777384033, 0.11443794232340387, -0.0781673863530159, 0.008139310561987068, 0.06982435322672947, -0.03989298559126262, 0.060382158089412025, -0.05257300924071466, 0.038955436241539396, -0.1665734941475248, 0.22062859019604214, 0.1346692801090017, 0.11610108387151613, -0.0011559247523189574, -0.11589755355321855, -0.23347743338989035, 0.12459830112259528, 0.0637316716818687, -0.23835794208681668, 0.22953087999182267, 0.00315334407944275, 0.00014211115449042262, 0.0750547160721139, -0.06542954246041023, -0.03526984552380211, 0.11121536394122401, -0.041978806257247925, -0.06172384321689606, 0.14798701889786606, 0.6108275052788168, 0.13523045186160862, -0.012780353426933289, 0.09459379315376282, -0.09350191056728363, -0.14237205684185028, -0.12351851910352707, -0.07811289280653, -0.11502213799206328], [0.5831473190120616, 0.15488571086375505, 0.13248623827524209, 0.4653914971031573, 0.4268086407121495, -0.14076897501945496, 0.050326396289836116, 0.1422885205233398, -0.26939527853705175, 0.01191297947488821, -0.0985860280147536, 0.020834172571564592, -0.11424338043607529, -0.11797696098933771, 0.08342980977912605, -0.09349622417985193, -0.15018609815868678, -0.03438519502269565, -0.30654508466678804, 0.07013367739741384, 0.06181925899425639, -0.09031208821742598, -0.13687298675860532, 0.09210455328066962, 0.017020732119343362, 0.04236529266459401, -0.019679245892934825, -0.07850787544625377, 0.10067112242800617, 0.001049131155014038, -0.008523538708686829, 0.051905358249971174, -0.6156093724146301, -0.1208912162961616, -0.026461169123649597, -0.03635723143815994, -0.08171036094427109, -0.033906206488609314, -0.07994911819696426, -0.05912818759679794, 0.16831292051483882], [0.35802732273904164, 0.4147497487702749, 0.20899851362957642, -0.30083898669925035, -0.41635348275318296, -0.06836599111557007, -0.12062734446391003, 0.2529388292075542, -0.3532451377264987, 0.06444590139044712, 0.10307689013779193, 0.04442924263775448, 0.07695173072470686, -0.34384354856930405, 0.2612027842263631, -0.07022248393787771, -0.22375665403594924, -0.05027084944026201, 0.09031334640665174, 0.14141750061694486, -0.16013946745710753, 0.2620213517740069, -0.37026907163428074, 0.07630893223114063, 0.0047623444328112816, -0.09988838769745834, -0.07417071946215467, 0.09588810465979569, 0.02623432539153311, -0.05861838907003403, 0.11701059341430664, 0.13258239287451212, -0.4709618309017717, -0.4519272443263293, 0.017072677612304688, -0.05849875509738922, -0.030772224068641663, -0.053850799798965454, 0.10781645774841309, -0.14065933227539062, 0.27108751306541684], [0.3196598803186273, -0.40479744435420295, -0.2399429124362464, 0.9363156282946863, 0.7747818624747795, 0.07787047326564789, 0.002157260661116984, 0.10239988241091205, -0.0017250206970881206, 0.18528485229723995, 0.0027876708350737505, 0.1511246177993331, 0.184565424234801, -0.10501996125502502, 0.09035880617580223, 0.29861603646774043, 0.3027442947051969, -0.2961014033532267, 0.3594251950446906, -0.014512253716966782, 0.07804901413571196, 0.2574276508600041, -0.07636225251614964, 0.22633125685028294, 0.26065576963064085, 0.05436780296108439, -0.07162214078166586, -0.10273106403806313, 0.05510222159168441, 0.04895927011966705, 0.08836817741394043, 0.10914204211069332, -0.17155915753714338, 0.49421480745441854, -0.025555342435836792, 0.004087075591087341, 0.03136509656906128, 0.11999833583831787, 0.09401676058769226, 0.12203982472419739, -0.1687541486096643], [-0.41640418839798043, -0.13161704716562908, -0.12683140467688897, 0.03462402191049329, 0.25854437992755214, 0.04430624842643738, 0.028383416112620585, 0.032124925799996776, -0.18576201416590407, -0.13867177820607834, -0.015679054007196814, 0.1422092467096789, -0.051692284707279615, 0.08440122806151559, -0.13196963408287174, -0.23801197964882861, 0.18299572310904794, 0.5201879156307531, -0.02268110397940916, 0.5582060112319465, -0.03877867257118746, 0.20889490480148012, -0.060626350906854004, -0.08101688693616389, -0.09328927406169474, -0.060886183501007184, -0.11453481179547624, -0.08526785087657289, -0.11446169179749803, -0.08225834369659424, 0.0530388206243515, -0.04035826906437656, 0.13200100842332366, -0.2057969838950524, 0.0642291009426117, -0.008899539709091187, -0.0900232344865799, -0.15130411088466644, -0.027563974261283875, 0.03096643090248108, 0.07623660236591104], [0.28158895061945344, -0.38243550846951413, -0.2356428620914382, -0.9167710026286623, 0.2363369836051866, -0.1323738694190979, 0.044201116127072476, 0.07427560755803966, -0.023918168411258156, -0.014049154820667587, -0.18288413141005871, -0.05863973949187566, 0.19857000082470205, -0.02700208793251314, 0.3314391249675517, -0.013467519563204527, -0.24461512602688398, 0.13882126284008506, -0.19769457421323175, 0.030526533329597268, 0.10511302571796854, -0.06745165747892422, 0.05047211818717881, -0.12389318704265403, 0.04377592198083786, 0.02706162661828809, -0.08250033080062817, 0.03516221076764902, 0.051061436837100245, -0.0808483213186264, -0.09311984479427338, 0.12217454708840439, -0.12791152218851448, 0.4325618230890577, 0.0014062225818634033, 0.1298910677433014, 0.012677565217018127, -0.10313820093870163, -0.1252140998840332, -0.04607194662094116, 0.06759127507049148], [0.17542242596445778, 0.11852626994795014, -0.3066612009205197, -1.2076461091512916, 0.4237176940257912, 0.08744145929813385, -0.04222941328950322, -0.0603732437528722, -0.36126505622241284, -0.010102658156676957, 0.08721477119622786, 0.11436544685063915, -0.12411499637774981, -0.04438944563920944, 0.024947936838312073, 0.06836600432847188, 0.27072687292060094, 0.30360539274735143, 0.44599031623572444, 0.3217084476282797, 0.15134254461054367, 0.27359985581219176, 0.0655459800156517, -0.1348746461089219, -0.13366997119224933, 0.1493773901108178, -0.032611944412861894, 0.004026218617283612, -0.037333444392357966, -0.09985162317752838, 0.09913051128387451, 0.0760123277827773, 0.09046518055757581, 