{"0.weight": [[-0.06697723755378238, 0.12076130153297614, -0.2343515058363958, 0.17371826399139267, 1.8638377792691045, -0.07814420759677887, 0.05758326726374715, 0.08858762115943093, -0.2533819787740126, 0.024526089261742733, 0.019855034975303602, -0.11531837520192989, 0.01875229163047889, -0.09517082174852662, -0.21220663884509164, -0.022172480048014434, 0.12966081868811483, 0.4741361014144292, -0.14027416096863735, 0.3273046612694611, 0.4471533253454246, -0.27002754562984393, 0.06507449965302421, -0.3834135178030708, -0.13818945007306893, -0.10237981735524282, 0.03966407866421722, -0.0248629411941425, 0.05349700541440027, -0.022491276264190674, 0.13001012802124023, -0.11549301704076155, 0.08195981566210221, -0.6472360954535444, 0.1543196737766266, -0.09195717424154282, -0.1453830897808075, -0.01945166289806366, 0.06235833466053009, 0.1244271993637085, 0.2204346880022929], [-0.028712450821000438, 0.21166189126587376, 0.1680878026961075, -0.0827269512863631, 0.4240347387654453, 0.13453325629234314, -0.007155283245815049, 0.00850898033381694, 0.09972650800531603, -0.01441549986354557, 0.051644233127768495, -0.12174149129754663, -0.06768864869825092, 0.30940048756692584, -0.16271636919877128, 0.03154764518558941, 0.11335351452255499, -0.007815717146650164, -0.1968347338897516, -0.09339388019713904, 0.0966809739828797, -0.13560566359945456, 0.4186697466272361, -0.052008780888702644, 0.015559195779863214, 0.09089547781824735, -0.14373419792771538, 0.01420715837358898, 0.11020994572519992, 0.039389774203300476, 0.0003015100955963135, -0.1004268787256413, 0.33283913056687964, -0.4808148134686639, 0.06756424903869629, 0.03216645121574402, -0.0576159730553627, -0.09535165876150131, -0.0826251283288002, 0.1540059745311737, 0.003902792003615392], [0.0521123029453739, -0.03486483598956157, 0.1298612047545621, 2.0634643358760116, -2.1580469357048364, 0.1401679813861847, 0.05587443670089013, -0.041267837167481856, -0.04705846439285706, -0.02471489312460191, 0.10300943779677663, -0.0553770683434555, -0.05253552498628739, 0.029677129966379674, 0.45192732743487946, -0.17247842728449952, 0.2260077310691478, -0.4124820611036148, -0.14263194185516553, 0.3002624060852501, 0.13382894759034067, -0.244773383728698, 0.09534119672374256, -0.19349889784905194, 0.01412056540446361, 0.01791897475202928, -0.14487473607580398, 0.08393846511324368, 0.1636938607641008, -0.01028454303741455, 0.021481752395629883, 0.018715829398909443, -0.008452497832624436, -0.33585339140923937, 0.13391050696372986, -0.02969767153263092, 0.06567253172397614, 0.06771458685398102, 0.0742434710264206, -0.09592008590698242, -0.006871615131024483], [0.28685710202726356, -0.11236270851113933, -0.5527017369359584, 0.5922694774429248, 0.27400384284576923, 0.11417439579963684, 0.039518293012716095, 0.09609779308774352, 0.15490039293301713, 0.0719165324229351, 0.09593910833459558, -0.03355910519499001, 0.054723885561859524, -0.32520251403357425, -0.21232312887252985, 0.018670531642060444, -0.5469519283614158, -0.07349812003026736, -0.10068993308354311, -0.22750244574411232, -0.022637418923327036, -0.08051589672309788, -0.1263688210846814, 0.15621495787931006, -0.0829233677021464, -0.05156638838073353, -0.17495236910602646, 0.10582267128208446, -0.09207255758067699, -0.04235897213220596, 0.12101554870605469, 0.00017191765288892261, -0.3169617833696688, 0.24583077200997194, 0.07006789743900299, 0.11759969592094421, 0.08597883582115173, 0.011828526854515076, 0.010167300701141357, 0.060673609375953674, -0.04130843810612664], [0.42209145655174796, 0.0876028100513233, -0.01819757136896308, 0.22933943591369307, 0.1112746603554321, 0.10155662894248962, -0.004597526974845315, 0.0715013387330963, 0.1111831274154448, 0.06175697850309938, 0.09421501210602, 0.09070954373749011, -0.057511841186650155, -0.19178305042666988, -0.2558404954552347, -0.024054729324683888, -0.43338700057453544, 0.531887346121612, 0.053854519436395965, 0.07685309782997658, -0.23711966018188316, -0.06352807520073221, 0.08033934026139909, 0.0776730473008193, 0.10068300749389825, -0.05028182434449714, -0.07038489150414956, -0.10275750773559131, -0.05254018473039192, 0.0634278655052185, 0.021131843328475952, -0.15374967561786243, -0.31521767512089144, 0.26969298229190847, -0.13011610507965088, -0.1353999674320221, 0.11146727204322815, 0.047027334570884705, 0.0690595954656601, -0.10078562051057816, -0.0751917179575677], [-0.11785639300186329, 0.2575354173753932, -0.5432445863162889, 0.38437602511137264, 0.48245033573298607, 0.012953534722328186, -0.07517049250704742, -0.007494387040900829, -0.0582125331429209, 0.11322390173023926, 0.019969671577075576, 0.12362976333484807, 0.15121783946103026, 0.0997766557887563, -0.03132789233501013, 0.23134655831120937, -0.1763087070699068, -0.6457269860330791, 0.2324654580367356, -0.4593663417115238, -0.3975934499701907, 0.025534962274519526, 0.08229234940036928, 0.23192312717902278, 0.3266282144179152, -0.07101697837161441, -0.03158889328288612, -0.16120491539287138, 0.0937214383001379, -0.019997313618659973, -0.07995571196079254, -0.002578105846060678, -0.16105954276669845, -0.018983889663194625, 0.14458733797073364, -0.13199441134929657, 0.04841729998588562, -0.1037457287311554, 0.11950817704200745, -0.15175309777259827, -0.21061363122052917], [-0.3451493191353859, 0.5028181085602241, 0.4826279456025712, -0.5953246198004658, 0.13099136004494724, -0.016704842448234558, 0.0004989217991478455, 0.00730907797013156, 0.08284031962326031, -0.05937031580626707, -0.07203933236486944, -0.10062169668562458, 0.035218649371269055, 0.29151735722343364, -0.6910325860691401, 0.08107027907163801, -0.11300894559403936, -0.13012815515489912, 0.05297150633184167, -0.20716814497383948, -0.15013114434194608, 0.07404148487517953, 0.05307806616905629, -0.41930805462677084, 0.188186077767858, 0.13254178339133693, -0.044732436300414034, -0.026893637837069814, 0.06622042530665999, -0.05598911643028259, -0.11575347185134888, 0.025751657822304964, 0.08575243323612602, -0.735253576999534, -0.043606095016002655, 0.07588601112365723, 0.05488385260105133, -0.017719238996505737, -0.016803383827209473, -0.14523206651210785, -0.04223808459577469], [0.5465174407642741, -0.13883965476381505, 0.44021815507462647, 0.12510416453631154, -0.18691672409934554, 0.03353029489517212, -0.014118284232605515, -0.048596101098654886, -0.19277946633222992, 0.05017798250232807, 0.19309508855039434, 0.1326335375993903, 0.14418209200416882, -0.429121391017481, 0.12755628751620093, 0.06037599314381871, 0.012059869179219423, 0.10002844189864558, 0.03667038097312285, 0.04060598027968682, 0.3757892237053732, 0.03842999328222154, -0.23847872177289914, -0.22209793232980393, -0.0983784735538498, -0.06559533305559714, -0.06825223244820172, -0.058433544413189854, -0.13153955765161882, 0.09415027499198914, 0.020483091473579407, -0.09780603215146182, -0.6343430640106924, 0.06437207985068029, 0.006441265344619751, -0.10862191021442413, 0.00012534856796264648, -0.1333838254213333, -0.019344061613082886, -0.043919406831264496, -0.09397872670649098], [0.37790574420303297, 0.1831012333334638, 0.4383502817671763, -0.5471644507862823, -0.5795761361071411, -0.027876898646354675, -0.0464728177043183, 0.03449009986860198, 0.35738400576862095, -0.041954893898505465, -0.1330424838527075, 0.10427132315793783, -0.013248998951453938, 0.1155087499551639, -0.3355540760602141, -0.07845041732046037, -0.15217054782626124, -0.27404018557240306, -0.1459253844305989, -0.3962142911000923, 0.19159897649829813, -0.3702578184472067, 0.14076892998858395, -0.20665142563103403, 0.13641065722670556, 0.08221003107638156, -0.039708438591051026, 0.012436491175602802, 0.035017248912763574, -0.1311015784740448, -0.004583075642585754, -0.0009560016785186366, -0.02085877914664481, -0.3529569155732534, 0.07150200009346008, 0.05401042103767395, 0.12521621584892273, 0.1353936493396759, 0.04573604464530945, -0.04905403405427933, -0.10505568764479087], [0.22969684113404518, -0.3133356920848005, -0.38780725677855016, -0.31658090514084725, -2.996127006325984, -0.14181825518608093, -0.006521406725374495, 0.09186322526728463, 0.16915021617510204, 0.20268063173841183, 0.14338851688345833, 0.0892698091073871, -0.012846321601165682, 0.029183935736903515, -0.34903843541686114, 0.30569675069662827, -0.16170109751597608, 0.3806649721377628, 0.29086315908375293, -0.28570050855863005, 0.0989771636682567, 0.286583955334409, 0.014286142440148595, -0.03925006992171034, 0.34383505885313204, -0.04317496392512857, 0.12649013426517786, 0.11933103528236656, -0.05372413668418437, -0.004592716693878174, 0.023333817720413208, 0.22984682254225353, -0.10707477023489675, 0.3163661884023566, -0.027288973331451416, -0.11388969421386719, -0.0008234232664108276, -0.029512137174606323, -0.09793960303068161, 0.14777597784996033, -0.31709132801850065], [0.15416605096740058, -0.1505932028396196, -0.043071745171614766, 1.4248186501112663, -0.8362437421938435, -0.07928751409053802, 0.08639413175949127, 0.13225525507840596, -0.23984603417432662, -0.14447309229607308, -0.042060577804907365, -0.04131653302417615, -0.11503815803761118, -0.49850226063289516, -0.07028074977907656, -0.24371547516987918, 0.1569914220206027, 0.7433827709132286, -0.0962970483284962, 0.5402957484006111, 0.34321293975890044, 0.18509983002100544, -0.44834351234834124, -0.0705423502438313, -0.2778819673243605, -0.0890843380472268, 0.18501232226876319, -0.07967024634095086, -0.010840680100639181, 0.14176371693611145, -0.12678463757038116, -0.03803077701900165, 0.08561358308924845, 0.14501108595737988, 0.08137138187885284, -0.028117507696151733, 0.1059352457523346, -0.0073442161083221436, -0.02370573580265045, 0.003685012459754944, 0.13884853213878132], [-0.2539780117542926, 0.40970115782891925, 0.1976190882792225, 0.1954886305811159, -0.036624816364503494, 0.09639477729797363, -0.06602628507254511, -0.01236141779277722, -0.0040104941617838865, 0.05635124405543388, 0.1411859998751865, 0.16822029746067388, -0.17302829066594125, 0.15277934799680967, -0.3949800484305759, -0.006694322802603582, 0.15885554206003621, 0.001126888262487238, 0.006571699936353711, 0.1208206778906978, -0.2954153039150094, 0.20318702257590474, 0.07788014583195797, -0.12716750188214512, -0.1372510630944105, -0.04334861534401281, 0.044692883913074855, -0.012135898049319957, 0.032181645457302496, -0.012688621878623962, 0.04680764675140381, -0.010562484843509683, 0.3618297154234817, -0.4477320425582538, -0.10772883892059326, -0.14169800281524658, -0.003993555903434753, -0.15509453415870667, -0.1039610356092453, 0.13854992389678955, 0.014766909699599245], [0.04059053576853608, -0.16727040531443912, -0.04231779888624868, -1.7200059617690986, -1.2224302384111205, -0.05056881904602051, -0.13697422159033634, -0.05407812310448264, -0.03760981750179955, -0.06545771934826321, 0.026767993070621006, 0.019389817215938195, -0.08085844942171501, -0.041276957591997315, 0.16700273735273338, -0.32814660537974827, 0.1457661021903897, -0.15086610384245, 0.34350532344388723, -0.159540708730008, 0.2542070597250087, 0.21668399345916478, -0.0026900754841787363, -0.36578360989480385, -0.25943313456784567, -0.11832809559589165, 0.0619993347715787, 0.12003043182606064, 0.06811222322696901, -0.006125003099441528, -0.05779443681240082, -0.1134943970980993, -0.17392402263797443, 0.2989075318507432, 0.07474248111248016, 0.012638494372367859, -0.1256169229745865, 0.0653390884399414, -0.01563817262649536, -0.03958787024021149, -0.06567777415993593], [-0.057155591379343784, -0.32132518917792857, 0.1265032343995558, 1.5456638660358268, 2.2391744382050605, 0.06401209533214569, -0.02529456263709876, -0.19288952836601367, -0.031484018331252105, 0.018947237495134737, -0.118802050691528, 0.09632139410408128, -0.06809187554960372, 0.36693511315884364, -0.024807068968887666, 0.32087460721091576, 0.01742970027803832, 0.5562887399632802, -0.06588677258798578, 0.0415985711969269, 0.12515751074185283, -0.1611469972492511, 0.22196915457286137, -0.18848953318037012, 0.15210167027869714, -0.11228924536935218, 0.08059806829460829, 0.049745467362488874, 0.08974373048313826, 0.1315251886844635, 0.10477840900421143, 0.1392029789807879, 0.1046085802771194, 0.38428045292481033, -0.02169710397720337, -0.06179538369178772, 0.05499407649040222, 0.06720198690891266, -0.13236770033836365, -0.02023644745349884, -0.10625157973819085], [-0.027740437738972883, 0.15434958396824466, 0.04142532913815623, -0.3983104382928846, -0.6371539607297732, 0.09374015033245087, 0.1018959560993395, 0.049400908226790184, -0.059430640310030626, 0.03310918478307822, 0.15804813350389507, -0.09413706218054159, 0.06897319523630001, 0.17880589467698316, 0.13351095229549187, 0.2993030381374047, -0.33770602241813036, -0.21997448313619777, -0.07504118956216815, -0.3893672694366735, 0.0033414962342537724, -0.3111100327922325, -0.0422349939265005, 0.3578991575939057, 0.2996515248160201, -0.10661146990951226, -0.10752428524192498, 0.08687896080318872, -0.02916126154359352, -0.14989931881427765, 0.042171210050582886, 0.14934318294668528, -0.24661696058570887, 0.38284470824107364, -0.03549744933843613, -0.14648133516311646, 0.023586541414260864, -0.02657294273376465, -0.09061460196971893, -0.10543748736381531, -0.1398446743072093], [0.3253093894679707, 0.09313658847420878, 0.169051077996635, 0.4505207307795158, -0.6680602109508025, -0.06395738571882248, 0.061429040794202285, -0.02107805793256253, 0.010566776718643001, -0.10017529396722917, -0.15795116924041408, -0.08486411027902141, 0.07247313590337635, -0.3730406117711972, -0.021345801384959895, -0.21711720990330594, -0.26995946124142484, -0.043234338590176544, -0.019153133498807165, 0.00411833311630205, -0.21272123472643822, -0.24226008572080746, -0.3209078025580568, 0.20474884616592448, -0.1839675985051787, 0.005930825645725204, -0.10048262072105836, -0.12573955250282667, 0.08948112982015181, 0.13139721751213074, -0.10739923268556595, -0.10599084966575473, -0.29116020333683057, -0.12893825637915798, 0.09040065109729767, -0.024426743388175964, 0.043977290391922, -0.02408541738986969, 0.021121099591255188, -0.02297826111316681, 0.005438063607612436], [0.44668552478201706, -0.17110743955397764, 0.39617992776760325, -0.3772367073326006, -0.08581184694449384, 0.04117244482040405, -0.08453479574022772, -0.06122599815355953, 0.08816520742584655, 0.05477806390194158, 0.09559127385640301, 0.03230975265526817, 0.09161337674526501, -0.3611643326433648, 0.18499579137237265, -0.13209582344097126, 0.1592143534822537, 0.15263592182921287, 0.04913847387388784, 0.19547523265282948, 0.0742623451611135, -0.06052626804171381, -0.38908530367907157, 0.42030745740460257, -0.045851456212407334, -0.15474865922689138, -0.08174567261695131, -0.017347331736081575, -0.10103229770421249, 0.153500497341156, -0.019451722502708435, 0.08440392134166662, -0.5101019870880106, 0.18664541595509204, -0.07143454253673553, 0.10405901074409485, -0.049864187836647034, 0.0232229083776474, -0.1440816968679428, -0.06544991582632065, -0.1856666551076592], [0.10802474578244943, -0.16207835147899538, 0.004933560900971298, 0.38894420017941145, -0.6044683246664416, 0.15515455603599548, 0.001343797674505609, -0.08031131567297617, 0.1146713235895461, -0.08496890751718747, -0.20905172714929643, -0.24109023699503002, 0.2022498569071299, -0.30068778419355924, 0.35881372459798827, -0.19588585369412223, 0.30967922906659817, -0.07548359570993278, -0.11250821247362298, 0.2830947454634581, -0.19261141053976313, 0.07143089578583109, -0.450760273885804, 0.31979743428219576, -0.12898970957707953, -0.11273952979002387, -0.030168954612355456, -0.09600339490328207, -0.07671616631899271, -0.07797521352767944, 0.04497191309928894, -0.05226731710845952, -0.26280876261840713, -0.013005636388150221, 0.014384284615516663, 0.06520029902458191, 0.146197110414505, 0.11038267612457275, 0.030760079622268677, 0.037353694438934326, -0.1535395426938902], [-0.3897371935759966, -0.17365193440176638, -0.12916438551927106, 0.43822457279575266, 0.3626061527013688, 0.04136510193347931, 0.02748928020419688, 0.11277588179943863, -0.07916338188025884, 0.033733131155946526, 0.18918261797990663, 0.151274451332949, 0.08049109743592918, 0.1420957686809181, -0.1855243315653974, -0.053255066655320496, 0.37245116536701706, 0.22802491306134884, 0.3418793744448883, 0.3130617446372717, 0.32047510624694797, 0.3380478371392212, -0.17730558221587714, -0.11312563731883632, -0.015896361232720882, -0.10154883566423925, -0.10266134890839085, -0.022704392700639835, 0.05910076943114583, -0.08967512845993042, 0.013641655445098877, -0.06122403578893313, 0.3358953883016802, 0.2972878535942569, -0.1350492537021637, -0.006376877427101135, 0.10446903109550476, -0.09405095875263214, -0.0010559707880020142, 0.06686338782310486, -0.011565137823242885], [-0.2179079274834109, -0.28755895154571337, -0.1789864131236601, -0.04857780461355221, 0.3398962841778456, -0.12270335853099823, 0.06916730396221754, -0.15901651162518904, 0.2513564629262426, 0.028857782088057688, -0.15252881068469606, 0.15198185723541804, 0.05941398402287173, 0.41068576522793193, 0.11775400174545318, 0.2723730406091924, 0.4161614148071605, 0.14242128245176228, 0.05682730785870323, -0.06388203310586027, 0.44143016498174614, 0.21675533466210897, 0.08294999586064483, 0.23249715878276966, 0.0694639252035016, -0.11240479216037545, -0.14194680616317965, -0.08795962348638343, 0.1436503840977075, -0.1355390101671219, 0.1435278356075287, 0.09688186732601438, 0.2894453126643759, 0.24552015674118502, -0.03633279353380203, -0.012771472334861755, -0.06237563490867615, -0.1254604607820511, 0.11623641848564148, 0.12406939268112183, -0.2787244962474488], [-0.4491770873912869, 0.4040891147749152, -0.009536122045651614, 0.6610799922617238, 0.38977175516773366, 0.01986090838909149, 0.06494481069893074, -0.12069597301957813, -0.06565994836425915, 0.16420328044390162, 0.009738744533897566, -0.1192318486801338, -0.050504414503820705, 0.5027208973286142, -0.10326022898000703, 0.06281754159591636, 0.30797584363845265, -0.6452817231398329, 0.19955267853657777, -0.09533208882404594, -0.3066423196099607, 0.11384990989925739, 0.1587884850901652, 0.04794804125497596, 0.19921465538833424, -0.11174365904822553, 0.11982979598746052, -0.048123270540380125, 0.0664161813567618, 0.1086733341217041, 0.12580326199531555, -0.07286658170569446, 0.20792368468296, -0.05210758800294376, -0.035904258489608765, 0.12087500095367432, 0.008600831031799316, -0.1171596497297287, -0.14006759226322174, -0.1389680951833725, -0.07342598969048864], [-0.32285313383465475, -0.2709470091730248, 0.6199832666496212, -1.187183414619147, -1.4128773842489475, -0.1328727900981903, 0.03811007990880991, 0.037401322637678376, 0.29232553665757455, -0.08857302460626867, -0.07043562592945289, -0.025418130178074858, -0.11733374092535279, 0.02736559207104191, -0.46868511471932106, -0.20111480325688982, 0.02301307669459675, -0.06908451397942977, -0.08135894198458767, 0.24574189475614278, -0.23403750502996964, -0.07121863172744615, 0.4128948890195759, 0.07302008697105553, 0.08404370232540163, -0.023918286623614237, -0.0843793830892012, 0.16341531955991626, 0.023426897166115793, -0.09613126516342163, -0.022434085607528687, 0.06839931612844567, 0.2595014676954241, 0.25471986266716373, -0.12100835889577866, -0.06342176347970963, 0.0585252046585083, 0.09535729885101318, 0.003380388021469116, -0.03268442302942276, -0.3670988652440529], [-0.19214647459338535, -0.11751158199637472, 0.0728858423261251, -0.44315487097607814, 0.43685673792767055, 0.15371185541152954, -0.018458905038821683, 0.16640675745002426, 0.08037692958447627, -0.033428843835289185, 0.06931281065525113, -0.0957093315762155, -0.06880671135514302, 0.2462304803867375, 0.03691670187080456, 0.1539269508097775, -0.3705238662709021, 0.7553286727826243, 0.2038364955857386, -0.004392542620966154, 0.07234712679716779, 0.02256384849093163, -0.11956344247282852, 0.177138730295357, 0.23398843300633837, 0.07418379284332399, -0.04866884552051551, 0.11488029457519602, 0.018693641795617045, 0.11974036693572998, -0.06234480440616608, 0.13560819640802735, 0.14152961900123992, 0.7173322748075506, 0.011414974927902222, -0.02609393000602722, 0.0769130140542984, -0.1487143337726593, -0.0369405522942543, 0.07180818915367126, -0.07266362026373693], [-0.5226091565777498, 0.03509356863941111, 0.20227132904212952, 0.95592463523271, 2.120410739580271, 0.02413460612297058, 0.06073808698479451, 0.0614928815837988, -0.21902753995386348, 0.028813119577864827, 0.1395235569889199, 0.021833187502113948, 0.09207860712955483, -0.1476321637455467, -0.2252574010895076, -0.1635768680889549, 0.08990868808211984, 0.09576396818726565, 0.08635894705829764, 0.08828701078875013, 0.16531662547050607, -0.09710199519757291, 0.1988184742977843, -0.05306138318584297, -0.10224985706881169, -0.16692201310949026, -0.1845853727515199, -0.07015040034608719, -0.19170166069822095, -0.05747440457344055, 0.02805390954017639, 0.04316075688056749, 0.2689765535619548, -0.3454615815163395, -0.01095399260520935, -0.08457181602716446, -0.12122398614883423, 0.0276460200548172, 0.08122456073760986, 0.1511121392250061, 0.24688411272364313], [0.2785993056512962, 0.3746681802380822, 0.09610712808794147, 0.5762924242140212, -0.5382235488074322, -0.04237116128206253, 0.09711358872068698, -0.17326291302874905, -0.14679139712967382, -0.10793004814505448, 0.09510169079359095, -0.020732448493881606, -0.070688604153393, -0.055216438487443786, -0.06661333752784741, -0.15254182854166562, -0.34347435416247907, -0.2578072123799007, 0.14823184882059218, -0.4565412769187536, 0.045881850872974216, 0.16650777352511256, -0.09545966532356817, -0.21116943540257554, -0.11171941405943052, 0.06827818682919573, -0.009320563762080089, 0.07594900658856454, 0.01804699829350789, 0.029927492141723633, -0.001669362187385559, -0.030352770879648036, -0.38515795937883984, -0.3889960633337033, -0.013030067086219788, -0.0017027556896209717, 0.08999776840209961, -0.08078370243310928, -0.10447662323713303, -0.05357973277568817, 0.050253020725503056], [0.08004906109168368, 0.42637195910631326, 0.22519156131093912, 0.469726558263997, -0.4284923269790822, -0.022819414734840393, 0.04045194127025709, -0.0684479696541133, 0.08653021559161968, -0.1404858038970887, -0.01542063232888922, 0.06287815991411416, 0.008233253543665588, -0.14092922674264233, -0.09778609353686159, -0.08388608345322107, -0.4649724122663988, 0.060385986792366994, -0.011812251979068081, 0.03722481149150344, -0.37604210362898327, -0.23613429843997746, 0.10000874490840175, 0.06585272946015837, -0.25974216232894476, 0.11968527243017245, -0.08852037533641822, -0.04873504980922641, -0.04340906932474084, -0.057402096688747406, 0.1507299244403839, -0.0444110979120349, -0.2455974754228923, -0.20653730530485967, -0.03966658562421799, 0.055737897753715515, -0.1272803246974945, 0.07250595092773438, -0.036701783537864685, 0.09794646501541138, 0.0638920590125715], [-0.34803862629994153, 0.025725439801347432, 0.07903154239477495, 0.026169704176485578, -0.17036392242515472, 0.08478763699531555, 0.1082148770062661, -0.1919250755442425, 0.042589787650803033, -0.08368499951866618, -0.1372744554662792, -0.022491824069034532, 0.1343020535776299, 0.14968234382434734, -0.012144349939701487, 0.21345148578542605, -0.21891695802156763, 0.14395825573306317, -0.34722235224786874, -0.13309073405076496, -0.008416292977049815, -0.33943171822524726, 0.16775179126317158, 0.1338653431916957, 0.16664971712847937, 0.1192123724783564, -0.04890417468894432, 0.07338253992449226, 0.023978693660608213, -0.13906951248645782, 0.0170133113861084, -0.15368844728942252, 0.36045339513289615, 0.29845960380799536, 0.047206804156303406, 0.03049984574317932, -0.008281782269477844, 0.04882049560546875, 0.058582618832588196, -0.1445419043302536, -0.07687659389389791], [-0.49052999507583084, 0.034728963325306346, 0.16633773924826487, -0.2501418628829062, 0.34298180025201064, 0.0827006995677948, 0.06496198159145893, 0.10779396881300697, 0.13954542797331385, 0.06259103623866903, -0.1724452502208569, -0.13471747703131196, -0.14856183024406286, 0.3102897280402426, 0.20357481549310225, -0.1578087068038094, 0.45682332314093416, -0.6622699168044696, -0.13900875021471337, 0.17126211496761384, 0.06558681586211043, -0.005663952164570151, 0.3537396970740741, -0.03494528401365514, -0.18605463882126827, 0.005805106537356652, 0.1408339307475259, -0.03325109027145818, 0.13847093440772792, -0.03484980762004852, -0.1515386402606964, 0.01806420243248731, 0.3317291160884145, -0.19032985193335553, 0.06920765340328217, -0.14144140481948853, 0.07769063115119934, -0.15147987008094788, 0.1298666000366211, 0.048250749707221985, -0.13695041609601458], [0.25389448420092714, 0.1337549724395413, -0.12213466400279625, 0.37314430680122435, 1.0798352501036688, 0.027383044362068176, -0.007954831215688523, 0.01964453921173133, 0.1628745029790006, -0.07500808658820256, -0.029343056877031683, -0.12035134752549101, 0.10324829098957895, -0.07418663798854515, 0.2643197989537768, 0.12110909153585976, 0.030416240501858472, -0.16686374630212203, -0.3661683552411258, 0.0902931577443016, 0.04871014653810896, -0.3715936008054049, -0.06603866040296175, 0.02698236197950969, -0.07521212108932637, 0.04427835887161688, -0.11912054771693655, -0.1723215078762405, 0.09954204207149762, 0.11851531267166138, 0.10160493850708008, 0.10282855284866461, -0.2659278985835998, 0.024967026552271218, 0.11268839240074158, 0.021635636687278748, 0.08249291777610779, -0.0866364985704422, -0.07966785132884979, -0.12825891375541687, -0.08673942932680449], [0.27068590455884206, -0.3880044528169635, 0.07411962835447759, -0.22405406147203183, -1.5401881301396139, -0.05285292863845825, -0.10283415364885187, -0.05765241042905362, 0.07010793147084243, 0.04548815286452431, -0.0225604647586607, -0.09248914064863113, -0.052018131849220224, -0.25315190748855876, 0.09669856498143832, 0.19094366928497267, 0.210874169562906, -0.007673579091014341, -0.12108858443427331, 0.11079482382454459, -0.001333917276408867, -0.1112701223283592, -0.12903178271945115, 0.3217605726749677, 0.251071255805868, 0.10294193272738211, 0.13102498893885592, -0.0027651464447516127, -0.01652246470303743, 0.1049119234085083, -0.09551133960485458, -0.11138671391792272, -0.18413632949939254, 0.4526137442275496, -0.042253464460372925, -0.14628714323043823, -0.0393940806388855, -0.053823843598365784, -0.023906663060188293, 0.09746181964874268, 0.06368347513823928], [0.10604541505678666, 0.008160144865951844, 0.0153339651223422, 2.075299498235715, 1.1495126135241782, -0.12828540802001953, -0.04841329332500148, 0.016321517803446314, -0.08015153634713558, 0.0021884708237984284, -0.077527442003382, 0.11726420280824527, -0.1941133768725109, 0.115023931220462, -0.13011208129235466, -0.25931935345620916, -0.052009416532407114, 0.02002665355675912, 0.3457185256286415, 0.11637111303581221, 0.13140222007322636, 0.2596982290137027, 0.062326728266471, -0.17269322621094121, -0.19122697359547283, 0.11361762634128243, 0.05934686711639135, 0.16090610376208675, -0.1382154847064649, -0.011304289102554321, 0.03959912061691284, -0.025107897390147398, 0.15791572306120075, 0.14185159835919475, -0.08651836961507797, 0.02646389603614807, 0.05117616057395935, -0.03363759070634842, -0.06870328634977341, 0.144718736410141, -0.044147910193124106], [-0.0038927682202532935, -0.3153774574721975, -0.7064754676095607, 0.9191951937808681, 0.4818150175900617, -0.01008780300617218, 0.0015907019460029046, -0.14665749769778347, 0.052518121248032006, 0.15186579674154807, -0.017708805863358202, 0.002705069716475679, 0.06186939924627908, -0.35274380492712964, -0.2250637202876496, -0.11947574583817568, 0.17402282427052757, 0.5944134070576622, 0.3627688097175894, 0.3280748552401984, 0.26842564130421415, 0.1549272523898573, -0.2961167794216002, 0.05877364765171028, -0.1354737973195968, -0.0077752024659531495, -0.07439827926248536, -0.10824933655351605, 0.10047039382368099, 0.02306397259235382, 0.06280766427516937, 0.0932372211873557, -0.22536102067984698, 0.6267971138010316, 0.09510844945907593, -0.09485505521297455, 0.0667407363653183, -0.12752263247966766, 0.025310680270195007, 0.13242819905281067, -0.10877093807644737], [0.08615564639979986, 0.12336316578039265, -0.362363731394969, 0.1325093251426514, -0.5737635937296691, -0.02594664692878723, -0.07855074949605623, -0.0603517646677716, -0.07559059078719967, 0.12511214544028154, -0.06488258245644171, -0.20870260003266497, 0.11176747013777533, 0.07748455419549953, 0.10592722883937532, -0.020729798206354497, -0.29394850360546376, -0.15479984847791145, -0.3774425837812062, -0.11601869660707416, -0.1367118442157192, -0.3478620354737204, 0.2266291931467495, 0.017907680021677818, -0.03400083958578887, 0.015392801216940439, 0.05624418561826185, -0.10226241643061246, -0.0038418560706574376, 0.010675743222236633, 0.015967071056365967, -0.06277240185271404, -0.15307377801179442, -0.10813350341423097, -0.09375199675559998, -0.04446122795343399, 0.017054766416549683, -0.017932280898094177, 0.13042810559272766, 0.08464597165584564, 0.1553259093361614], [-0.0230786712691327, -0.11154731127700775, -0.8335719611979748, -0.5051044747399758, -0.7234745254679539, -0.08132241666316986, -0.004178296192443079, -0.01929984740892772, -0.014084288805572982, 0.2281513067970564, 0.1808614932857333, 0.0029597633443653897, -0.009227804552527825, -0.2453691226567929, 0.4222297321506693, -0.14833806815034348, 0.009663596613878209, -0.012586653409259511, 0.26481935139654184, -0.21527543996231902, -0.3248461415046643, 0.3550683712194715, -0.19758856367489147, 0.508736486815136, -0.09044358379193936, -0.02160813917427857, -0.04031672586708877, -0.0336606304815379, -0.11754239608555406, 0.041843757033348083, -0.13678355515003204, 0.0525906281825794, -0.06399585029431715, -0.1775797163561116, 0.001147046685218811, 0.11046364903450012, 0.14796671271324158, 0.03411713242530823, -0.0641176626086235, 0.10871905088424683, 0.034293192512718194], [0.09999242844444566, 0.3832797697211694, -0.1422701894888423, -1.2045076441430294, -0.37929994694812913, 0.1354156732559204, -0.1099200377204007, 0.20637252939821324, -0.09051729722663418, -0.05320279215387562, 0.15961533706254155, 0.08376899282998716, -0.1998940995793716, -0.15958133032355204, 0.010946447095786023, -0.053903065067109165, 0.38113292136019294, 0.19629038799681778, 0.4187874697640352, 0.13246324401029053, 0.16273222415170982, 0.20078385957257894, -0.11780305668635621, -0.04689387614948894, -0.17224258087539965, -0.11780466947881117, 0.13167918409975354, -0.06452172313062156, -0.08839792821733021, 0.04268519580364227, 0.008670762181282043, 0.06592733345292265, 0.20860933024297776, -0.00825814232418055, -0.005263626575469971, 0.060145825147628784, 0.12367799878120422, 0.12870106101036072, -0.04391855001449585, -0.1313808560371399, 0.2100392182868757], [-0.22670280697675158, -0.026934629282367988, -0.0696755149245751, -0.2864963984574437, -0.013432141331177663, -0.04546194523572922, -0.0955177750445948, -0.04755170907160746, 0.11612809018464144, 0.016177774953534424, -0.019675463802988714, 0.13249027692538812, -0.15639266223938295, 0.16854143842273686, -0.26398601491095247, 0.06450768171125819, 0.07523947991310856, 0.3187166456113197, 0.09486479656488883, 0.05038578146077252, 0.1256123749671763, -0.0012998560138940938, 0.21013753452407055, -0.29849873892944917, 0.015385710835480603, 0.035677184599706924, -0.06387309984557825, 0.13978092862970526, 0.10575441016561789, -0.09594784677028656, 0.14731985330581665, 0.11184932598868576, 0.41541881264812164, 0.4077768070807077, -0.008784309029579163, 0.12952807545661926, -0.008048251271247864, 0.13582026958465576, 0.07825686037540436, -0.10319206118583679, -0.10533517372895229], [-0.46394005688925166, 0.04712099845279167, -0.08639736908934896, -0.03139293789686909, -0.351437472363755, 0.015524536371231079, -0.061439775514966724, 0.1278817921056836, -0.20024432801161676, 0.04502639774617025, 0.018756918164835042, 0.0798449735370726, 0.04262075428303578, 0.0749199503293957, -0.07924349137580143, -0.013820927438108038, -0.12043972298895794, 0.3820880603902554, 0.1489131516105264, 0.10290383063018005, -0.022348703558888218, -0.0852279208081116, 0.1960753477127958, -0.4327729078353749, -0.056874165324330504, -0.03385760276360189, -0.1211307012919876, -0.055471729624697375, -0.012501362848707676, 0.06855501234531403, -0.12972606718540192, 0.05380154760979454, 0.5860199675600678, 0.08772754781064399, 0.004199281334877014, 0.05354347825050354, 0.07985737919807434, 0.005606546998023987, 0.10937786102294922, 0.11917239427566528, 0.15364657129552742], [-0.049227497416450675, -0.5073212634138345, 0.013328332757571804, 0.3241832900381453, 0.5546017598376656, 0.1015566885471344, 0.0671512189927784, 0.1372911283390452, 0.02003248821405458, 0.1235115842505994, 0.21737511773318527, 0.032296839549247024, -0.05782883450540907, -0.1971390662410719, 0.06340901864499986, 0.08974191413471913, 0.10399381376669099, 0.1917052069588493, 0.3698276531450648, -0.12062667775221934, 0.005725073682550941, 0.30154092770050983, -0.2890397934838601, 0.05573274004955128, 0.11514431864383207, 0.03729017703103598, 0.012639677806373704, -0.06604524077606637, -0.0008651253743208157, -0.12574949860572815, -0.056147120893001556, -0.044402570920328635, -0.1402815614067544, 0.6258002955868718, -0.14407019317150116, 0.04715871810913086, 0.13238301873207092, -0.13694913685321808, -0.09434224665164948, -0.13066770136356354, 0.23410748636721582], [0.423325511530626, -0.2421463161789616, 0.21775636911737303, 0.32958221134938903, -0.12388210725936738, -0.09342079609632492, 0.033855611771655386, 0.04993971554614859, 0.01117353105677805, 0.12108249805235465, -0.14316771465072534, 0.12121257645358957, 0.042240439274544496, -0.3229948019082355, -0.018571968299259136, -0.029385941192266087, -0.03430831568879531, -0.017855726167655604, -0.3057224565420438, 0.16882877474065433, 0.05697287641871403, -0.26824517045090424, -0.08814805923013586, -0.14986717154180906, 0.07569278256070458, -0.028172358649303147, -0.08659813530974414, 0.008769408089588298, -0.16403107322984026, 0.01583760976791382, 0.13866689801216125, -0.08939014298380814, -0.3769096734884501, 0.2689023566012249, 0.05486877262592316, -0.02753983438014984, 0.02786228060722351, 0.07438258826732635, 0.0549749881029129, 0.023583903908729553, -0.08102334834359354], [-0.11251791413957578, -0.060783023431787854, 0.3562176178339968, -0.4918363477117418, -1.6619685704806324, 0.09632784128189087, -0.012950011702595854, -0.09449628088281935, -0.008464027940697678, -0.12526210106345018, -0.08581907346535024, -0.11974586590814863, 0.09137661301163823, 0.35456725291811103, -0.1440245430262061, -0.07177676860553217, -0.16453644533906867, 0.010438819762235516, -0.5073649202890449, -0.049512553501466515, 0.029853835646792653, -0.34002079055187306, 0.27165732434786577, -0.31917361179263554, 0.1469856064029604, 0.1243074303828002, 0.08712186574561231, -0.10306076050179361, 0.06848702489955044, -0.08952825516462326, -0.1374635398387909, -0.10566838937699308, 0.17450675591613327, 0.06596934544568608, -0.09810641407966614, 0.12802866101264954, -0.07372760772705078, -0.13385844230651855, -0.10711008310317993, -0.10845530033111572, 0.06131046152698407], [0.060025666058244484, 0.0023448918978412744, -0.3117016945014341, 1.011681026526977, -1.0171321784888079, -0.0923311784863472, 0.034213539531373946, 0.05822981071618061, 0.03032588775185771, 0.08838159421126324, -0.086440568503372, 0.10876818961239826, -0.018558757215338575, -0.30933744855085965, -0.16778839255055913, 0.10321390353763789, -0.5565852100489284, 0.29654185176036035, -0.21843833862156697, -0.11562942846706921, -0.38304129179811536, -0.279497608425957, 0.06840318229845552, -0.14037280670226995, -0.049511565796963586, -0.005972031274483729, -0.07368655107323954, -0.029500145235703452, -0.0004863773972254251, -0.020897358655929565, 0.08956578373908997, 0.07214250849396259, -0.14822376063543266, -0.20240392151324862, 0.055134519934654236, -0.15156754851341248, 0.08617106080055237, -0.13102766871452332, 0.1506991684436798, 0.09412100911140442, 0.005811127483860851], [-0.14862891860516173, 0.23898419699085413, 0.1981358637039318, 0.6784303288866314, 0.36711563025564675, 0.1231338381767273, -0.024305088648615775, 0.08819945169692531, -0.19117342270343712, -0.08659067637431744, 0.0713123694651341, 0.16480319356848955, -0.08024111277568424, 0.2017603235952008, -0.17868062225098558, -0.05597906706092078, 0.1848901924671449, -0.11473131346559187, 0.35373159030208917, 0.33984771027359906, -0.407987258781333, 0.04935061251468903, 0.2268847982761054, 0.16113831126947223, 0.055713498533662136, -0.04270231483380109, 0.014842862804730588, 0.14532850178082846, 0.13905529173215292, -0.016025498509407043, -0.053732968866825104, 0.15758229270369442, 0.2707515232209704, -0.15965145071689088, 0.12480288743972778, -0.09933298081159592, -0.11315905302762985, 0.029596611857414246, -0.09332156181335449, 0.08504095673561096, 0.09913742386430452], [-0.22107851621627153, -0.17478143186370584, 0.117558761378306, 0.5368968697903485, -0.2705165758563435, -0.06038517504930496, -0.12033236286295415, -0.19545173197330587, 0.2607795429751814, -0.06623598740863451, 0.11290920462503641, -0.044675760603995154, -0.0292312632636981, -0.06348267142710894, -0.15397075975692895, -0.3567831078020373, -0.02590354702658869, -0.19602739176707043, 0.22106457662069753, 0.1484049750902345, 0.19841252766048273, 0.37859712852204597, 0.02543824294160344, -0.14642282827376993, -0.33305590746896613, 0.1361218231892121, -0.11160649478678611, 0.06665681183095071, 0.07372809827084634, -0.07329004257917404, 0.1312689483165741, -0.04199589161992639, 0.13562000116138684, 0.3292803935405072, 0.10657665133476257, 0.04121197760105133, 0.017809033393859863, 0.08675473928451538, 0.0603937953710556, -0.12742376327514648, -0.14180199688217185], [0.1868954119781796, -0.16396706981051992, 0.06222031083150774, 1.004400616912787, -0.44011945350984955, -0.07586182653903961, 0.022986239964441907, 0.13167196377448748, -0.041088743137642415, 0.07741694572344607, 0.0884732551493723, 0.16166026364947278, 0.031756017831715354, -0.2055597933155549, -0.033465071841409184, 0.2022519742331842, -0.30070389231645356, 0.3284518522243257, 0.15466305087461799, -0.383807401747101, 0.3577652879049038, 0.26411062013968706, -0.1177339813595195, -0.1210391303064534, 0.18827576819384315, -0.1491402820809377, 0.04339847107095398, 0.1169150485531804, 0.1089537157551747, -0.059992946684360504, 0.015868768095970154, 0.10225141141529313, -0.327904671190862, -0.010975165448284913, -0.010051831603050232, 0.037398144602775574, 0.04501035809516907, -0.02356550097465515, 0.11367952823638916, -0.113588348031044, 0.1552113832164002], [-0.18160499401308206, -0.33063694866833887, -0.08737275802885049, 0.6761960933841082, 0.7979686127057661, 0.039906203746795654, 0.08640992101922886, 0.03458651418091363, 0.25656545611820947, -0.09260748618817029, 0.08462621481089598, 0.12374834925799336, 0.10575215971494022, -0.2063717203661816, -0.07343842281253155, -0.2216813835043527, 0.2613195774430792, 0.4586145970747582, 0.18034020921222363, 0.42588805838624194, 0.41938185772028724, 0.09612257152780011, -0.01674249151749371, -0.10418321786361483, -0.1810624039525523, 0.08776041636625022, -0.12146210899194985, 0.016918090678841275, 0.058418033219964326, 0.13105130195617676, 0.15214571356773376, -0.04949860521874907, 0.2153454347165569, 0.31766661553602255, -0.1164960116147995, 0.08010806143283844, 0.15441280603408813, 0.08472549915313721, 0.07827894389629364, -0.06177380681037903, -0.21751505149209693], [0.06634302182784275, -0.25576625216641047, -0.3622185011284849, -0.5420549515494253, 0.9686017376926089, -0.012338489294052124, 0.03348671255927495, 0.028950328498847894, 0.22183482137536265, -0.14080839813604445, 0.10932188347377603, 0.055189049396896596, -0.01911135972395438, 0.16009623727989641, 0.2207316688645365, -0.0765004935941216, 0.21234018049269723, 0.21414433730070737, 0.21963591203102437, 0.24336319105134613, 0.10387392114110548, 0.2598007222364573, 0.05669233444917317, 0.19307098930313069, -0.19515659642605052, -0.026575454350601675, 0.050619199100841554, 0.06120999080311151, 0.07138465267788335, -0.0413251668214798, 0.13013485074043274, -0.03323367402483927, -0.027722167733026704, 0.206376410615021, -0.05880767107009888, -0.05955251306295395, -0.0002560466527938843, -0.07572547346353531, -0.0691470131278038, -0.03193415701389313, -0.2226684064546979], [0.0005884653578639312, 0.08277173913562608, -0.4103100936239331, -0.05987111397379948, 0.9503616893017873, -0.016214683651924133, 0.07344278383487214, 0.06275202045042715, 0.03012404391273176, 0.1547281557123145, -0.2046221539974213, -0.23936769074201583, -0.05579406382636644, 0.09866973098330054, -0.20985393624962584, 0.15726199326780052, 0.0037777692499882188, -0.27028126167848043, -0.28092384343584675, -0.03637425533848605, 0.029604301112584195, -0.3805799764180615, 0.05926173403901625, 0.09273109675602832, -0.0244306799857478, -0.08695669067646652, -0.05773135615135895, 0.023992184869988206, 0.028674800269349196, -0.0559898242354393, 0.15290969610214233, 0.0626209417277237, 0.4123408901878358, -0.29709413474691054, -0.042774006724357605, -0.0964827761054039, 0.04729156196117401, -0.009043291211128235, -0.08425156027078629, 0.06051085889339447, -0.1281758175476797], [0.2902119972494998, 0.14841739033058104, -0.20948065077162528, -0.4184078806396165, 0.3335333220083806, 0.08882841467857361, 0.08452284561928457, -0.02325873719066457, -0.1411550606069694, 0.04991714970746584, -0.14121488592648834, -0.10489138326669309, -0.1353789685519719, 0.2168300367421403, 0.10942517247378432, -0.11763126393508996, -0.4687910900823857, -0.08662563070482991, -0.3779755334141197, -0.36020962681065755, -0.30904133657690636, -0.40322712855511084, 0.13690474979542047, -0.12943716873228273, 0.09686219919628451, -0.08485184040744123, -0.14654049453218015, -0.00783355709988879, 0.06965264502089236, 0.021097928285598755, -0.018182650208473206, 0.07730588113893404, -0.18254048858478159, -0.3450304476702505, -0.07405895739793777, 0.058887675404548645, -0.12510305643081665, 0.06737063825130463, -0.09916112571954727, -0.03452499210834503, 0.10272721951630574], [0.00284401323706306, -0.42127361587076906, -0.21016446593485483, 0.9879087825726126, -0.17021943526484884, 0.020259976387023926, 0.01089424158354536, 0.03845054543141286, 0.19055880578845394, 0.16506227379906013, -0.0033021622808491616, 0.09903907240314153, 0.1351966810809358, -0.20220371556965805, -0.025038008917293644, 0.14991021049280834, 0.3094019261897314, 0.46209005145277615, -0.0165324050387595, 0.22105706850883058, 0.17503894973641285, 0.1658849958346073, -0.16345430544224562, 0.46210366959085214, 0.25828448303450724, -0.1191165690158507, -0.04875382230030639, -0.10699984625326496, 0.06315056785596318, 0.008393064141273499, -0.10299080610275269, 0.1605833299048175, -0.14359123121141995, 0.6860371660840245, -0.07023655623197556, 0.1392996609210968, -0.10555192828178406, -0.068657785654068, -0.09490787982940674, -0.06989006698131561, 0.23991010646997613], [0.20013230759119624, 0.2623777410819914, -0.054125317460753976, 0.605169906485764, 0.6697208226557113, 0.02278834581375122, 0.06524414886964715, 0.10019650978076103, 0.12624324372806445, -0.0723065935666656, 0.1993688226131337, 0.20430501107253007, -0.004785274773368878, 0.14171819862703947, -0.21481955008846862, 0.13087191858439465, -0.04724263913527627, -0.10132165214509928, 0.38958010774405816, -0.08910367269740375, -0.030426545219909073, 0.2562091207160783, 0.12854889482403753, 0.234884435484994, 0.19156360611275974, 0.11306987385221408, 0.10485917012163089, 0.04994055311151655, 0.05400913636156233, 0.04115287959575653, -0.1012725755572319, 0.04855797681865442, -0.254317765940556, -0.5672000214926564, 0.10127922892570496, -0.10395020246505737, 0.08357490599155426, -0.12853145599365234, -0.11600738018751144, -0.07214087247848511, 0.04800860388693052], [-0.14564513859188805, 0.22787615799174105, 0.1987435196319888, 0.07898176366096853, 0.3999431181415724, 0.14553368091583252, 0.028319405720232567, 0.15410951209935767, 0.0054826027653568045, -0.18508913659234152, 0.1117241325699526, 0.10771466222636343, -0.18955564045090786, -0.10907086411534281, 0.0421098993437607, -0.30088197500430963, 0.04706800297698115, -0.28670044251468596, 0.27682895471014995, -0.10056105270343231, -0.20811879243383358, 0.15361715288940805, -0.08594795348097099, 0.0566416133006461, -0.10754624696976034, 0.17187231524339416, 0.06933334215035805, -0.09927432493815297, -0.10529984788546426, -0.043509095907211304, -0.0723998174071312, 0.0513473271466844, 0.2558123929912976, -0.16101527645209182, -0.029525235295295715, 0.03809191286563873, -0.0821928083896637, 0.049495384097099304, 0.15242299437522888, 0.1179288923740387, 0.02524395988372914], [0.05259425598636204, 0.2085803966670061, -0.03919155940254099, 0.5197663811805643, 0.09950276989010695, 0.02525380253791809, 0.07757400121308837, 0.10126643153046867, 0.030324007030602524, 0.04643241766899738, 0.008118757521666447, -0.07405973830267062, -0.04734830852538462, -0.010412665798825218, 0.05569094255876028, 0.09141433215035698, -0.4723956575004736, -0.5585820914623575, -0.20779120965190317, -0.464868849843376, -0.0015784556088211132, -0.3815495328598319, -0.0931253331039553, -0.04268669286498466, -0.007245496646668922, -0.06962730206232275, -0.09271994448881467, 0.032320474910925046, 0.02063803904075454, 0.022021397948265076, -0.11125308275222778, -0.08652326692745928, -0.27257427700430603, 0.03934661034811771, -0.053506188094615936, 0.13222289085388184, -0.1105375587940216, 0.04320840537548065, 0.0980103611946106, -0.10074447095394135, -0.17421780008918827], [0.28744260871726085, -0.24466633997039314, -0.09278067777837828, -0.0843511212698017, -1.1537158948773714, 0.11802160739898682, -0.008039755828098051, -0.10831026312666238, -0.0210861782179198, -0.029309368464797148, -0.08988683484649305, -0.010726606474873814, -0.10433351132616503, -0.3881696504849183, -0.14328812862464393, -0.20470663932878821, -0.4252211368094734, -0.11381875405784139, -0.19970191091416087, -0.23314886182287298, -0.14858925451737412, -0.35703865000564194, -0.03105571698669787, -0.04580129242669679, -0.14064777015170452, -0.061719264966558496, -0.04428811011941275, 0.06476412327854782, 0.02169902237026721, -0.11362713575363159, 0.10961413383483887, 0.00530078677585434, -0.32644823197923173, 0.05084204891141046, -0.07064388692378998, -0.09473805129528046, 0.15122264623641968, -0.057432740926742554, 0.10237264633178711, -0.06711092591285706, -0.03629081203534936], [-0.045373495381076864, -0.6963511191124829, -0.16229085339216237, 0.7789378561674051, -0.14113562584143774, 0.1412563920021057, -0.2314392392921287, 0.1156255213278496, 0.12275192730029122, -0.11339215294530418, 0.151082879386632, -0.017062941111833416, 0.1343956653673455, -0.07274973486785236, 0.5889581785333146, -0.263021355187872, -0.038871608235266246, 0.05232038293125451, 0.08958706042035168, 0.2547006030204491, -0.11214258282629255, 0.18150670490482376, -0.19649847665287254, 0.5308679774270529, -0.3003510308265207, -0.16210521605459652, -0.034113301305452204, 0.007754267783483992, -0.06813258525578297, 0.038123831152915955, -0.1017703115940094, 0.09272357955621661, -0.055222813813105065, 0.17228643125140206, 0.07565401494503021, -0.0250176340341568, -0.12824304401874542, -0.14984355866909027, 0.022910133004188538, 0.1368253231048584, 0.06735353114858672], [0.10689322486263195, -0.12432786578584062, 0.27942168917951865, -0.5823815144387987, -0.8316386735915625, 0.14316010475158691, -0.07672367253820431, -0.037432317312524714, 0.0013128435683658782, 0.1467603556813648, 0.1773335628681972, -0.029036410850923795, 0.05392968282122141, -0.44810950574716135, 0.14786163083663034, -0.12825924649801065, -0.015621630325663986, 0.12631977660284419, 0.05246094766630298, 0.16145689443581285, -0.22318691873686647, -0.13250294929331238, -0.03964391556494669, 0.010058392447931554, -0.19071486937090307, -0.08549673607885686, -0.18201479813396162, -0.10130025944054183, -0.11106115332186278, -0.15094630420207977, -0.06779734790325165, 0.03965268582608391, -0.36021967887244755, -0.20939153109584738, 0.1011267900466919, -0.05839606374502182, -0.11571317166090012, -0.03735966980457306, -0.1148136705160141, -0.012476444244384766, 0.18198598692876902], [0.5010650628281339, -0.15388617536196209, 0.5393837409100833, -0.32088448488657795, 0.2591677056338355, 0.04923082888126373, 0.05936529751564879, 0.12063451605773205, 0.004353986545292882, 0.0954173116943787, 0.052216189801718035, 0.11207817763092758, 0.11431393614029264, -0.2657658307036658, 0.06136215386276222, 0.057298359659047685, -0.3024501567584104, -0.21698230306070745, -0.09479079242208607, -0.21015571809559397, -0.10474433298508361, 0.044643319318063784, -0.0942663438184238, 0.3560924473941097, -0.08404629203458752, -0.06037608801455016, -0.017624082854695588, -0.014395969799466165, -0.13879367976517587, -0.1142892986536026, -0.1051306501030922, -0.027520308968704416, -0.3500862843763666, 0.16252367672919038, 0.11552444100379944, 0.07894594967365265, 0.10554730892181396, -0.10492818802595139, 0.03714391589164734, -0.03942649066448212, -0.0794533333442004], [0.49189309705630735, 0.03632564433959597, -0.11607091332173854, -0.3341411405396082, -0.5751106501508055, 0.02155512571334839, -0.02419570792142023, -0.0060737107343178404, 0.049015256153897985, 0.17881583555995625, -0.061675097039535436, 0.04035105259101051, -0.058928674613841096, 0.08209395488218454, -0.21845852784401934, 0.3631002546446512, -0.0026326840314242392, -0.23921475980428125, -0.08941257231197416, 0.054765638062600534, -0.3025103140315593, 0.114421982641115, 0.09208749714200222, 0.1738322506053523, 0.28750845075446935, 0.12223324895530364, 0.02107887685924202, -0.13987743138641953, 0.09472235263019226, -0.08667907863855362, 0.059127017855644226, 0.11392528580686029, -0.5737650195532326, 0.4022217020938038, -0.0135536789894104, -0.06530917435884476, -0.08928947150707245, -0.003849431872367859, -0.13281992077827454, -0.11313021183013916, 0.08930758390970461], [-0.08829865923016732, 0.24592853512061794, -0.26936543237291605, 0.4046478819001944, 0.9427077699527016, 0.059175118803977966, 0.0919239839768399, -0.18123186331647378, -0.11407811329173888, -0.02161664264721832, 0.0848771462740714, 0.1039116511645133, 0.07503200573401535, 0.23415690944199583, -0.38464004804531865, 0.09076515685928216, 0.1769263773612695, -0.2498131864899717, 0.2659565324719067, -0.16230260801583168, -0.1976106084095163, 0.41380878092485546, 0.2671322907027593, -0.11133956129170847, 0.13583617210529372, -0.05592062229594678, -0.04265504235705977, 0.049110003762630174, 0.1035530800155681, 0.01669083535671234, 0.06417874991893768, 0.005891778272229283, 0.1809228369112947, -0.315393172000097, 0.02840760350227356, -0.11816349625587463, -0.14671699702739716, -0.07199863344430923, 0.07299408316612244, 0.10773727297782898, -0.05634593874953866], [-0.011814291635172402, -0.39981451831365195, 0.16720342664704585, -2.677508782284331, 2.996619908720832, 0.1448894441127777, 0.033898542758162904, 0.006511187011571674, 0.04977686848426225, -0.0952585429554305, 0.09192994812533214, -0.10496881773665573, -0.06216497129252573, -0.15526505765923335, 0.0011201934753140295, -0.3114790664131268, -0.09712914759221175, 0.29820769972594985, 0.009906724321251373, -0.03215818818011879, -0.04853411658789157, -0.0377621272931015, 0.1116603596831796, -0.20231617767399498, -0.37054017281994006, 0.10821596836889812, -0.17917451703702364, -0.058705557824721546, 0.09094892000997924, -0.13698254525661469, 0.062261343002319336, 0.1277508245182826, 0.008601992893887245, 0.6765012811610218, -0.05113936960697174, 0.011231914162635803, 0.0830911248922348, 0.03552998602390289, -0.02956552803516388, 0.003618285059928894, -0.1801676699482129], [0.06290494465685462, 0.17781837279743476, -0.19565569280450026, -1.125269932860544, -0.8960255845250953, 0.15240341424942017, 0.07094156985756239, 0.10907837082714397, -0.030866760623059795, -0.13229570653927597, -0.07498621922088977, -0.11836301516844197, 0.06656893226611041, -0.3099620996555828, 0.27777597852825126, -0.06646384389482568, 0.08381947973170316, 0.09593139610243062, -0.40788217242733427, 0.08441329383666753, 0.1809859691310104, -0.2555845982222507, -0.04516709014892416, 0.12777346961206382, -0.04137494352988792, -0.021576017102397614, -0.12158820774237047, -0.00042422111908301305, 0.017218112984501044, -0.009253740310668945, 0.1308179497718811, 0.03933209207970584, -0.19713226227825548, -0.10809364810033557, 0.02315141260623932, 0.07055366039276123, -0.1375482827425003, -0.1540617197751999, -0.11141166090965271, 0.08094044029712677, -0.00669256109631215], [0.18183441547893228, -0.09343982737105586, 0.10925289753332998, 0.04982677502941572, -0.6586881436872829, 0.059402406215667725, 0.02376058977083117, 0.033467042703812656, 0.026361061433194295, 0.014580177218320809, -0.15435031012216924, -0.1006241957894972, -0.027182308881876713, -0.07492905430613649, 0.2901167938602689, -0.11704327708360682, -0.274619090840343, -0.22049349795138454, -0.19449159229134247, -0.2546393468165822, -0.06302387298940797, -0.3644056211780049, 0.05448599130279864, 0.05484265676896968, -0.05712791406305191, 0.07759113183179683, 0.09159439375558681, 0.02684537639775971, -0.1591129047616421, -0.07444441318511963, -0.03306419402360916, 0.08436795663001861, -0.2900057945113569, 0.3548196606824589, -0.09562753140926361, 0.027851447463035583, -0.04333201050758362, 0.009483814239501953, -0.0792670026421547, -0.02468109130859375, -0.010006004674603611], [-0.39183333792405367, 0.15242593937628374, 0.1308186026981902, -0.5221210844855783, 0.5778247716270399, -0.020011767745018005, -0.0372883389627124, 0.1336390991572609, 0.06702111106234136, 0.12662855715644986, 0.004745230459751741, 0.011988923334660225, 0.05092340142619918, 0.20268815669576679, 0.025794787369968434, 0.1760966470468584, 0.5155623707700606, 0.13334801448257738, 0.32020045035882977, 0.16165400856886436, 0.1557784930840463, 0.20905031149731534, -0.1365680795407672, 0.048610734939022786, 0.08266227616691191, 0.17724393506354352, -0.10533782641583338, 0.04093083937472469, 0.014707552388373903, -0.09386637806892395, -0.13600562512874603, -0.08491964465110413, 0.21779833438414772, -0.009533478942247596, -0.08174122869968414, 0.13021588325500488, 0.031163081526756287, -0.10294680297374725, 0.1189548671245575, -0.11167243868112564, 0.09140142390479351], [0.2223450590353185, 0.294826327400282, 0.12827329820761463, 1.0559114451393097, 0.5025401432750409, 0.04405143857002258, 0.09788856031032718, 0.11468812330901657, 0.028484260529915838, -0.10232295197233102, 0.022024799378527245, 0.12045763829530329, 0.037332503974592035, 0.09504609718867069, 0.254173524128129, 0.01003632236932472, -0.25321283900274355, -0.40447433515771714, -0.24967527238291787, -0.3388714127056185, -0.4769522274720584, -0.23644012368894074, -0.038107820336710445, -0.040336542987907544, 0.058733443505611896, -0.03472230102302274, 0.0931517455410801, -0.09953348602534892, 0.03358140323875713, -0.13242276012897491, 0.11451321840286255, -0.14419904642212295, -0.2855433955422194, -0.3358394492092435, 0.0675678551197052, -0.06857021152973175, 0.1474207043647766, 0.13833191990852356, 0.0337265282869339, 0.07444508373737335, 0.18077028799275477], [0.4140069161143684, 0.3045439313068114, 0.0722349091805559, 0.3898235746772348, 0.1422710909360321, 0.1506885588169098, -0.008053055696598033, 0.03427434314677835, -0.17039633886977287, 0.006544427362738793, 0.10908160554421194, -0.03009567213999777, 0.08697128423815592, -0.007084396040186068, 0.31365169460430753, 0.09513800586861981, -0.44506636919792086, -0.054350578823365255, -0.14762842149728403, -0.23135494907992651, 0.10815764461919776, -0.14865616125405964, 0.15485989872263237, -0.013306305367971784, -0.0687942755213306, -0.03588344987804603, -0.13502552446300942, -0.006760858859369554, 0.10602892104213477, -0.13944602012634277, -0.04218757897615433, 0.005648917597767711, -0.4611954833608788, -0.39461762599552885, -0.11309158802032471, 0.11358824372291565, -0.06262348592281342, -0.004375681281089783, -0.11412803083658218, -0.036483146250247955, 0.17581449713846], [-0.051668453759680114, 0.0858890076423416, 0.16823177267205605, -1.1960520907591419, -0.6167351791934514, 0.02651415765285492, -0.03985321446485449, -0.042862556147176586, 0.08803377093514574, -0.01734088966192334, 0.017769285927380495, 0.09474142778929763, -0.029479368119850073, -0.17042365935515957, 0.3458081313179967, -0.20338885708150042, -0.07607592456099829, 0.18420408375080988, -0.13404930874045268, 0.38183714243187666, -0.5856939044051699, -0.15181326455471872, 0.09907390782496261, 0.21761782573552435, -0.19668730147590438, 0.02784987934197004, -0.14176589600478284, -0.09793563537036547, -0.08939808957015642, -0.0707278698682785, 0.12642988562583923, -0.11732000444371687, -0.23925966188617664, 0.0832217434334868, -0.10913819074630737, 0.11404216289520264, -0.07049889117479324, 0.03547234833240509, 0.06444448232650757, 0.11005508899688721, 0.20875058410979433], [-0.22815387223888942, 0.048450438934367436, -0.10444541460150504, 0.8409529628325071, -0.3325442201085185, -0.002767711877822876, 0.03977976241567883, -0.039601026821718066, 0.015186972812150543, -0.05376103213760036, 0.20245599834968636, 0.1914528319125373, -0.14292356065246253, 0.2480272797213565, -0.3183062116447493, -0.07853031572993811, 0.23948650260219492, -0.27689029483224503, 0.20134768894912922, -0.14951539682919116, -0.30412540172679303, 0.3604133101410013, 0.18626581674076692, 0.000166257978405944, 0.15143507419543376, 0.1678953943368577, 0.17076523877350322, 0.07701207972732482, -0.035585773218002346, -0.1530955731868744, -0.09444922208786011, 0.024600314429827394, 0.13334473112232806, -0.10169762486719838, -0.03531806915998459, 0.006745010614395142, 0.008878752589225769, 0.09649243950843811, -0.05870389938354492, 0.12973713874816895, -0.05687598848953259], [-0.2713939899808244, 0.021750666672903003, -0.23479952783144464, -0.10542599963275945, 0.6224454266241264, -0.1095808893442154, -0.07640656278882872, 0.031887501965862715, -0.12853568293313594, -0.08674756131392009, 0.1139090197981113, -0.03957910212867744, -0.08924783460121638, 0.35491299601249177, -0.09518311422131234, -0.008679525211010366, 0.19172422615522625, -0.2793573260962522, 0.14774907360476455, 0.08561417813688094, -0.3223151577033425, 0.17989541008713114, 0.3098349555944227, -0.24083758129754965, 0.0030536400423134898, 0.060668278954304745, -0.11155296442719338, 0.14451419236449614, 0.1582192373493136, 0.13829341530799866, -0.09754910320043564, -0.06414206674168502, 0.14155389446888678, -0.18237499145381117, -0.14412686228752136, -0.006806105375289917, 0.018654167652130127, 0.08178122341632843, -0.08266100287437439, 0.06405210494995117, 0.06657856285239194], [-0.3060620676905478, -0.05982980233138721, -0.21878049469558744, 0.49784319913606906, 0.12297902077805413, 0.026737377047538757, 0.07546112170476109, -0.01447279035220778, -0.033817246771768464, 0.10824691654824845, -0.18757576270968976, -0.010975828012543393, -0.15873522160864287, -0.0803893494767092, -0.13908819181447085, 0.08836671442089392, 0.25692834230978473, 0.3893105903848774, -0.24899895193799523, 0.10582624342058894, 0.05758838945068777, -0.2982857526648849, 0.017556986898296205, -0.2528966653393622, 0.14078899187319036, 0.09824397802749389, 0.006145965460927397, -0.028836417790263007, 0.009203102592618528, -0.0659087598323822, -0.04871164262294769, -0.05557725176416297, 0.31020867950993514, -0.3037936593140022, 0.07651090621948242, -0.13031940162181854, -0.0991184338927269, 0.029111355543136597, -0.08962149173021317, 0.01728011667728424, 0.17666422389292502], [-0.5707720297112284, -0.4075564470090709, 0.1679509355277048, 0.8779674607279389, 0.7315137652624707, -0.1537434160709381, 0.14526112054797505, 0.07584806068389238, -0.15288356392984095, 0.11118045937528723, -0.0059466573973813, 0.18424524482286658, -0.1867104272891009, 0.09413821965953234, 0.18951772512530685, 0.08844797136307796, 0.10250465482646309, 0.11762704529052438, 0.18579721902343685, 0.16780093535023105, 0.21071578604986163, 0.22693545347948405, -0.06508963722674463, 0.17175152432020566, 0.06330149023688314, -0.017047985377135297, 0.05825959992187889, 0.13998261940258508, 0.12301864576119219, 0.10993415117263794, 0.06099368631839752, -0.08266951797971928, 0.32321909272836613, 0.2627687325401045, -0.068565234541893, -0.09228049963712692, -0.11382460594177246, -0.12144052237272263, -0.04846520721912384, -0.07178866863250732, 0.163071995588833], [-0.02666327873226186, 0.2173504745927031, -0.09643889214936088, 0.49747817368737823, 0.4291344114327319, 0.08289436995983124, -0.04692673739895553, -0.01019314060855567, -0.10074134543854202, 0.0028141576307969007, -0.08088408722454253, 0.08615069524472956, 0.08374470355689188, 0.33206991322145746, -0.03412612625422474, 0.11647913875562968, 0.04112550237618902, -0.11207383590712379, -0.21815446957397472, -0.39879047324579714, 0.44099125692278174, -0.13003612371310655, 0.13403908599047396, -0.40756457838064264, 0.18102813517988875, -0.019031777802663706, -0.18473660928364455, 0.08952252584342434, -0.15467081946488315, -0.00024397671222686768, 0.14327114820480347, -0.14069831325877266, -0.11429144639779663, -0.05112692296200062, 0.05761617422103882, -0.0995543971657753, -0.020444601774215698, 0.022119656205177307, 0.042395368218421936, -0.13756921887397766, 0.11599310652594051], [0.13766830152525664, -0.17167108446561227, 0.3481637528377476, 0.9237635340832514, -1.0374688416255002, -0.009117275476455688, -0.07788691446218358, 0.053027365919454124, 0.021933893143942892, -0.0813256448833427, 0.026169355933827198, -0.15478846060736692, 0.046790418890290314, 0.21845780902565579, -0.21351882193602964, 0.04867919073396063, -0.2708197704602402, 0.061921989943241385, -0.39980717999393856, -0.18528041347761073, 0.22191981402567365, -0.4959317658190345, 0.2580993046057258, 0.04262448547970565, -0.05523746910096714, -0.07397059820124097, -0.038497534613097635, -0.07326170525976619, -0.1258446248573919, 0.02412860095500946, -0.14163708686828613, -0.041912970238077094, -0.09534705211044478, 0.2553114508599722, -0.04276975989341736, -0.07410470396280289, 0.01677459478378296, 0.04545854032039642, -0.06469640135765076, 0.04136712849140167, 0.10641559446656225], [0.25092764624395036, -0.013729760143559465, 0.0009809063679105958, 0.2369009300540052, -0.8951991272909947, 0.05479837954044342, -0.08299457196300523, -0.0731408740870921, -0.1230719171976534, 0.09120994801348993, 0.04086692258150421, -0.1498842127677668, 0.1184512376291214, -0.413465689778639, 0.4026653384502982, -0.10993001506728686, -0.03704858056336965, -0.06541959454189161, -0.051623470439684405, 0.0169229239214673, 0.11447781048457271, -0.1551115349509034, -0.26595548314976697, 0.17887239992193532, -0.22158969064069362, -0.1749181920216729, -0.016759263865772683, -0.09496065466863407, -0.0195845538304484, -0.016541868448257446, 0.015229940414428711, 0.014007850076777269, -0.10078089965507503, 0.48924995237082153, -0.03356003016233444, 0.04957212507724762, -0.13465674221515656, -0.12197046726942062, -0.13884031772613525, 0.06781955063343048, 0.009788903950078141], [0.3745553024780948, 0.28050221400942243, 0.29162840163642756, 0.31464023785029427, -0.20977833720392952, -0.1371365636587143, -0.03166542185167211, -0.0727376981843184, -0.009480185243175102, -0.011566975881181657, -0.08031150869676527, -0.10546130112955297, -0.10254404859694059, -0.12082045937420532, -0.12589982675983494, 0.039509666458754665, 0.15107872839187356, -0.31491005278119527, -0.3126464707120811, 0.14682188280469416, 0.007790297839268221, -0.28546603887311234, -0.2540613632548058, 0.2619815311146033, 0.09747832612066012, -0.07633476195369439, -0.0867991024020739, -0.07299170134101586, -0.09582121906314582, 0.01646687090396881, 0.07573142647743225, 0.10553140676174946, -0.41336419199728375, 0.14731221329560312, 0.10006237030029297, -0.10947301983833313, 0.03550848364830017, -0.047028690576553345, 0.07702465355396271, 0.025520339608192444, -0.01780049373554275], [-0.004226384422948351, -0.030635841235066217, -0.10762084797888657, 0.10419309997855672, 0.8174874622592674, 0.01839078962802887, -0.06300476901007929, 0.1669796121594315, -0.10605235609671597, -0.06758705508724078, 0.018680103298913547, 0.09050940739799648, 0.0665722044108771, -0.2886320388198257, 0.05404721252978465, -0.21934681321880192, 0.5398445407805538, -0.16782403612504712, 0.2745531514893274, 0.4561371308035228, -0.17498759239672826, 0.32409301104916677, -0.3231080856234094, 0.43863435837682185, -0.02205744512237374, 0.06778570063777112, -0.09590778700642458, -0.01633844725422655, 0.03196901627249852, -0.08238367736339569, 0.03764776885509491, -0.057875829065954995, 0.11923807699360035, -0.025067170227546235, 0.0021631568670272827, 0.002911880612373352, -0.0746278315782547, -0.1252925544977188, 0.05651707947254181, 0.02475757896900177, 0.024057956110398463], [0.03726964074761592, -0.13179742982821666, 0.08325264484044596, 0.863569846724197, 0.10651137822643689, -0.1338742971420288, 0.03664092225931304, -0.02494463790144745, -0.03500647496966639, 0.07280080600168855, 0.14633454848067765, -0.03754564654095032, 0.06677578969385843, -0.2579462549364735, 0.28727437432938974, 0.005667828467643871, 0.030634773478574136, -0.5174025053245596, 0.047393178495371016, -0.4895397193822263, 0.04479051879713518, -0.19024726319548116, -0.299030073909449, 0.5853202991011471, 0.26164293056596394, 0.0606357641031673, -0.1217496656367856, -0.1301324107239358, -0.20095254113174407, 0.030582070350646973, 0.032814741134643555, -0.19934118873609286, 0.07068060660672697, -0.14000727849773503, 0.016752317547798157, 0.059427112340927124, 0.007280945777893066, -0.06744657456874847, 0.09529545903205872, 0.08509363234043121, 0.1286019548884416], [0.18697440369698207, -0.11918208120901493, 0.1102609187308749, -0.4260736089067473, 0.7525144796401808, 0.0652325302362442, 0.06385034682501202, 0.05780603346917931, -0.0035853690892978093, 0.10910079117538682, -0.11618140215776396, -0.18182816977403662, 0.07288693125965176, -0.23571401740843914, 0.16026425862727914, 0.19413864104178558, 0.03645896450540109, 0.08695555042339946, -0.39352496591465885, -0.07918445833123577, 0.34265113656923896, -0.42755308307861317, -0.029052869189204668, -0.1320267196147743, 0.155945689562922, 0.10325191563462421, 0.06005985683297331, -0.1556650584330629, 0.12929878777360226, 0.10626041889190674, -0.08205338567495346, 0.11044098051590737, -0.19638331829440298, -0.11491036016005512, 0.13927358388900757, -0.12180367112159729, -0.02604237198829651, -0.14058369398117065, -0.07807672023773193, -0.009626626968383789, -0.018404726780690155], [0.5436019414461489, 0.06536826717608961, 0.3810850412726376, 0.3441472267650098, 0.24785298884216606, 0.02149738371372223, 0.0053954287112857905, -0.004595285584095614, 0.12884345258122673, -0.056952833227093484, 0.00021846289135552926, -0.003830830805524618, -0.14916927277225214, -0.07662874282897181, -0.14499635064970265, -0.19027609036025134, -0.2361441187467776, -0.14015602389017434, 0.07367144450105763, -0.293554818917874, 0.16291375280307774, -0.17928395660983718, -0.10976353995572427, -0.24256611100301848, -0.238307145599479, -0.07841830811556835, -0.10452313087042847, 0.11420049407425836, 0.09448065497818908, -0.09641651809215546, -0.07193648815155029, -0.03899809062620097, -0.5810151662623669, 0.027851647723139958, -0.04896584153175354, 0.07904207706451416, 0.07287177443504333, 0.011054858565330505, 0.011993661522865295, -0.04452584683895111, -0.13103333071785844], [-0.11129727804028698, -0.22446593581876484, -0.017237585167988713, 0.40180720900923805, 1.0185809303350135, 0.053770169615745544, -0.015832415951363935, -0.05707650917470111, -0.19010491209754393, -0.0977044105489889, -0.1934085128534479, 0.011886617757016034, 0.019835755232984937, -0.13029734085858627, 0.3544634444917704, -0.13294210294878037, 0.0682985510266978, 0.5648188196591011, -0.37289242164714376, 0.2583435330662687, 0.2761134928407586, -0.36613894939855235, 0.20265473741975695, 0.19542184639220658, -0.1974433446694068, 0.06891878134394205, -0.1779862772784185, -0.1458906959853116, -0.04577912205075749, -0.12336172163486481, -0.08608710020780563, -0.020461885339591902, 0.1882303491000388, 0.46836596623707877, 0.1021723747253418, -0.019622772932052612, 0.07805047929286957, 0.029120728373527527, 0.13538837432861328, 0.15261414647102356, 0.15035092380840068], [-0.19336996178568497, -0.3050857292996893, 0.5807213802486061, 0.6664759059886572, -0.32559886165933455, 0.012603700160980225, 0.08577369030411564, 0.12373826286029233, 0.10976624514558939, -0.02140509842864919, 0.04412397791344833, 0.1521673728962621, 0.00410092116363637, -0.13298637696278606, 0.009695250215134574, -0.2818202791599379, 0.12361337810210055, -0.15578539606089503, 0.3183979440265108, -0.09497565771646967, -0.20419890701217647, 0.30434061558696385, 0.011783884255047486, 0.08984599672498982, -0.15506644933224498, 0.014988809954552358, -0.04833248244580805, -0.13783727573213256, 0.1290268303269439, -0.09107065200805664, -0.028495490550994873, -0.11006790375154335, -0.2912915299823336, -0.18101006679336776, -0.005532428622245789, -0.09398074448108673, -0.08485433459281921, 0.051928386092185974, 0.14903688430786133, -0.15131732821464539, -0.17535336878907953], [0.2444960421193584, -0.7051292790865661, -0.5408459874189376, 0.6051775523299229, 0.33270234209904015, 0.08648143708705902, 0.1324347115585174, -0.0913104824713669, 0.020154870610067925, 0.004845263433256316, 0.08366823332555509, 0.2111861570382839, 0.19450577534417032, -0.1518937180281628, 0.10425805453928112, 0.0035781259060043923, 0.18682016970903256, 0.07142746046540219, 0.45933241176059697, 0.01609184116396543, -0.008132864920156942, 0.4479612120256625, -0.27754903598043196, 0.12918397915008045, -0.08819552210698083, -0.006140738903867354, -0.01788152772127287, -0.13228082674680905, 0.09951849263967588, -0.11338089406490326, 0.03953765332698822, 0.1569954447137698, -0.09338648130759009, 0.6880748146707075, 0.11667501926422119, -0.1280788779258728, 0.08351883292198181, -0.13293743133544922, -0.00044405460357666016, 0.1385190486907959, 0.08456201456901011], [-0.278060454550159, -0.2469575671837516, 0.12072683357021848, 0.13995332591763246, -0.4159715392889334, -0.04669089615345001, 0.062331414543359775, -0.030805707669953938, 0.03464799784712667, -0.05006727493467323, 0.15134946000511515, -0.1324045758253836, -0.09744205988111576, -0.24966654105742447, -0.23942317956621142, 0.12065303227444871, 0.604274130099593, 0.541819799718031, -0.07235666180262754, 0.6189098435665757, -0.046217816207688334, 0.1167253004522538, -0.16520371897437638, 0.09358216470643202, 0.12259272902381853, 0.06387263882374623, 0.029077592971085076, 0.12060378837799819, -0.12960479807639003, 0.024611696600914, -0.061244890093803406, -0.059108470010485914, 0.08600988313423326, -0.09648655014263492, -0.03697555512189865, 0.07927919924259186, -0.0019128024578094482, -0.053945913910865784, 0.07042534649372101, -0.10968834906816483, -0.13409425420640494], [-0.33697382190734776, -0.33568911178965066, -0.08036789497697562, -0.34271951882519036, 0.12154523456294584, 0.05950628221035004, 0.058453079097804304, -0.10238519817788236, -0.07866526019583045, 0.09248915214394664, -0.0135203674414592, -0.029139898715300934, -0.11544512312556197, 0.11511433925373012, -0.18090877115445517, -0.10766160105225736, 0.4607181477571013, 0.1618767588511231, 0.11194694988597716, 0.3597123742901509, 0.11475501236712082, 0.33306273777186307, 0.08252511089057338, 0.08151395084669578, 0.09064666815581404, -0.06402795025973182, -0.06151669481663582, 0.004777654913379997, 0.16542817643017926, 0.07222098112106323, 0.08913567662239075, 0.13394872799193192, 0.32802727796727194, 0.002232828845862836, -0.009476467967033386, -0.046885281801223755, -0.07231900095939636, 0.01810440421104431, -0.07412246614694595, -0.05062778294086456, 0.11349484524844382], [-0.11441454493978348, 0.44079807840573343, 0.09478435145215515, -1.8619065648798132, -1.4716185174300935, 0.15183588862419128, -0.027043885919069657, 0.017042580316482158, 0.05331723857040166, 0.018059886528875004, 0.08484944464052352, -0.0774132782093224, 0.16246970696630755, 0.3355355408837875, -0.06547330329407662, 0.32770397732117224, 0.23004034953265642, -0.7515400323647162, -0.017626455638800366, -0.2513716576075278, -0.40368208175946163, 0.08640514968738212, -0.05159741942768303, 0.14533839536197274, 0.43443137163289725, 0.12075798639588513, 0.11125433871083414, -0.03366338780588548, 0.17316064664654737, 0.10279437899589539, 0.04641236364841461, -0.06361993734645177, -0.2478176257556736, -0.14653810500102224, 0.09920424222946167, 0.050482213497161865, -0.03608247637748718, 0.12384283542633057, 0.13307467103004456, -0.02291025221347809, -0.1310930745075816], [-0.1871657096837757, 0.08512367698588252, 0.28146066705254885, 0.6268210188059177, 3.770541425894627, 0.15241241455078125, 0.020567555429594233, 0.014615363887145467, 0.11135801536524906, -0.0706374183674428, -0.15406901758345548, -0.11778384816083358, -0.19159015122848858, -0.31311786207229386, -0.09811601510433393, -0.015918890331300273, 0.32647561696723065, 0.26491177196423765, -0.329501493428042, 0.31658419882430267, 0.30908749407875025, -0.31375848109535237, -0.28881567830194776, 0.21761718598138893, -0.0630846015209196, 0.07517676256846216, 0.08833976291369254, -0.14121567256499665, 0.08645077251147097, 0.1297827959060669, -0.060747772455215454, 0.010062458372013776, 0.027105104659376017, -0.3397985251295702, 0.08257928490638733, 0.01574893295764923, -0.11972817778587341, 0.1039455235004425, 0.0743054747581482, -0.13304020464420319, -0.004472835029289096], [0.3606443903295531, -0.0890312337813976, -0.11584139778256572, 0.10151654937014475, 0.006681369651561936, 0.0026836246252059937, -0.029506860740114008, 0.1802600650355292, -0.20609912837234132, 0.09539318208367199, 0.2253651402707171, -0.006816609967221766, 0.1398034257140781, -0.007968043495014622, 0.09180457797190963, -0.10930482487231001, -0.5254584036053408, 0.0014423627032225615, -0.03771508229404041, -0.41025762090705814, -0.09603958564606505, 0.1610137549281032, 0.013850511997440536, -0.23213791892750452, 0.058714638477648885, -0.11826161510427233, -0.056826623446538306, -0.1589675343700141, -0.15161306626279059, 0.11702045798301697, -0.06815710663795471, -0.03368971703831965, -0.4294546751539859, 0.40029567802345867, 0.049114540219306946, -0.03339526802301407, -0.034555837512016296, 0.1314866542816162, -0.09689289331436157, -0.128952294588089, 0.13957689056634498], [0.17531525992735708, -0.09379383960227422, -0.406688513478815, -1.1170419502647266, 0.46076842553853375, -0.09449175745248795, -0.04887076891829466, 0.0053389682676345035, 0.08888178477111863, -0.04402568236409491, -0.03340575670397113, 0.09046214247548762, 0.07699682518423785, -0.25340314751326903, 0.01979776630891436, -0.2991942230731415, -0.33207022671610326, -0.4253369243834648, 0.2369502954604105, -0.11824900103269326, 0.1806729468569179, 0.17466549655955352, -0.31422025662344405, -0.29924556433304356, -0.3497067781642791, -0.03657776603818691, -0.023890500165230904, 0.03721405079244823, 0.09663307180284836, 0.10545054078102112, 0.054584622383117676, 0.06593545815793456, -0.17077125643296817, -0.36274801372574894, -0.0019491016864776611, 0.11114922165870667, 0.12841513752937317, -0.039811909198760986, 0.06118118762969971, 0.015243083238601685, 0.0041465814287445545], [-0.08036124105092214, -0.08346151273670029, -0.34629743720012107, 0.260356274805146, -0.09065505692818795, -0.009763255715370178, 0.07257797153517458, -0.07845449357129516, -0.07283520135521297, -0.047435148607812345, 0.10136330791605355, 0.20318428345812442, -0.11854798252495224, 0.09420815822337572, 0.03815095642862456, 0.09900096238650384, 0.34685193998041475, 0.20842040932580588, 0.4011767926803366, 0.1888043877796362, -0.0800374848430425, 0.32903176408971563, -0.095971359270082, -0.0038923470292192793, -0.019289219303994985, -0.04687316523067357, -0.08524241850845203, 0.0071287546945408755, -0.04270724759570904, -0.0187503844499588, 0.11522847414016724, -0.14188518195945213, 0.1888767159379917, 0.10117162057617463, 0.0425727516412735, 0.09882363677024841, 0.04059860110282898, -0.05827793478965759, 0.02336876094341278, -0.11107580363750458, -0.10190887377647216], [0.48763851593527063, 0.27228395191901894, 0.30488660770623816, 0.2500417844577698, -0.351129466047467, -0.07463209331035614, 0.12749131497709182, 0.06366868597199503, -0.013057196192345152, -0.02290343062628293, 0.04639504062069516, -0.020779073666204437, -0.08564030693520124, -0.12015718881066086, -0.012129049710855913, -0.2643985101674567, 0.2211082986090244, -0.15837465597385866, 0.14939721629196398, -0.019939060601297756, 0.1579548674272665, 0.2550278452348989, -0.05825750335299475, -0.36693945479782647, -0.2585022086737999, 0.06597139515555867, 0.11367065288699549, -0.09150988779388972, 0.03883563556350232, -0.15050360560417175, 0.05896550416946411, 0.08679634878963799, -0.5987785196499088, -0.0401281279287629, 0.06153257191181183, 0.05343553423881531, -0.08109008520841599, 0.12453854084014893, 0.08568327128887177, -0.10128333419561386, -0.08441748429756821], [0.1276662273412951, 0.2416496189484265, -0.03668204127133546, -0.5667055200230096, -0.3362819388382096, 0.10507988929748535, -0.03310150876687828, -0.03197307437760461, -0.019734800975510808, 0.0020247457956173815, 0.2234302624504659, 0.1929104193489645, 0.00417976662863263, -0.046464381330036726, 0.17216947789555495, 0.12849295203955213, 0.17772878594450497, 0.21488166729322758, 0.415160127011816, 0.24206694603615825, -0.39086210216286615, 0.18805805862566283, -0.07062396928004758, 0.45482761215379525, 0.05656849318034278, 0.023729554994278777, -0.01318606765729796, 0.08118794081943591, 0.021149001701050676, -0.11251109838485718, 0.10724827647209167, -0.006922164144869134, -0.03005971830227837, 0.10643094642403043, -0.11363787949085236, 0.07746230065822601, 0.09214852750301361, 0.008809685707092285, -0.05290008336305618, -0.09206347912549973, 0.09863103509537387], [0.06865252265513042, -0.19719706882950314, -0.43115255381068573, 0.26169471372561803, 1.547808207942095, -0.14448656141757965, -0.04209042732840648, -0.03356168918912641, -0.024285505082101585, 0.10648016875530768, 0.17791630883118723, 0.10667118985554504, 0.057110118325008306, -0.0022243344899595826, -0.0506501569475711, 0.023313692292501714, 0.22323121593808656, 0.028243754601094878, 0.3095796407923297, 0.07298846455983135, -0.12787930870112765, 0.4742769516973149, -0.12422557806307195, 0.030644118245656757, 0.02379758008201182, -0.03777654046428229, -0.14951524460923749, -0.011047783738493381, -0.152804243809105, 0.1377316117286682, 0.07471278309822083, 0.016832065104772986, -0.2088762322937072, 0.28284200850596597, -0.020595639944076538, -0.0960862785577774, -0.02610647678375244, 0.14337843656539917, -0.09907597303390503, 0.04864092171192169, -0.1469166595786804], [0.23146947277951693, -0.216373272780341, -0.7400263032124774, -1.0827559739724817, 2.1493771674157096, 0.07607361674308777, -0.016061624989841324, 0.11788805460758059, -0.12176660920552411, 0.12160283061783403, 0.08392246314186373, -0.10637095323901848, 0.031852473645616455, 0.13104536966349642, 0.6124048130187768, 0.056783780263218606, 0.284244991438438, -0.4230209659541254, 0.264405023021061, -0.16176503730766106, 0.21544993102417198, 0.0672167857349956, -0.34082253756342745, 0.09731141794217854, 0.15100061846401935, 0.12747525224790332, -0.07608466794386222, -0.032975131772902726, -0.08407728572979282, 0.10459989309310913, -0.10580471158027649, -0.1294695460930529, 0.002635536632261346, -0.02177902266096056, -0.0040986984968185425, -0.05169069766998291, 0.03651975095272064, -0.0281369686126709, -0.11320982873439789, -0.14050626754760742, 0.027838062215532033], [-0.45100408586592555, -0.3751248961649374, 0.28445409922737686, -1.4150607537191726, -0.5109195684895257, 0.15338945388793945, -0.04576639606329539, -0.027850994995967316, -0.09052572380337799, 0.0006303126732343232, -0.031972777258805644, -0.07722071946804882, -0.10683859039149213, -0.19706754047815847, -0.07203700369712039, -0.2221230702187467, -0.13117199065870627, 0.7942622408871781, -0.030342045144269983, 0.15349417472571852, 0.002251040540316383, -0.20551995836643636, 0.16199473660336103, -0.1707399122358442, -0.21478979747801594, -0.12084006588946448, -0.06266657333861164, 0.1346924223374283, -0.11183000426779864, -0.12510855495929718, 0.1286049485206604, 0.011971287075607056, 0.4346089642679611, 0.15402314788669336, -0.003511592745780945, -0.11360251903533936, 0.1477857232093811, 0.029728472232818604, 0.0679011195898056, -0.07702212035655975, 0.09439590970852024], [0.18695292719325615, 0.23558049524024058, -0.07143109982303869, 0.39542039730843315, -0.071936165715023, 0.026202455163002014, -0.10601646589261897, -0.029189769466042303, 0.07398184240355395, -0.19648148462928564, 0.1159740962519879, 0.027224158538839808, -0.33230202243484214, 0.08143186622187334, 0.19994811127487927, 0.08034116277318266, -0.311454172493379, -0.4543968438947876, 0.2684949124286536, -0.4836220669518327, -0.24497410259016406, 0.262799613650687, -0.042674055508999144, 0.09620796178443268, -0.022525317700419052, 0.13475455192462896, 0.04402690974609244, -0.12199063750370102, 0.1541588738335791, 0.09758532047271729, -0.06891904026269913, 0.03554725549673005, -0.23471030771914558, -0.26000089325826287, 0.055566951632499695, 0.07735244929790497, 0.12346574664115906, 0.09244222939014435, 0.12896350026130676, -0.1519201099872589, 0.015888051545490577], [0.3464643560165666, 0.12920513155588192, -0.578926751740712, -2.158975092692099, -2.8546594826192266, -0.014298960566520691, 0.09831161902378929, 0.224574875237489, -0.0036052805357818215, -0.05210368414071875, -0.13574963964942793, 0.0019439145135522976, -0.019290820552385922, -0.2227929776070623, -0.40255380988830614, -0.1472977767800594, 0.21994244770564006, 0.5040626492883176, 0.10460590866100411, -0.012040541160592175, 0.024373172600588845, -0.05106669228161957, -0.003542452579369114, 0.2665039778293153, -0.05967367978052439, 0.1624447192196055, -0.1133856390472236, -0.011146961605150335, -0.06277196005542662, -0.049294888973236084, -0.1536739617586136, -0.0821862209476238, -0.23511234337401654, 0.13950759986061803, 0.10730940103530884, -0.10412844270467758, -0.015557289123535156, -0.10854718089103699, 0.10132816433906555, 0.13572531938552856, 0.02208306369796674], [0.14210148142708, -0.313015987259322, -0.13035579092885063, -0.613817467247334, -0.3929173553387175, -0.04417841136455536, -0.0686646362191947, 0.13020036726398485, 0.14731879174673712, -0.08198076889597508, -0.1349485804987305, -0.11530572080138844, 0.07386093928731136, -0.1506689271225385, 0.11575405073833313, 0.03792689789330888, 0.028029864253934524, -0.053939204052779535, -0.27314127252211784, 0.05984475322556216, -0.006623058459583422, -0.3266706225844268, -0.20113060167423913, 0.20733408890391097, 0.17256370551279243, -0.07617013651924706, -0.07268656540709115, -0.04578655708628265, -0.14996815223293672, -0.11354920268058777, 0.029837384819984436, 0.05082197023845828, -0.09862023258606811, 0.48587462420964384, 0.08864594995975494, 0.14841800928115845, 0.1281569004058838, 0.019789785146713257, -0.1473134160041809, -0.08767175674438477, -0.11930276766780264], [0.07631908726699069, 0.31628225374409985, 0.28206963716052863, -0.3307944898278695, -1.6254606699186098, 0.03998406231403351, 0.030555448521305935, -0.07549197462042014, -0.1838135297532673, -0.01465384514883003, -0.050362185886914816, 0.052589698382799636, 0.03556890932962502, 0.2705439347455643, -0.16954450353297565, -0.06451160171985668, -0.2825161216742478, -0.2145781094867074, -0.047631543817743364, -0.06816332439732749, -0.40045697448115253, -0.22528597634479638, 0.46247858847337897, -0.41321559613394704, 0.06407575517131169, -0.10393501290187675, -0.09401389428481878, 0.05027756622924782, -0.11849431165561518, -0.06823331117630005, -0.12272164225578308, -0.0723121932079816, -0.029872252700118725, -0.5141680470069802, 0.003493770956993103, 0.02134987711906433, 0.05606347322463989, 0.10426780581474304, 0.09136828780174255, 0.1518818736076355, 0.22760281251435996], [-0.14962957207872293, -0.06947542407750575, 0.009332314259435048, 0.7969980863472522, -2.944641127825166, -0.1527482271194458, -0.03846571689790823, -0.18714086075633649, 0.1335799471245795, -0.06562167480568219, -0.09612153286715153, 0.06950645332555144, 0.05391414389033895, -0.30584576082146453, 0.12815029618384213, -0.2084686577129581, 0.4170887469549249, 0.048228772057125564, -0.10775008367008333, 0.20952987077923887, 0.41169681268981134, 0.19739664751099437, -0.31715038563451925, 0.2323604681708629, -0.2031271690101277, 0.16043020127055688, 0.05365353164909072, -0.13028640212776602, 0.15515033242938522, -0.07668730616569519, -0.1387268751859665, -0.09425091665659864, 0.2697851202105784, 0.29884601053574356, 0.0379524827003479, -0.021646887063980103, 0.09578660130500793, 0.044330403208732605, 0.029010921716690063, -0.10640808194875717, -0.06399085798921221], [-0.3419717496042894, -0.20697407116057065, -0.17711230921624974, 0.7913202764449329, 0.639193872661284, -0.11018617451190948, 0.07673446069505994, 0.11888076975624874, -0.13620871337829904, 0.03613113390148026, -0.03627911845334069, 0.024486952627821117, -0.026593098772164786, 0.1150683047066977, -0.4080346493946363, 0.2949262803994947, -0.18254988163783784, 0.3357843758872777, -0.15324337260653018, 0.052107763043876265, 0.05514116775630797, -0.06684653120011184, 0.18699588714566998, -0.232603341943924, 0.3556792661377657, -0.04505594790439451, 0.10714031785269082, 0.006596312220288687, 0.05514189630289245, -0.09790103137493134, 0.0926191508769989, -0.024414434720956873, 0.38295245035706366, 0.15891861317958056, -0.07047679275274277, -0.08526933193206787, 0.07408882677555084, -0.1439148485660553, -0.0005798637866973877, -0.08747496455907822, 0.09352033735790555], [-0.22342382104842046, 0.4355714473773907, -0.3751117799999195, -0.1590257179810248, 0.284003355941031, 0.09510651230812073, 0.08342789658449803, -0.11994545566872272, -0.1346731920124268, 0.04895738090586139, 0.08408005136584454, -0.08348892283106626, -0.047517080351597484, -0.005768000609473419, -0.21801721408192037, 0.2712844687937576, -0.11977657222617287, -0.24368152050517813, 0.05746390295979249, 0.111468188880256, -0.46219338667888943, 0.216582305801108, -0.021745667083313762, -0.056218464076878596, 0.09415153803858703, 0.15119332849852102, 0.03351796448103348, 0.1688216108070995, -0.04989574074872762, 0.033655330538749695, -0.1388615369796753, -0.10055954758039017, 0.14847772535513162, -0.37946028994366476, 0.08857081830501556, 0.035112157464027405, 0.14481660723686218, 0.09915784001350403, -0.135170117020607, 0.04652559757232666, 0.11560144819606583], [0.5500358802233836, 0.2464279227062086, -0.01689648692960628, -0.144355968899047, -0.2813459883581059, 0.00940924882888794, 0.04672973958923131, -0.21026473458883088, -0.14603469011600334, -0.04968303781856482, -0.02540490120675147, 0.14957682698939243, 0.07091893660913669, 0.0982416420876053, 0.0015315693066520343, -0.06948726899941882, -0.3743767049058922, -0.29709213851619315, -0.007186567708401138, -0.27054635588886916, -0.020700872064877956, -0.056519275252888995, -0.06482070912751907, -0.06051659008314234, -0.16972668104253325, -0.062251298460867535, -0.10052259150495821, 0.13743014749536162, -0.09587477031698502, -0.000215873122215271, 0.10182687640190125, -0.016199260193585235, -0.4762515385960866, -0.3417063445354162, -0.09555086493492126, 0.022522464394569397, 0.13807961344718933, 0.09613388776779175, -0.10525231063365936, 0.05498160421848297, -0.09675592280600694], [-0.021667188867712257, -0.4995387871320641, 0.5616083246744997, 2.0531766479046705, -1.7793563056723398, -0.12435831129550934, 0.17718297583467088, -0.02313546946266225, 0.09489791243323394, -0.1329070475380158, -0.09888978516061402, -0.022576356579853702, -0.04951216992542519, 0.0064839764682820475, -0.07218403599114587, -0.3048085722577606, -0.03498330369253748, 0.3267302714627784, -0.08818948456082655, 0.01048591771891099, 0.034193600485564773, -0.2088848381130309, 0.21826066310715347, 0.018559615059411998, -0.02866471101101752, -0.018502014463071727, 0.14252440374600753, -0.08783941227686942, -0.040859992389802514, 0.10819771885871887, 0.13147953152656555, -0.05850752765151115, 0.17894023467346057, 0.6264117113660952, -0.0851699486374855, 0.09650999307632446, 0.07206527888774872, 0.018911167979240417, -0.0577915757894516, 0.11902660131454468, -0.038455860387763455], [0.023965190610824888, 0.38558601112088026, 0.5865184375861576, 0.7029661288759597, -1.698579156218663, -0.09819192439317703, -0.06525063862096546, 0.17240874866785746, 0.10400117545054602, -0.013927169664207897, -0.05434338355382711, 0.08540510034242876, 0.0023396382495720377, -0.12750908112769266, 0.3913060164757206, -0.4021031880778301, 0.07792891504194288, -0.5521440158521388, -0.21830657831302167, -0.12484977265450482, 0.01613362339478218, -0.06703998892306258, 0.19141758796870245, 0.046028210960821284, -0.2011849860211906, -0.10831150799433188, -0.10459088920990424, -0.09403000413814978, -0.010469544822372563, 0.10714894533157349, 0.10422807931900024, 0.08597835514418886, -0.16101938030519553, -0.06773059488503742, 0.10097897052764893, -0.1205136775970459, 0.001462891697883606, 0.0037819743156433105, -0.13795174658298492, 0.00830550491809845, -0.024576753612694492], [-0.1288552192907558, 0.24950692974529076, 0.09347889725228888, -0.41534374370628746, 1.2576824017544848, -0.07560612261295319, 0.0385013006647693, 0.08538186423766582, 0.025676397985755814, 0.09383138469809157, -0.039321745968397444, 0.14544041153139067, -0.12390101500398332, 0.40825050114067163, -0.065494566215849, -0.061737107615922916, 0.2857438403834107, 0.08609052937686681, 0.2208994557713695, -0.13119228359261073, -0.07134768445859414, 0.3108947271844829, 0.11661966180080975, -0.0597937178742475, 0.1809139277085687, 0.14120098160875988, -0.1229421873174774, -0.021393888124095782, -0.11164642167912596, 0.07778370380401611, 0.14061465859413147, -0.073640712284892, 0.27310703526978686, -0.39922440284132477, 0.07087761163711548, 0.027223244309425354, 0.07360199093818665, -0.12447613477706909, -0.03333325684070587, -0.025841668248176575, 0.07784360490101841], [-0.05682432016172348, -0.040392299619566634, -0.2884791221737579, 1.6887242103726312, 1.6136330842755477, -0.07420775294303894, 0.02406793978430252, 0.08850442364260731, -0.24027673316695924, 0.09378821451348211, 0.014309185691513397, 0.06674273604933077, 0.016702808925333032, 0.24820934382402757, -0.3765823266242703, 0.2632010889430635, 0.46772574219076496, -0.19535409103759507, 0.18070271629923038, 0.04963231144728835, 0.08863500208337818, 0.082407615465419, -0.1525309819097484, -0.6252638684229204, 0.07831308771697681, 0.10911765829634458, 0.11501813069891774, -0.037956668576480335, -0.0504324348180311, -0.08109567314386368, -0.10054688900709152, -0.022597952586218058, 0.009966410141283792, 0.13632114819301017, -0.07720635831356049, -0.030662432312965393, 0.0380636602640152, -0.08707169443368912, -0.07856665551662445, -0.13791128993034363, 0.19186809995973161], [-0.04829036962567987, 0.12074781504359282, -0.0907485258266771, -0.2822089518589911, 0.6940391322773063, -0.09945069998502731, -0.09550128065941249, -0.1303783217679445, 0.0425700369187521, -0.17120993467351503, 0.15386960981029751, 0.07842786190647008, -0.0006938758709085739, 0.3832677446571521, 0.04773660373244616, -0.02151769638240483, 0.10444955078598761, -0.2522436074584832, 0.0892948688250578, -0.09686444779297224, -0.0006878834506585973, 0.1078195161587484, 0.25881825953283916, -0.01851425538177965, 0.1586031801560278, 0.10846115898396014, -0.09160145867560865, 0.16985023271347827, 0.16082632791306323, -0.007181480526924133, -0.027793869376182556, -0.09175710155343336, 0.2435993082483364, -0.08422723639140454, 0.11433100700378418, 0.025572389364242554, -0.046324074268341064, -0.1242688000202179, -0.016932561993598938, 0.15151184797286987, -0.14705439858100042], [-0.06757676041449906, 0.4761654738689793, -0.41389311842751236, -0.027484254519726907, -0.34334738611988547, -0.1221274882555008, 0.15851956891667793, -0.19690996000560435, -0.04322342981484505, -0.15745099722377356, 0.24607442170297775, -0.011569128931411217, -0.22919120728007839, 0.19532433947638964, -0.1388105727507879, -0.1108100902867378, 0.0522794692852943, -0.45275546628264396, 0.2824683770004656, 0.00025579104787694016, -0.3795036713981217, 0.06025954744484202, 0.08667196863644967, 0.2353926749160397, 0.04447718133404615, 0.05699919851411744, 0.02116268815387746, 0.16236215026964748, 0.21744357736696626, -0.0362025648355484, 0.06775064766407013, 0.005147530055943504, -0.24480262404186975, -0.6470004925716882, -0.12160640209913254, -0.15499860048294067, 0.006146863102912903, 0.1504913866519928, -0.14189806580543518, 0.03840738534927368, 0.09180006775210209], [-0.38120385376231597, 0.06649051352067054, -0.4639772504255099, 0.4096146378675826, -0.10453492128267887, -0.13390414416790009, -0.06768074633923479, 0.13647115230093518, -0.029478633924431005, -0.1151799608704905, -0.048096230177817584, 0.1495493744326272, -0.07576514526580432, 0.1577063446267122, -0.4776007958358441, -0.0645198265974594, 0.10321340139598534, -0.07031480335993377, 0.102165919656109, 0.06233805405753964, -0.30663358534404184, 0.2897225548391181, 0.020647266259282912, -0.24543386108843257, 0.017465969682562477, 0.017114126878314477, 0.14245852251582675, 0.05166163464122361, 0.00014603306584881208, -0.05961983650922775, -0.06087944656610489, -0.07986377815796623, 0.1427232615986941, -0.05290438013375274, -0.1024138331413269, 0.12349483370780945, 0.12573406100273132, 0.024235650897026062, -0.008675247430801392, 0.05581526458263397, -0.13484168694513946], [0.081222134530154, -0.1121053043186273, -0.017440772050543854, -0.019898052181744664, 0.24268583553447898, 0.08322292566299438, 0.05283032796907297, -0.007438795698068889, -0.07192524219061779, 0.10615064346082564, -0.1226447723844261, -0.12906568274285432, 0.10170401775129412, 0.0744275257339249, -0.03266842841558433, 0.21368127482200952, -0.10902647341780032, -0.253404125459395, -0.1941205256780672, -0.3156904202692696, 0.020188740828113613, -0.32497841620433987, -0.0006126367536412845, 0.041262728781970855, 0.1329863635119614, 0.06233363876912942, -0.0799308018865791, 0.080985124212245, -0.04604800512220664, 0.08993266522884369, -0.12480755150318146, 0.055864434268493315, -0.09865970694734609, -0.10515264692182796, -0.050057120621204376, -0.05303310602903366, -0.03629226237535477, -0.084751658141613, 0.03530469536781311, 0.07890824973583221, -0.01614813129851173], [-0.28862203824533605, 0.017801965539134195, -0.28550796009477897, -1.050141255769973, -0.7193921015767714, 0.05925929546356201, -0.16182549222828224, 0.03433951966558163, -0.19179784858796678, 0.009028426340937283, 0.1713319346012259, 0.15617649999276637, -0.13472693509686048, -0.19899340356192605, 0.24715677111427017, 0.0246043791481178, 0.019074848301743393, 0.38078446415686473, 0.2863466706272112, 0.1363644920710287, -0.05874786910021606, 0.1902300329412397, -0.1090771658940516, 0.22152842054478156, 0.10786466656208882, 0.021678187755607203, -0.11393328675839959, -0.04954711267564363, 0.023212485817931804, -0.11785085499286652, 0.14168217778205872, -0.10939989094496902, -0.12039561988675673, -0.28656132619507557, 0.02032366394996643, -0.043762922286987305, -0.048358380794525146, 0.1369578242301941, 0.13704976439476013, 0.09836485981941223, 0.1789893366673136], [-0.09524502005827898, 0.5009836734145755, -0.5186548017288114, -0.9179306893258184, -0.5663585175650824, -0.012021049857139587, -0.10018375950952796, 0.047005929616448505, 0.028007348774433, -0.1663955842967669, 0.026976310453953867, 0.09187271519714837, -0.10185461695152878, 0.128542653509204, -0.4604433284916766, -0.045555698802572396, 0.16796441742803145, -0.08468372429891816, 0.31219935545301275, -0.06373858373753781, -0.3066494281454469, 0.11045591059061717, 0.2900454658203279, 0.052462836509153524, -0.2005066555665117, 0.09731913508396742, -0.0593637436487128, -0.03247630445737268, 0.1250968963048994, 0.029280826449394226, -0.033229850232601166, -0.03041815676871905, -0.10108496350544423, -0.05237500174185947, -0.08909877389669418, 0.09858518838882446, -0.1368514746427536, -0.0019927024841308594, -0.13000153005123138, 0.03790602087974548, 0.30781153709859216], [-0.22077113487894562, -0.011789415034363837, 0.5072519988286321, 0.5251393742150859, 1.007149307247881, -0.153791606426239, 0.0009131413914285316, 0.12901092515111803, 0.09847278902898228, 0.05572678746435124, 0.14722526310270498, 0.15147383747881124, -0.12132612763193151, 0.08383444096085335, 0.025387004427428514, -0.01563321438583923, 0.15658989281444194, -0.16518152839514746, 0.18394376101687465, 0.27278118576551574, -0.26561330798304833, 0.3672206700610333, 0.18356396221700355, 0.24890500621946715, -0.03694255415343376, 0.024707019470287975, 0.10765680684859878, -0.09044031039659851, 0.03597936048324278, 0.1049855649471283, 0.060265883803367615, -0.061124049448283146, 0.25006726747140734, -0.24829702921158694, 0.024336472153663635, 0.05259732902050018, 0.027751266956329346, 0.13958576321601868, -0.13297688961029053, 0.005732521414756775, -0.1642563229910659], [0.2516873660174025, -0.09795478925994452, 0.11574601878872437, -0.6282617650915199, -0.1651907369524468, 0.020193353295326233, -0.020935535518564218, 0.06808675075290158, -0.1027048191385591, 0.16785366230642798, -0.18711679225467676, -0.10354473238491184, 0.13006354265844824, -0.0680283932580831, 0.1982523603204705, 0.03907879744585258, 0.012378249430521281, 0.09724634329260298, -0.29832761742152286, -0.2016422861922694, 0.04264154531787315, -0.3303529598524743, -0.20409233675927838, -0.10258224939389862, 0.20250194896455587, 0.03571684452245448, -0.1611409654979887, -0.04879232702305088, 0.022654307805993104, -0.1457928866147995, 0.13331282138824463, -0.045010956292727236, -0.27708886372020536, 0.05522318373861546, 0.017785802483558655, -0.0423007532954216, 0.043113499879837036, -0.003586128354072571, -0.014152660965919495, -0.09576758742332458, 0.07326471238583121], [-0.32443623763523594, -0.1282000859471067, -0.4319573298736877, -0.8991196165565043, -1.2269443883002904, 0.12355786561965942, 0.11441671420764217, 0.03182320625645136, -0.19931889815485548, -0.07253760192476837, 0.1103884616895729, -0.030527900715249603, -0.06493539456211782, 0.17189855772408624, 0.25096761565878845, -0.1502373177990959, -0.3890047871439333, 0.5403202974394045, 0.2578837893998789, -0.04366406438240211, -0.1463123368405085, 0.030769228247152353, 0.2128567154637065, 0.1755943512456548, -0.04125122228923526, -0.10035135987541675, 0.18210667726256458, 0.18227109667517738, 0.038211066095612915, 0.09923183917999268, -0.13684242963790894, 0.09701739578999748, 0.42626221179082746, 0.027882931540900407, 0.02764652669429779, -0.009399980306625366, -0.020783156156539917, -0.12200118601322174, 0.15428751707077026, 0.020691707730293274, 0.030323999315483317], [-0.07117554517064455, 0.09885688919556584, -0.46387588840542077, -0.9917336244443734, -0.4093702982898863, 0.07266031205654144, 0.02351060500277788, -0.18584567832928245, -0.011736346291549592, -0.09705980065894955, 0.1315577423287627, 0.12327394840252225, -0.20423257294727254, 0.23387924445996333, -0.3140484940114202, -0.030885937233985857, -0.23609579292643013, 0.45175513974238957, 0.12425665841677892, 0.09387057957471562, -0.10727664925259972, 0.2598381470938623, -0.023945008860214285, 0.18270164336579037, 0.20552595911344956, 